{"learner":{"attributes":{"best_iteration":"401","best_ntree_limit":"402","scikit_learn":"{\"use_label_encoder\": null, \"n_estimators\": 402, \"objective\": \"binary:logistic\", \"max_depth\": 5, \"max_leaves\": null, \"max_bin\": null, \"grow_policy\": null, \"learning_rate\": 0.096, \"verbosity\": null, \"booster\": null, \"tree_method\": null, \"gamma\": 0.261, \"min_child_weight\": null, \"max_delta_step\": null, \"subsample\": 0.716, \"sampling_method\": null, \"colsample_bytree\": 0.685, \"colsample_bylevel\": null, \"colsample_bynode\": null, \"reg_alpha\": 0.282, \"reg_lambda\": 2.068, \"scale_pos_weight\": null, \"base_score\": null, \"missing\": NaN, \"num_parallel_tree\": null, \"random_state\": 42, \"n_jobs\": 1, \"monotone_constraints\": null, \"interaction_constraints\": null, \"importance_type\": null, \"gpu_id\": null, \"validate_parameters\": null, \"predictor\": null, \"enable_categorical\": false, \"feature_types\": null, \"max_cat_to_onehot\": null, \"max_cat_threshold\": null, \"eval_metric\": null, \"early_stopping_rounds\": null, \"callbacks\": null, \"classes_\": [0, 1], \"n_classes_\": 2, \"_estimator_type\": \"classifier\"}"},"feature_names":["TotalBSA","InteractionScore","FaRepInteraction","FaSolInteraction","FaElecInteraction","NH1","NH2","NH3","OH","carbonyl O","carboxylate O","7.8","7.16","8.8","16.6","17.16","35.8","NumRotatableBonds","NumHeavyAtoms","NumHeteroatoms","NumAromaticHeterocycles","NumSaturatedHeterocycles","tpsa","kappa1","Hydrogen bond","Repulsive","Weak hydrogen bond","C_RESIDUE","SMALLEST_SIZE","hydrophobic_kyte","p_aromatic_residue","p_negative_residue"],"feature_types":["float","float","float","float","float","float","float","int","float","float","int","int","int","int","int","int","int","int","int","int","int","int","float","float","int","int","int","int","float","float","float","float"],"gradient_booster":{"model":{"gbtree_model_param":{"num_parallel_tree":"1","num_trees":"402","size_leaf_vector":"0"},"tree_info":[0,0,0,0,0,0,0,0,0,0,0,0,0,0,0,0,0,0,0,0,0,0,0,0,0,0,0,0,0,0,0,0,0,0,0,0,0,0,0,0,0,0,0,0,0,0,0,0,0,0,0,0,0,0,0,0,0,0,0,0,0,0,0,0,0,0,0,0,0,0,0,0,0,0,0,0,0,0,0,0,0,0,0,0,0,0,0,0,0,0,0,0,0,0,0,0,0,0,0,0,0,0,0,0,0,0,0,0,0,0,0,0,0,0,0,0,0,0,0,0,0,0,0,0,0,0,0,0,0,0,0,0,0,0,0,0,0,0,0,0,0,0,0,0,0,0,0,0,0,0,0,0,0,0,0,0,0,0,0,0,0,0,0,0,0,0,0,0,0,0,0,0,0,0,0,0,0,0,0,0,0,0,0,0,0,0,0,0,0,0,0,0,0,0,0,0,0,0,0,0,0,0,0,0,0,0,0,0,0,0,0,0,0,0,0,0,0,0,0,0,0,0,0,0,0,0,0,0,0,0,0,0,0,0,0,0,0,0,0,0,0,0,0,0,0,0,0,0,0,0,0,0,0,0,0,0,0,0,0,0,0,0,0,0,0,0,0,0,0,0,0,0,0,0,0,0,0,0,0,0,0,0,0,0,0,0,0,0,0,0,0,0,0,0,0,0,0,0,0,0,0,0,0,0,0,0,0,0,0,0,0,0,0,0,0,0,0,0,0,0,0,0,0,0,0,0,0,0,0,0,0,0,0,0,0,0,0,0,0,0,0,0,0,0,0,0,0,0,0,0,0,0,0,0,0,0,0,0,0,0,0,0,0,0,0,0,0,0,0,0,0,0,0,0,0,0,0,0,0,0,0,0,0,0,0,0,0,0,0,0,0,0,0,0,0,0,0,0,0,0,0,0],"trees":[{"base_weights":[-8.731245E-1,-1.4406395E0,7.888137E-1,-1.6741782E0,-4.711734E-1,1.5591697E-3,1.5024147E0,-1.8018122E0,-1.2340162E0,-1.0360051E0,5.46187E-1,7.902551E-1,-8.929401E-1,1.6512123E0,-8.219732E-2,-1.1101047E0,-1.8271011E0,-7.92269E-1,-1.6554142E0,-5.0975263E-1,-1.5587171E0,1.0383115E0,-5.6605107E-1,-7.1303636E-1,9.2747235E-1,-1.4171919E0,-3.341508E-1,1.8485006E0,1.246569E0,3.726807E-1,-1.0269396E0,-1.2281992E0,2.0123318E-1,-1.830679E0,-6.570223E-2,-1.2868724E0,6.5430095E-3,4.524699E-2,-1.7211851E0,-6.3523515E-3,-1.1456039E0,-3.2531533E-1,-1.6602094E0,-2.9746717E-1,1.4050353E0,1.3812655E-1,-9.73217E-1,-1.0269396E0,5.7097953E-2,1.1570785E0,7.033145E-2,-1.4880254E0,6.570223E-2,8.128868E-3,-1.1841443E0,-0E0,1.86961E0,5.969435E-1,1.6591861E0,7.3518026E-1,-7.6177126E-1],"categories":[],"categories_nodes":[],"categories_segments":[],"categories_sizes":[],"default_left":[1,1,1,1,1,1,1,1,1,1,1,1,1,1,1,1,1,1,1,1,1,1,1,1,1,1,1,1,1,1,0,0,0,0,0,0,0,0,0,0,0,0,0,0,0,0,0,0,0,0,0,0,0,0,0,0,0,0,0,0,0],"id":0,"left_children":[1,3,5,7,9,11,13,15,17,19,21,23,25,27,29,31,33,35,37,39,41,43,45,47,49,51,53,55,57,59,-1,-1,-1,-1,-1,-1,-1,-1,-1,-1,-1,-1,-1,-1,-1,-1,-1,-1,-1,-1,-1,-1,-1,-1,-1,-1,-1,-1,-1,-1,-1],"loss_changes":[1.0700361E3,1.8898059E2,1.6210573E2,3.2723633E1,9.731183E1,1.0007024E2,3.6460846E1,4.1052246E0,2.6347824E1,2.7569489E1,3.463793E1,1.7016064E1,1.7954426E1,5.443939E0,7.3438916E0,4.527935E0,2.366333E0,3.2901905E1,9.533676E0,1.8006886E1,4.966263E0,2.2274033E1,6.195652E0,2.1638644E0,1.3324501E1,4.102951E0,1.0554068E1,3.4559937E0,1.1339195E1,5.8050585E0,0E0,0E0,0E0,0E0,0E0,0E0,0E0,0E0,0E0,0E0,0E0,0E0,0E0,0E0,0E0,0E0,0E0,0E0,0E0,0E0,0E0,0E0,0E0,0E0,0E0,0E0,0E0,0E0,0E0,0E0,0E0],"parents":[2147483647,0,0,1,1,2,2,3,3,4,4,5,5,6,6,7,7,8,8,9,9,10,10,11,11,12,12,13,13,14,14,15,15,16,16,17,17,18,18,19,19,20,20,21,21,22,22,23,23,24,24,25,25,26,26,27,27,28,28,29,29],"right_children":[2,4,6,8,10,12,14,16,18,20,22,24,26,28,30,32,34,36,38,40,42,44,46,48,50,52,54,56,58,60,-1,-1,-1,-1,-1,-1,-1,-1,-1,-1,-1,-1,-1,-1,-1,-1,-1,-1,-1,-1,-1,-1,-1,-1,-1,-1,-1,-1,-1,-1,-1],"split_conditions":[2.5E0,1.05E1,9.5E0,1.5E0,1.5E0,3.55E1,2.065E2,4.45E1,9.85E1,1.25E-1,1.575E2,3.5E0,6.5E0,1.475E2,5.8335E-1,8.87265E0,1.5343E2,7.5E0,-3.04115E0,1.46E2,9.55E1,5E-1,8.803E1,1.5E0,4.1665E-1,1.3723E2,2.285E2,3.75295E0,3.5E0,4.175E2,-9.85862E-2,-1.1790713E-1,1.9318385E-2,-1.7574519E-1,-6.3074143E-3,-1.2353975E-1,6.2812894E-4,4.343711E-3,-1.6523378E-1,-6.098258E-4,-1.09977975E-1,-3.123027E-2,-1.5938011E-1,-2.8556848E-2,1.3488339E-1,1.3260149E-2,-9.3428835E-2,-9.85862E-2,5.4814033E-3,1.1107954E-1,6.751819E-3,-1.4285044E-1,6.3074143E-3,7.8037137E-4,-1.1367785E-1,-0E0,1.7948256E-1,5.7306577E-2,1.5928186E-1,7.057731E-2,-7.313004E-2],"split_indices":[24,26,26,24,24,14,14,11,14,5,14,26,26,13,5,28,22,26,3,14,11,20,22,15,5,22,14,23,24,14,0,0,0,0,0,0,0,0,0,0,0,0,0,0,0,0,0,0,0,0,0,0,0,0,0,0,0,0,0,0,0],"split_type":[0,0,0,0,0,0,0,0,0,0,0,0,0,0,0,0,0,0,0,0,0,0,0,0,0,0,0,0,0,0,0,0,0,0,0,0,0,0,0,0,0,0,0,0,0,0,0,0,0,0,0,0,0,0,0,0,0,0,0,0,0],"sum_hessian":[1.12975E3,8.425E2,2.8725E2,6.775E2,1.65E2,1.3775E2,1.495E2,5.1975E2,1.5775E2,1.0625E2,5.875E1,7.35E1,6.425E1,1.3675E2,1.275E1,2.2E1,4.9775E2,8.025E1,7.75E1,5.525E1,5.1E1,4.1E1,1.775E1,5.25E0,6.825E1,3.125E1,3.3E1,8.65E1,5.025E1,9.25E0,3.5E0,2.05E1,1.5E0,4.965E2,1.25E0,4.9E1,3.125E1,2.75E0,7.475E1,3.225E1,2.3E1,4.75E0,4.625E1,8.75E0,3.225E1,6.75E0,1.1E1,3.5E0,1.75E0,5.3E1,1.525E1,3E1,1.25E0,2.475E1,8.25E0,1E0,8.55E1,2.175E1,2.85E1,7.75E0,1.5E0],"tree_param":{"num_deleted":"0","num_feature":"32","num_nodes":"61","size_leaf_vector":"0"}},{"base_weights":[-7.527635E-1,1.0688509E0,-1.4002419E0,1.6117915E0,-5.3244925E-1,-2.692934E-1,-1.6569064E0,1.7298331E0,8.732032E-1,7.0978945E-1,-1.266081E0,7.174631E-1,-8.979378E-1,-1.1701478E0,-1.7139426E0,1.7802681E0,9.7077876E-1,1.0259588E-1,1.3984021E0,1.33874E0,-6.912208E-1,2.1075098E-1,-1.4814258E0,1.0732468E0,-1.4077928E0,-4.928483E-1,-1.4916703E0,-2.95274E-2,-1.6016613E0,-1.2336918E0,-1.7489245E0,3.1380147E-1,1.7898399E0,1.4237511E0,5.0152306E-2,-7.7191913E-1,8.1341624E-1,1.505303E0,-0E0,1.5911603E0,-0E0,-1.0839822E0,2.321738E-1,7.018381E-1,-7.019643E-1,9.1127425E-2,-1.5401977E0,1.3401245E0,-2.9247344E-1,-0E0,-1.0612704E0,-1.5331553E0,-2.2388855E-2,8.3842486E-1,-9.8653346E-1,-1.6474472E0,-0E0,-6.3566005E-1,-1.5772712E0,-6.20609E-1,-1.7584903E0],"categories":[],"categories_nodes":[],"categories_segments":[],"categories_sizes":[],"default_left":[1,1,1,1,1,1,1,1,1,1,1,1,1,1,1,1,1,1,1,1,1,1,1,1,0,1,1,1,1,1,1,0,0,0,0,0,0,0,0,0,0,0,0,0,0,0,0,0,0,0,0,0,0,0,0,0,0,0,0,0,0],"id":1,"left_children":[1,3,5,7,9,11,13,15,17,19,21,23,25,27,29,31,33,35,37,39,41,43,45,47,-1,49,51,53,55,57,59,-1,-1,-1,-1,-1,-1,-1,-1,-1,-1,-1,-1,-1,-1,-1,-1,-1,-1,-1,-1,-1,-1,-1,-1,-1,-1,-1,-1,-1,-1],"loss_changes":[1.3136018E3,2.56302E2,2.3676001E2,1.5236694E1,7.078844E1,9.72067E1,1.3592651E1,2.7860107E0,1.3317682E1,2.782769E1,1.6374176E1,4.9222153E1,2.0877853E1,3.740513E1,4.663208E0,6.5893555E-1,6.3215723E0,1.1571497E1,2.8949852E0,7.3384094E0,4.486249E0,4.5123277E0,4.636406E0,2.0648174E1,0E0,1.6640982E1,1.7705994E0,2.1236172E1,4.2315674E0,7.1331253E0,2.980957E0,0E0,0E0,0E0,0E0,0E0,0E0,0E0,0E0,0E0,0E0,0E0,0E0,0E0,0E0,0E0,0E0,0E0,0E0,0E0,0E0,0E0,0E0,0E0,0E0,0E0,0E0,0E0,0E0,0E0,0E0],"parents":[2147483647,0,0,1,1,2,2,3,3,4,4,5,5,6,6,7,7,8,8,9,9,10,10,11,11,12,12,13,13,14,14,15,15,16,16,17,17,18,18,19,19,20,20,21,21,22,22,23,23,25,25,26,26,27,27,28,28,29,29,30,30],"right_children":[2,4,6,8,10,12,14,16,18,20,22,24,26,28,30,32,34,36,38,40,42,44,46,48,-1,50,52,54,56,58,60,-1,-1,-1,-1,-1,-1,-1,-1,-1,-1,-1,-1,-1,-1,-1,-1,-1,-1,-1,-1,-1,-1,-1,-1,-1,-1,-1,-1,-1,-1],"split_conditions":[-3.4227753E1,-3.426E0,-4.4575996E0,1.765E2,1.055155E1,-2.901175E1,-3.0507599E1,-4.182E0,1.15E1,1.185E2,-4.59384E1,9.1265E2,1.485E2,8.559999E0,-3.6691499E0,2.15E1,1.185E2,2.5E0,-3.64861E1,-1.23895E0,9.6045E0,1.8425499E1,3.55E1,8.519E-1,-1.3514811E-1,1.365E2,-4.50515E0,7.993E2,-3.05897E1,1.165E2,2.95E1,3.0124942E-2,1.7182463E-1,1.3668011E-1,4.8146215E-3,-7.4104235E-2,7.808796E-2,1.4450909E-1,-0E0,1.5275139E-1,-0E0,-1.040623E-1,2.2288686E-2,6.737646E-2,-6.738857E-2,8.748233E-3,-1.4785898E-1,1.2865195E-1,-2.807745E-2,-0E0,-1.0188196E-1,-1.4718291E-1,-2.14933E-3,8.0488786E-2,-9.470721E-2,-1.5815493E-1,-0E0,-6.1023366E-2,-1.5141805E-1,-5.9578463E-2,-1.6881508E-1],"split_indices":[1,4,4,14,2,1,1,4,26,14,1,0,14,2,4,18,13,24,1,4,28,2,13,29,0,13,4,0,1,13,11,0,0,0,0,0,0,0,0,0,0,0,0,0,0,0,0,0,0,0,0,0,0,0,0,0,0,0,0,0,0],"split_type":[0,0,0,0,0,0,0,0,0,0,0,0,0,0,0,0,0,0,0,0,0,0,0,0,0,0,0,0,0,0,0,0,0,0,0,0,0,0,0,0,0,0,0,0,0,0,0,0,0,0,0,0,0,0,0,0,0,0,0,0,0],"sum_hessian":[1.1089641E3,2.903402E2,8.186239E2,2.169449E2,7.3395294E1,1.524066E2,6.662173E2,1.8432822E2,3.2616688E1,2.7133572E1,4.6261723E1,5.902181E1,9.3384796E1,7.506212E1,5.9115515E2,1.6988646E2,1.4441768E1,1.4439294E1,1.8177393E1,1.892903E1,8.204542E0,5.726187E0,4.0535538E1,5.1548553E1,7.4732575E0,5.8043015E1,3.5341785E1,2.1388607E1,5.3673515E1,4.5776024E1,5.4537915E2,1.7457883E0,1.6814067E2,8.716527E0,5.7252407E0,6.2165976E0,8.222696E0,1.6681604E1,1.4957875E0,1.5694054E1,3.2349753E0,5.7181177E0,2.4864244E0,4.234551E0,1.4916363E0,1.2464985E0,3.928904E1,4.3327164E1,8.221389E0,3.237235E1,2.5670666E1,3.4097218E1,1.244565E0,1.1196011E1,1.0192596E1,5.2177357E1,1.4961588E0,1.915309E1,2.6622934E1,5.9779587E0,5.394012E2],"tree_param":{"num_deleted":"0","num_feature":"32","num_nodes":"61","size_leaf_vector":"0"}},{"base_weights":[-7.2591776E-1,1.0323673E0,-1.3258494E0,1.4345195E0,-6.6696334E-1,-9.075566E-2,-1.5188483E0,1.5598358E0,6.19033E-1,2.5247216E-1,-1.3645581E0,8.863815E-1,-7.319332E-1,-1.0465392E0,-1.5955802E0,1.5806494E0,3.1457588E-1,1.0375732E0,-7.0491165E-2,9.29246E-1,-7.70261E-1,-0E0,-1.4869133E0,1.3149246E0,-1.01340145E-1,-1.2397579E0,-3.2572797E-1,-7.6972246E-1,-1.5712568E0,-7.465768E-1,-1.6141812E0,1.6379409E0,1.0300883E0,-3.508235E-1,8.2204485E-1,1.2242993E0,-2.3166163E-1,7.3190343E-1,-8.432106E-1,1.2270294E0,-4.2489323E-1,-0E0,-1.0071825E0,5.0110054E-1,-6.036381E-1,1.4721586E-1,1.4034216E0,2.1034542E-1,-1.0077962E0,-5.655385E-2,-1.4191552E0,-1.1742976E0,1.6432634E-2,-4.6054026E-1,-1.4057168E0,-8.987831E-3,-1.6462831E0,4.6550083E-1,-1.1197759E0,-1.8609184E-1,-1.6172205E0],"categories":[],"categories_nodes":[],"categories_segments":[],"categories_sizes":[],"default_left":[1,1,1,1,1,1,1,1,1,1,1,1,1,1,1,1,1,1,1,1,1,1,0,1,1,1,1,1,1,1,1,0,0,0,0,0,0,0,0,0,0,0,0,0,0,0,0,0,0,0,0,0,0,0,0,0,0,0,0,0,0],"id":2,"left_children":[1,3,5,7,9,11,13,15,17,19,21,23,25,27,29,31,33,35,37,39,41,43,-1,45,47,49,51,53,55,57,59,-1,-1,-1,-1,-1,-1,-1,-1,-1,-1,-1,-1,-1,-1,-1,-1,-1,-1,-1,-1,-1,-1,-1,-1,-1,-1,-1,-1,-1,-1],"loss_changes":[1.1526287E3,1.9239758E2,1.932185E2,2.046936E1,3.6006935E1,7.169429E1,2.1293213E1,3.4681702E0,1.01819515E1,1.889757E1,4.9468575E0,1.978336E1,1.2987835E1,1.2064758E1,6.3275146E0,1.7571716E0,2.75381E0,5.944559E0,1.0269227E1,7.8398275E0,2.102406E0,2.0998776E0,0E0,2.4345474E0,5.0203204E0,5.7190742E0,1.2425306E1,1.2495224E1,3.4719467E0,8.974817E0,1.4110107E0,0E0,0E0,0E0,0E0,0E0,0E0,0E0,0E0,0E0,0E0,0E0,0E0,0E0,0E0,0E0,0E0,0E0,0E0,0E0,0E0,0E0,0E0,0E0,0E0,0E0,0E0,0E0,0E0,0E0,0E0],"parents":[2147483647,0,0,1,1,2,2,3,3,4,4,5,5,6,6,7,7,8,8,9,9,10,10,11,11,12,12,13,13,14,14,15,15,16,16,17,17,18,18,19,19,20,20,21,21,23,23,24,24,25,25,26,26,27,27,28,28,29,29,30,30],"right_children":[2,4,6,8,10,12,14,16,18,20,22,24,26,28,30,32,34,36,38,40,42,44,-1,46,48,50,52,54,56,58,60,-1,-1,-1,-1,-1,-1,-1,-1,-1,-1,-1,-1,-1,-1,-1,-1,-1,-1,-1,-1,-1,-1,-1,-1,-1,-1,-1,-1,-1,-1],"split_conditions":[-3.423745E1,-2.92425E0,-5.18865E0,-4.3169003E0,1.20437E1,-2.9014801E1,-3.6722498E0,4.3E1,1.14412E1,-3.6690804E1,-4.59384E1,7.7804003E0,2.5E0,-2.3038101E1,-3.33764E1,-3.65095E1,1.213E-1,3.35E1,-4.072715E1,1.73E2,6.2E1,2.95E1,-1.4274368E-1,5.72E-2,1.124715E1,3.94715E0,2.15E1,1.00842E1,5.25E1,9.092751E0,1.7E1,1.5724233E-1,9.888848E-2,-3.3679057E-2,7.8916304E-2,1.1753274E-1,-2.2239517E-2,7.026273E-2,-8.094822E-2,1.1779483E-1,-4.078975E-2,-0E0,-9.668952E-2,4.8105653E-2,-5.794926E-2,1.4132722E-2,1.3472848E-1,2.019316E-2,-9.6748434E-2,-5.4291696E-3,-1.362389E-1,-1.1273257E-1,1.5775329E-3,-4.4211864E-2,-1.349488E-1,-8.628318E-4,-1.5804319E-1,4.468808E-2,-1.0749849E-1,-1.7864816E-2,-1.5525317E-1],"split_indices":[1,4,4,4,2,1,4,16,2,1,1,2,24,1,1,1,31,18,1,13,13,18,0,30,2,2,18,2,13,2,13,0,0,0,0,0,0,0,0,0,0,0,0,0,0,0,0,0,0,0,0,0,0,0,0,0,0,0,0,0,0],"split_type":[0,0,0,0,0,0,0,0,0,0,0,0,0,0,0,0,0,0,0,0,0,0,0,0,0,0,0,0,0,0,0,0,0,0,0,0,0,0,0,0,0,0,0,0,0,0,0,0,0,0,0,0,0,0,0,0,0,0,0,0,0],"sum_hessian":[1.0878635E3,2.762543E2,8.116092E2,2.2378342E2,5.2470867E1,1.10292915E2,7.013163E2,1.9203923E2,3.174419E1,2.3031057E1,2.9439812E1,4.321054E1,6.7082375E1,1.0275786E2,5.985585E2,1.8811163E2,3.9275932E0,1.935864E1,1.2385549E1,1.4139369E1,8.891688E0,2.7346067E0,2.6705204E1,2.9856941E1,1.3353601E1,2.7617722E1,3.946465E1,7.096109E1,3.1796768E1,1.4981665E1,5.835768E2,1.6621834E2,2.1893297E1,1.7351261E0,2.1924672E0,1.7133419E1,2.2252228E0,5.950656E0,6.4348927E0,1.1920375E1,2.2189941E0,2.4771667E0,6.414521E0,1.4951782E0,1.2394286E0,2.7158804E0,2.714106E1,1.0887083E1,2.4665177E0,4.2011504E0,2.341657E1,1.0131926E1,2.9332726E1,5.0446117E1,2.0514975E1,1.7353857E0,3.0061382E1,3.2286246E0,1.175304E1,1.7097043E0,5.8186707E2],"tree_param":{"num_deleted":"0","num_feature":"32","num_nodes":"61","size_leaf_vector":"0"}},{"base_weights":[-6.5995574E-1,9.303756E-1,-1.2015693E0,1.3241329E0,-6.415781E-1,-2.2102419E-1,-1.4424827E0,1.3744925E0,-1.620567E-1,1.2383942E-1,-1.3507992E0,6.138116E-1,-7.634543E-1,-1.0243101E0,-1.4918318E0,1.4787658E0,7.3226595E-1,9.5697606E-1,-1.2438977E0,7.910579E-1,-7.449608E-1,-0E0,-1.4278778E0,9.123032E-1,-9.0266156E-1,-2.1188344E-1,-1.1261337E0,1.4197654E-1,-1.2190787E0,-4.3979993E-1,-1.5001799E0,1.4876736E0,7.780787E-2,-5.674415E-1,9.3774813E-1,1.0243983E0,-6.44475E-1,6.777825E-1,-1.0311476E0,1.1150284E0,-3.029693E-1,2.2685376E-1,-1.1454095E0,3.6756212E-1,-6.72953E-1,-1.2280219E0,4.8912686E-1,6.2427026E-1,-7.730889E-1,-1.2670892E-1,-1.3435512E0,4.892382E-1,-8.1593245E-1,-1.5047328E0,-1.7450684E-1],"categories":[],"categories_nodes":[],"categories_segments":[],"categories_sizes":[],"default_left":[1,1,1,1,1,1,1,1,1,1,1,1,1,1,1,1,1,0,0,1,1,0,0,1,1,1,1,1,1,1,1,0,0,0,0,0,0,0,0,0,0,0,0,0,0,0,0,0,0,0,0,0,0,0,0],"id":3,"left_children":[1,3,5,7,9,11,13,15,17,19,21,23,25,27,29,31,33,-1,-1,35,37,-1,-1,39,41,43,45,47,49,51,53,-1,-1,-1,-1,-1,-1,-1,-1,-1,-1,-1,-1,-1,-1,-1,-1,-1,-1,-1,-1,-1,-1,-1,-1],"loss_changes":[9.245802E2,1.7094395E2,1.8777808E2,1.7204865E1,3.1059135E1,7.364598E1,9.3654785E0,1.1359161E1,1.3255371E1,1.7814772E1,3.268692E0,3.0727064E1,1.8803986E1,1.7675598E1,3.081421E0,1.5692444E0,1.0322296E1,0E0,0E0,7.2899475E0,6.9635606E0,0E0,0E0,1.4416996E1,3.9298897E0,1.1784291E1,1.1086235E1,6.412395E0,8.017586E0,3.5969963E0,2.3811035E0,0E0,0E0,0E0,0E0,0E0,0E0,0E0,0E0,0E0,0E0,0E0,0E0,0E0,0E0,0E0,0E0,0E0,0E0,0E0,0E0,0E0,0E0,0E0,0E0],"parents":[2147483647,0,0,1,1,2,2,3,3,4,4,5,5,6,6,7,7,8,8,9,9,10,10,11,11,12,12,13,13,14,14,15,15,16,16,19,19,20,20,23,23,24,24,25,25,26,26,27,27,28,28,29,29,30,30],"right_children":[2,4,6,8,10,12,14,16,18,20,22,24,26,28,30,32,34,-1,-1,36,38,-1,-1,40,42,44,46,48,50,52,54,-1,-1,-1,-1,-1,-1,-1,-1,-1,-1,-1,-1,-1,-1,-1,-1,-1,-1,-1,-1,-1,-1,-1,-1],"split_conditions":[-3.422935E1,-2.9064999E0,-4.34405E0,1.62877E1,1.283685E1,-2.8999401E1,-3.0249E1,-4.3169003E0,-4.6764603E1,-3.66754E1,-4.93847E1,1.05937E1,5.4904E0,7.4131002E0,2.95E1,5E-1,4.4981E0,9.1869704E-2,-1.1941418E-1,1.955E2,7.2855E0,-0E0,-1.3707627E-1,8.519E-1,5.5E0,-2.1655201E1,3.305E2,6.4400997E0,-1.882E-1,-2.26375E0,1.5343E2,1.4281668E-1,7.469556E-3,-5.4474387E-2,9.002382E-2,9.834224E-2,-6.18696E-2,6.506712E-2,-9.899017E-2,1.0704272E-1,-2.9085053E-2,2.1777961E-2,-1.0995931E-1,3.5285965E-2,-6.460349E-2,-1.178901E-1,4.6956178E-2,5.9929945E-2,-7.421653E-2,-1.2164057E-2,-1.2898092E-1,4.696687E-2,-7.832952E-2,-1.4445436E-1,-1.6752657E-2],"split_indices":[1,4,4,2,2,1,1,4,1,1,1,2,2,2,11,6,23,0,0,13,2,0,0,29,17,1,11,23,29,4,22,0,0,0,0,0,0,0,0,0,0,0,0,0,0,0,0,0,0,0,0,0,0,0,0],"split_type":[0,0,0,0,0,0,0,0,0,0,0,0,0,0,0,0,0,0,0,0,0,0,0,0,0,0,0,0,0,0,0,0,0,0,0,0,0,0,0,0,0,0,0,0,0,0,0,0,0,0,0,0,0,0,0],"sum_hessian":[1.0685739E3,2.7095825E2,7.9761554E2,2.1708598E2,5.3872276E1,1.583301E2,6.3928546E2,2.1030498E2,6.781013E0,2.6539331E1,2.7332945E1,6.2045673E1,9.628442E1,7.2831726E1,5.6645374E2,1.7823375E2,3.207122E1,3.3224072E0,3.4586058E0,1.529939E1,1.1239942E1,1.4853096E0,2.5847635E1,5.268533E1,9.360341E0,3.9803726E1,5.6480686E1,1.0295327E1,6.2536404E1,5.59953E0,5.608542E2,1.7678043E2,1.4533317E0,3.6935766E0,2.8377644E1,1.383868E1,1.4607102E0,1.2434112E0,9.996531E0,4.54982E1,7.1871333E0,1.4742595E0,7.8860817E0,1.7552517E1,2.225121E1,5.3759953E1,2.7207341E0,7.3740973E0,2.92123E0,7.0555625E0,5.548084E1,1.2184329E0,4.381098E0,5.584442E2,2.4099827E0],"tree_param":{"num_deleted":"0","num_feature":"32","num_nodes":"55","size_leaf_vector":"0"}},{"base_weights":[-5.965858E-1,8.4267265E-1,-1.1398444E0,-7.988067E-1,9.753023E-1,-6.6612244E-1,-1.3958584E0,-1.028473E0,8.4606457E-1,-6.189921E-1,1.0708708E0,-2.3683658E-1,-1.0062819E0,-7.0282716E-1,-1.4183534E0,-1.1918461E0,2.968904E-1,-1.0024356E0,9.949115E-2,1.3317232E0,7.0686996E-1,-7.912714E-1,3.6710333E-2,3.9790258E-1,-1.1013659E0,-8.8761586E-1,1.3984083E-1,-7.866186E-1,-1.4441365E0,-1.3453516E0,-2.785991E-1,-1.1296954E0,-1.18760385E-1,-3.9001083E-1,6.072086E-1,1.3512198E0,-1.7873463E-1,1.1576828E0,2.2468291E-1,5.380586E-1,-9.912165E-1,-3.2330814E-1,5.5399215E-1,-2.2628139E-1,8.7489283E-1,-4.734227E-1,-1.2463223E0,-1.0246321E0,-0E0,-2.8373587E-1,5.32955E-1,4.7996622E-1,-1.2424225E0,-0E0,-1.448034E0],"categories":[],"categories_nodes":[],"categories_segments":[],"categories_sizes":[],"default_left":[1,1,1,1,1,1,1,1,0,1,1,1,1,1,1,1,0,1,1,1,1,1,1,1,1,1,1,1,1,0,0,0,0,0,0,0,0,0,0,0,0,0,0,0,0,0,0,0,0,0,0,0,0,0,0],"id":4,"left_children":[1,3,5,7,9,11,13,15,-1,17,19,21,23,25,27,29,-1,31,33,35,37,39,41,43,45,47,49,51,53,-1,-1,-1,-1,-1,-1,-1,-1,-1,-1,-1,-1,-1,-1,-1,-1,-1,-1,-1,-1,-1,-1,-1,-1,-1,-1],"loss_changes":[8.3082056E2,6.512181E1,9.094226E1,1.0452622E1,4.2757446E1,3.9263947E1,5.1026E0,5.5450287E0,0E0,4.995035E0,2.1823944E1,1.9154058E1,2.1430283E1,3.6047802E0,4.8373413E0,1.4801388E0,0E0,6.27038E-1,2.3782632E0,5.146515E0,2.339603E1,1.2277678E1,1.6264984E1,3.8631134E0,1.1340103E1,2.1970682E0,1.2381395E0,1.5180535E1,2.229187E0,0E0,0E0,0E0,0E0,0E0,0E0,0E0,0E0,0E0,0E0,0E0,0E0,0E0,0E0,0E0,0E0,0E0,0E0,0E0,0E0,0E0,0E0,0E0,0E0,0E0,0E0],"parents":[2147483647,0,0,1,1,2,2,3,3,4,4,5,5,6,6,7,7,9,9,10,10,11,11,12,12,13,13,14,14,15,15,17,17,18,18,19,19,20,20,21,21,22,22,23,23,24,24,25,25,26,26,27,27,28,28],"right_children":[2,4,6,8,10,12,14,16,-1,18,20,22,24,26,28,30,-1,32,34,36,38,40,42,44,46,48,50,52,54,-1,-1,-1,-1,-1,-1,-1,-1,-1,-1,-1,-1,-1,-1,-1,-1,-1,-1,-1,-1,-1,-1,-1,-1,-1,-1],"split_conditions":[-5.0314503E0,2.15E1,-2.4242501E0,3.5E0,1.5E0,1.165E2,4.45E1,1.1321499E0,8.12222E-2,2.4265E-1,1.345E2,2.35E1,-5.891E-1,3.7980002E-1,-4.808E0,1.75E2,2.8501479E-2,9.5E0,2.65E1,2.5E-1,-7.53025E0,8.25E1,8.82675E0,1.5E0,5.72E-2,8.5306E0,5E-1,-1.2895501E0,1.75E1,-1.2915376E-1,-2.6745515E-2,-1.0845076E-1,-1.1400997E-2,-3.744104E-2,5.8292028E-2,1.297171E-1,-1.7158525E-2,1.1113755E-1,2.156956E-2,5.1653624E-2,-9.515678E-2,-3.1037582E-2,5.3183246E-2,-2.1723013E-2,8.398971E-2,-4.544858E-2,-1.1964694E-1,-9.836468E-2,-0E0,-2.7238645E-2,5.116368E-2,4.6076756E-2,-1.1927256E-1,-0E0,-1.3901126E-1],"split_indices":[4,18,4,15,24,13,11,29,0,30,13,18,3,30,3,11,0,19,18,6,4,11,28,24,31,28,12,4,13,0,0,0,0,0,0,0,0,0,0,0,0,0,0,0,0,0,0,0,0,0,0,0,0,0,0],"split_type":[0,0,0,0,0,0,0,0,0,0,0,0,0,0,0,0,0,0,0,0,0,0,0,0,0,0,0,0,0,0,0,0,0,0,0,0,0,0,0,0,0,0,0,0,0,0,0,0,0,0,0,0,0,0,0],"sum_hessian":[1.0578649E3,2.894265E2,7.684384E2,2.070159E1,2.6872495E2,2.725917E2,4.958467E2,1.8995703E1,1.7058856E0,1.4390052E1,2.5433488E2,1.2242568E2,1.5016602E2,1.8079111E1,4.7776758E2,1.7286016E1,1.7096869E0,9.105685E0,5.2843666E0,1.4450572E2,1.09829155E2,3.9494244E1,8.2931435E1,8.9178E0,1.4124821E2,1.5011567E1,3.067543E0,2.171858E1,4.56049E2,1.3696535E1,3.5894816E0,7.177215E0,1.9284699E0,2.6517558E0,2.632611E0,1.4306381E2,1.4419191E0,5.496171E1,5.4867447E1,4.522053E0,3.497219E1,4.903459E1,3.3896843E1,4.0776196E0,4.8401804E0,2.8510344E1,1.1273788E2,1.2841842E1,2.1697254E0,1.4082305E0,1.6593126E0,5.5547533E0,1.6163828E1,1.3996876E0,4.5464932E2],"tree_param":{"num_deleted":"0","num_feature":"32","num_nodes":"55","size_leaf_vector":"0"}},{"base_weights":[-5.964603E-1,-9.770645E-1,4.9612343E-1,-1.1016563E0,2.1996802E-1,-1.5818147E-1,1.1005989E0,-1.2471895E0,-6.6407883E-1,6.396359E-1,-3.9583626E-1,-3.4875667E-1,7.1964514E-1,1.1414508E0,2.1504445E-2,-1.047424E0,-1.3322473E0,-1.0001693E0,-8.987469E-2,-8.017227E-2,9.112944E-1,-9.336495E-1,3.575211E-1,-2.2083724E-2,-8.0700135E-1,-3.1771436E-1,9.396449E-1,8.582936E-1,1.3475757E0,-6.123732E-1,7.635225E-1,-1.2598265E0,-6.8598026E-1,-1.3388243E0,1.332004E-1,-4.4108206E-1,-1.1804353E0,2.3216408E-1,-6.960003E-1,-4.171646E-1,4.4735822E-1,-0E0,1.0976623E0,-1.0426195E0,2.4048347E-2,-2.4553725E-1,8.1683636E-1,2.4467744E-1,-8.0326736E-1,-9.286972E-1,1.7533384E-1,-5.696684E-1,-0E0,-2.719101E-1,1.0599699E0,9.0390635E-1,-4.459603E-1,3.6125833E-1,1.3789642E0,-8.368116E-1,-0E0],"categories":[],"categories_nodes":[],"categories_segments":[],"categories_sizes":[],"default_left":[1,1,1,1,1,1,1,1,1,1,1,1,1,1,1,1,1,1,1,1,1,1,1,1,1,1,1,1,1,1,0,0,0,0,0,0,0,0,0,0,0,0,0,0,0,0,0,0,0,0,0,0,0,0,0,0,0,0,0,0,0],"id":5,"left_children":[1,3,5,7,9,11,13,15,17,19,21,23,25,27,29,31,33,35,37,39,41,43,45,47,49,51,53,55,57,59,-1,-1,-1,-1,-1,-1,-1,-1,-1,-1,-1,-1,-1,-1,-1,-1,-1,-1,-1,-1,-1,-1,-1,-1,-1,-1,-1,-1,-1,-1,-1],"loss_changes":[4.260967E2,1.13916565E2,1.0551473E2,4.1549866E1,1.9469143E1,2.1984108E1,5.7193604E0,5.165161E0,3.3582558E1,9.087538E0,1.3254432E1,1.5835545E1,6.1352825E0,4.748413E0,4.492655E0,1.0251221E1,4.095886E0,9.639587E0,1.3694282E1,2.832445E0,5.420431E0,2.2854443E0,4.461138E0,1.417167E1,5.8524E0,5.797482E-1,3.742693E0,4.669033E0,7.3172E-1,8.0599844E-1,0E0,0E0,0E0,0E0,0E0,0E0,0E0,0E0,0E0,0E0,0E0,0E0,0E0,0E0,0E0,0E0,0E0,0E0,0E0,0E0,0E0,0E0,0E0,0E0,0E0,0E0,0E0,0E0,0E0,0E0,0E0],"parents":[2147483647,0,0,1,1,2,2,3,3,4,4,5,5,6,6,7,7,8,8,9,9,10,10,11,11,12,12,13,13,14,14,15,15,16,16,17,17,18,18,19,19,20,20,21,21,22,22,23,23,24,24,25,25,26,26,27,27,28,28,29,29],"right_children":[2,4,6,8,10,12,14,16,18,20,22,24,26,28,30,32,34,36,38,40,42,44,46,48,50,52,54,56,58,60,-1,-1,-1,-1,-1,-1,-1,-1,-1,-1,-1,-1,-1,-1,-1,-1,-1,-1,-1,-1,-1,-1,-1,-1,-1,-1,-1,-1,-1,-1,-1],"split_conditions":[2.5E0,1.25E1,9.5E0,1.5E0,1.25E-1,4.5E0,1.648655E1,7.297E1,8.5E0,8.46725E0,1.5E0,9.9020004E1,1.15E1,3.5E0,1.95E1,7.5E0,3.65E1,6.46E-2,9.9775E1,1.716E-1,5E-1,1.95E1,7.5E0,4.1665E-1,8.5456E0,4.2613E0,3.5E0,1.25E1,2.35E1,1.35E1,7.329816E-2,-1.2094335E-1,-6.58541E-2,-1.2852713E-1,1.278724E-2,-4.2343877E-2,-1.1332179E-1,2.2287752E-2,-6.6816024E-2,-4.0047802E-2,4.294639E-2,-0E0,1.0537559E-1,-1.0009147E-1,2.3086413E-3,-2.3571577E-2,7.841629E-2,2.3489034E-2,-7.7113666E-2,-8.915494E-2,1.683205E-2,-5.4688167E-2,-0E0,-2.610337E-2,1.0175711E-1,8.677501E-2,-4.281219E-2,3.46808E-2,1.3238056E-1,-8.033391E-2,-0E0],"split_indices":[24,26,26,24,5,24,2,22,26,28,24,22,27,24,27,26,18,31,22,30,24,12,12,5,23,2,26,17,18,26,0,0,0,0,0,0,0,0,0,0,0,0,0,0,0,0,0,0,0,0,0,0,0,0,0,0,0,0,0,0,0],"split_type":[0,0,0,0,0,0,0,0,0,0,0,0,0,0,0,0,0,0,0,0,0,0,0,0,0,0,0,0,0,0,0,0,0,0,0,0,0,0,0,0,0,0,0,0,0,0,0,0,0,0,0,0,0,0,0,0,0,0,0,0,0],"sum_hessian":[1.0198555E3,7.567252E2,2.631303E2,6.8575E2,7.09752E1,1.26866264E2,1.3626405E2,5.112451E2,1.7450491E2,4.2434307E1,2.8540888E1,1.0552463E2,2.1341642E1,1.3092665E2,5.3373895E0,1.618875E2,3.493576E2,1.08798355E2,6.570656E1,1.174183E1,3.0692476E1,1.6582352E1,1.1958537E1,6.323137E1,4.2293255E1,3.3491478E0,1.7992495E1,6.0232037E1,7.0694626E1,2.8683462E0,2.4690433E0,9.823774E1,6.3649765E1,3.4816614E2,1.1914545E0,2.864611E1,8.0152245E1,4.343819E1,2.226837E1,7.755041E0,3.9867887E0,5.681362E0,2.5011114E1,1.4988043E1,1.5943077E0,5.3209453E0,6.637592E0,4.792505E1,1.530632E1,3.798723E1,4.30603E0,1.4034684E0,1.9456795E0,1.1783867E0,1.6814108E1,5.9019005E1,1.2130305E0,3.255356E0,6.743927E1,1.7265292E0,1.141817E0],"tree_param":{"num_deleted":"0","num_feature":"32","num_nodes":"61","size_leaf_vector":"0"}},{"base_weights":[-5.6475365E-1,-9.316001E-1,4.9217063E-1,-1.0899194E0,-2.0392913E-2,9.550436E-1,-2.1936712E-1,-1.2225919E0,-6.967589E-1,-4.719405E-1,6.532243E-1,-2.2124816E-2,1.0798872E0,-7.5086415E-1,5.766476E-1,-0E0,-1.2296748E0,-3.2480383E-1,-1.1077849E0,-8.701517E-1,-3.2371175E-2,9.646329E-1,-1.9266059E-1,-5.4012203E-1,2.8045532E-1,1.2468152E0,5.4946864E-1,4.7048566E-1,-8.380793E-1,8.756758E-1,-8.533985E-2,-5.560772E-1,6.2852556E-1,-5.827878E-1,-1.2481784E0,1.9859909E-1,-8.2700616E-1,-0E0,-1.1755846E0,2.9324988E-1,-1.098775E0,-4.7049844E-1,5.919849E-1,1.05126604E-1,1.1483477E0,-5.618605E-1,3.708678E-1,2.5839663E-1,-8.325748E-1,-4.7165173E-1,5.023798E-1,-0E0,1.2601843E0,-1.1507687E-1,1.0444854E0,-2.0490382E-2,7.004622E-1,-1.3337513E0,-3.8454223E-1,-1.9039702E-1,9.836982E-1,-4.2895183E-1,6.202459E-1],"categories":[],"categories_nodes":[],"categories_segments":[],"categories_sizes":[],"default_left":[1,1,1,1,1,1,1,1,1,1,1,1,1,1,1,1,1,1,1,1,1,1,1,1,1,1,1,1,1,1,1,0,0,0,0,0,0,0,0,0,0,0,0,0,0,0,0,0,0,0,0,0,0,0,0,0,0,0,0,0,0,0,0],"id":6,"left_children":[1,3,5,7,9,11,13,15,17,19,21,23,25,27,29,31,33,35,37,39,41,43,45,47,49,51,53,55,57,59,61,-1,-1,-1,-1,-1,-1,-1,-1,-1,-1,-1,-1,-1,-1,-1,-1,-1,-1,-1,-1,-1,-1,-1,-1,-1,-1,-1,-1,-1,-1,-1,-1],"loss_changes":[3.8083444E2,1.0466376E2,8.413774E1,3.0033813E1,3.408631E1,1.916217E1,4.382861E1,3.9885254E0,2.3582253E1,1.1482829E1,1.2407261E1,3.4024465E0,1.0211441E1,7.511635E0,8.600294E0,2.3715818E0,3.456543E0,2.3701057E1,5.819916E0,1.0187014E1,9.983197E0,4.6621265E0,3.3016949E0,2.5091166E0,2.6959643E0,1.5046234E0,1.2652174E1,8.1240916E-1,1.1656342E1,3.961174E0,4.0157037E0,0E0,0E0,0E0,0E0,0E0,0E0,0E0,0E0,0E0,0E0,0E0,0E0,0E0,0E0,0E0,0E0,0E0,0E0,0E0,0E0,0E0,0E0,0E0,0E0,0E0,0E0,0E0,0E0,0E0,0E0,0E0,0E0],"parents":[2147483647,0,0,1,1,2,2,3,3,4,4,5,5,6,6,7,7,8,8,9,9,10,10,11,11,12,12,13,13,14,14,15,15,16,16,17,17,18,18,19,19,20,20,21,21,22,22,23,23,24,24,25,25,26,26,27,27,28,28,29,29,30,30],"right_children":[2,4,6,8,10,12,14,16,18,20,22,24,26,28,30,32,34,36,38,40,42,44,46,48,50,52,54,56,58,60,62,-1,-1,-1,-1,-1,-1,-1,-1,-1,-1,-1,-1,-1,-1,-1,-1,-1,-1,-1,-1,-1,-1,-1,-1,-1,-1,-1,-1,-1,-1,-1,-1],"split_conditions":[2.5E0,1.15E1,3.5E1,1.5E0,1.5E0,5.5E0,9.5E0,2.1E1,1.045E2,1.8900001E-1,1.575E2,3.5E0,1.655E2,4.05E1,2.065E2,1.5E0,4.25E1,1.185E2,4.566E1,6.05E1,1.35E1,5E-1,5E-1,-7.958E-1,1.05E1,1.05E1,3.5E0,8.3835E1,1.35E1,1.135E2,2.115E2,-5.338341E-2,6.0338452E-2,-5.594763E-2,-1.19825125E-1,1.9065512E-2,-7.939259E-2,-0E0,-1.1285612E-1,2.8151989E-2,-1.0548241E-1,-4.5167852E-2,5.6830555E-2,1.0092154E-2,1.1024138E-1,-5.393861E-2,3.5603307E-2,2.4806077E-2,-7.992718E-2,-4.5278568E-2,4.8228458E-2,-0E0,1.2097769E-1,-1.104738E-2,1.0027061E-1,-1.9670767E-3,6.724437E-2,-1.2804013E-1,-3.6916055E-2,-1.8278114E-2,9.443503E-2,-4.1179378E-2,5.9543606E-2],"split_indices":[24,26,14,24,24,26,26,13,14,30,14,26,13,11,14,20,11,13,22,13,26,20,21,29,27,27,24,22,27,14,13,0,0,0,0,0,0,0,0,0,0,0,0,0,0,0,0,0,0,0,0,0,0,0,0,0,0,0,0,0,0,0,0],"split_type":[0,0,0,0,0,0,0,0,0,0,0,0,0,0,0,0,0,0,0,0,0,0,0,0,0,0,0,0,0,0,0,0,0,0,0,0,0,0,0,0,0,0,0,0,0,0,0,0,0,0,0,0,0,0,0,0,0,0,0,0,0,0,0],"sum_hessian":[9.773852E2,7.259338E2,2.514514E2,6.178664E2,1.080674E2,1.5215767E2,9.929374E1,4.5817477E2,1.5969162E2,6.5319435E1,4.2747963E1,1.717433E1,1.3498334E2,5.982218E1,3.947156E1,2.648961E0,4.5552582E2,8.613374E1,7.355788E1,3.287254E1,3.2446896E1,3.1276669E1,1.1471296E1,6.0778847E0,1.1096445E1,1.0014268E2,3.484066E1,3.1659048E0,5.6656277E1,2.7023252E1,1.2448308E1,1.5298784E0,1.1190828E0,1.4960105E1,4.405657E2,4.251384E1,4.3619904E1,4.2603865E0,6.929749E1,5.100327E0,2.7772213E1,1.9631926E1,1.2814968E1,6.350822E0,2.4925846E1,7.2366734E0,4.234623E0,1.4353467E0,4.642538E0,1.7085035E0,9.387942E0,1.2097358E0,9.893294E1,1.5307869E1,1.953279E1,1.2196382E0,1.9462667E0,2.4855888E1,3.1800386E1,2.1009922E0,2.492226E1,9.185521E0,3.262787E0],"tree_param":{"num_deleted":"0","num_feature":"32","num_nodes":"63","size_leaf_vector":"0"}},{"base_weights":[-5.1934004E-1,7.387437E-1,-1.0286485E0,1.1333495E0,-2.9621142E-1,-5.4404315E-2,-1.1664035E0,1.2940974E0,7.0702106E-1,3.4990054E-1,-6.935868E-1,6.793295E-1,-6.000839E-1,-7.9663336E-1,-1.2355471E0,6.247772E-2,1.3089315E0,-4.3900105E-1,9.979016E-1,6.885425E-1,-5.1335824E-1,8.752256E-2,-1.0210139E0,1.6001974E-1,1.0139537E0,3.480463E-1,-7.800482E-1,-9.7619015E-1,7.976022E-2,-4.1296914E-1,-1.2674956E0,-0E0,1.3198413E0,-8.883397E-1,4.5206046E-1,1.1706898E0,-4.294872E-2,1.1584619E0,5.9616E-2,1.3276362E-1,-8.4095085E-1,5.1252306E-1,-7.616313E-1,-2.899704E-1,-1.1389081E0,6.4448136E-1,-3.7668777E-1,1.0984398E0,-0E0,1.0454819E0,-2.2742195E-1,1.4683011E-1,-9.6493137E-1,-1.9447139E-2,-1.0759969E0,8.0722785E-1,-6.789763E-1,-0E0,-9.926405E-1,-1.2712837E0,4.6681672E-2],"categories":[],"categories_nodes":[],"categories_segments":[],"categories_sizes":[],"default_left":[1,1,1,1,1,1,1,1,1,1,1,1,1,1,1,0,1,1,1,1,1,1,1,1,1,1,1,1,1,1,1,0,0,0,0,0,0,0,0,0,0,0,0,0,0,0,0,0,0,0,0,0,0,0,0,0,0,0,0,0,0],"id":7,"left_children":[1,3,5,7,9,11,13,15,17,19,21,23,25,27,29,-1,31,33,35,37,39,41,43,45,47,49,51,53,55,57,59,-1,-1,-1,-1,-1,-1,-1,-1,-1,-1,-1,-1,-1,-1,-1,-1,-1,-1,-1,-1,-1,-1,-1,-1,-1,-1,-1,-1,-1,-1],"loss_changes":[6.079658E2,1.1271924E2,9.0059814E1,1.1167175E1,2.0368265E1,3.5250393E1,1.2493164E1,2.0273285E0,2.0888426E1,9.675198E0,1.2888149E1,5.837002E0,9.322952E0,1.6073574E1,1.140564E1,0E0,1.6417084E0,6.2702303E0,9.101353E0,6.302866E0,2.4462762E0,6.5174656E0,1.9039955E0,5.1151924E0,1.9304428E0,4.4379582E0,7.968527E0,7.5749283E0,1.1417447E1,5.4622116E0,2.8250732E0,0E0,0E0,0E0,0E0,0E0,0E0,0E0,0E0,0E0,0E0,0E0,0E0,0E0,0E0,0E0,0E0,0E0,0E0,0E0,0E0,0E0,0E0,0E0,0E0,0E0,0E0,0E0,0E0,0E0,0E0],"parents":[2147483647,0,0,1,1,2,2,3,3,4,4,5,5,6,6,7,7,8,8,9,9,10,10,11,11,12,12,13,13,14,14,16,16,17,17,18,18,19,19,20,20,21,21,22,22,23,23,24,24,25,25,26,26,27,27,28,28,29,29,30,30],"right_children":[2,4,6,8,10,12,14,16,18,20,22,24,26,28,30,-1,32,34,36,38,40,42,44,46,48,50,52,54,56,58,60,-1,-1,-1,-1,-1,-1,-1,-1,-1,-1,-1,-1,-1,-1,-1,-1,-1,-1,-1,-1,-1,-1,-1,-1,-1,-1,-1,-1,-1,-1],"split_conditions":[-3.357905E1,-3.2738E0,-5.5385504E0,-3.8288902E1,1.55E1,-2.832395E1,-3.6691499E0,3.939E1,2.60305E0,-1.2277501E0,-4.156555E1,9.86105E0,-1.48535E0,5E-1,4.45E1,5.9978613E-3,5.5E0,1.905E2,1.875E2,-3.6629852E1,1.42E2,-9.309E-1,-2.7716E0,1.32E2,1.85E1,-2.2277351E1,7.35E1,5.35E1,1.12E2,-5.089E-1,1.52175E2,-0E0,1.2670477E-1,-8.528061E-2,4.3397803E-2,1.1238623E-1,-4.1230773E-3,1.1121234E-1,5.723136E-3,1.2745308E-2,-8.073128E-2,4.9202215E-2,-7.311661E-2,-2.783716E-2,-1.09335184E-1,6.187021E-2,-3.6162026E-2,1.0545022E-1,-0E0,1.00366265E-1,-2.1832507E-2,1.4095691E-2,-9.263341E-2,-1.8669253E-3,-1.032957E-1,7.7493876E-2,-6.5181725E-2,-0E0,-9.529349E-2,-1.2204324E-1,4.4814404E-3],"split_indices":[1,4,4,1,27,1,4,22,3,4,1,3,29,15,11,0,26,11,13,1,11,4,4,11,27,1,13,13,13,4,22,0,0,0,0,0,0,0,0,0,0,0,0,0,0,0,0,0,0,0,0,0,0,0,0,0,0,0,0,0,0],"split_type":[0,0,0,0,0,0,0,0,0,0,0,0,0,0,0,0,0,0,0,0,0,0,0,0,0,0,0,0,0,0,0,0,0,0,0,0,0,0,0,0,0,0,0,0,0,0,0,0,0,0,0,0,0,0,0,0,0,0,0,0,0],"sum_hessian":[9.441825E2,2.7165652E2,6.7252594E2,1.9672533E2,7.4931206E1,8.392382E1,5.886021E2,1.3932271E2,5.7402634E1,2.835875E1,4.6572456E1,3.5357708E1,4.8566113E1,9.7446045E1,4.9115607E2,2.0125906E0,1.373101E2,1.1210917E1,4.6191715E1,2.0903767E1,7.4549823E0,1.3949206E1,3.262325E1,1.53834715E1,1.9974237E1,7.1896234E0,4.137649E1,8.094766E1,1.6498384E1,1.976983E1,4.7138623E2,1.3522229E0,1.3595789E2,7.667297E0,3.5436206E0,3.9626423E1,6.56529E0,1.0711103E1,1.0192663E1,2.6322951E0,4.822687E0,1.0064068E1,3.885139E0,5.8562098E0,2.676704E1,8.143165E0,7.240307E0,1.8313837E1,1.6604005E0,2.7083051E0,4.4813185E0,6.69794E0,3.467855E1,8.147031E0,7.280063E1,8.545022E0,7.9533634E0,1.2514596E1,7.2552347E0,4.7031262E2,1.0736088E0],"tree_param":{"num_deleted":"0","num_feature":"32","num_nodes":"61","size_leaf_vector":"0"}},{"base_weights":[-4.7373304E-1,7.389211E-1,-9.472859E-1,1.04333E0,-5.9333366E-1,-1.6386011E-1,-1.1713653E0,1.2081289E0,4.5407942E-1,-0E0,-1.09482E0,3.2617804E-1,-7.221697E-1,-7.68453E-1,-1.2136967E0,-2.8761303E-1,1.2337468E0,8.6429894E-1,-6.8664986E-1,4.039198E-1,-9.078361E-1,1.449216E-3,-1.1689363E0,7.3267096E-1,-3.5101542E-1,-2.4515378E-1,-1.1342198E0,4.100574E-1,-8.443735E-1,-1.2192178E0,2.0459507E-2,1.3495272E0,9.6108437E-1,1.0493666E0,-2.944459E-1,4.4289485E-1,-1.0090944E0,9.121821E-1,-2.0867644E-1,-0E0,-1.228854E0,8.5294694E-1,-6.2497324E-1,-6.814007E-1,5.757351E-1,-4.141325E-1,1.1409526E0,-2.985897E-1,-1.307157E0,-1.359776E-1,7.519117E-1,-5.4305124E-1,-1.1522675E0,-0E0,-1.2247728E0],"categories":[],"categories_nodes":[],"categories_segments":[],"categories_sizes":[],"default_left":[1,1,1,1,1,1,1,1,1,1,1,1,1,1,1,0,1,1,1,1,0,0,1,1,1,1,1,1,1,1,0,0,0,0,0,0,0,0,0,0,0,0,0,0,0,0,0,0,0,0,0,0,0,0,0],"id":8,"left_children":[1,3,5,7,9,11,13,15,17,19,21,23,25,27,29,-1,31,33,35,37,-1,-1,39,41,43,45,47,49,51,53,-1,-1,-1,-1,-1,-1,-1,-1,-1,-1,-1,-1,-1,-1,-1,-1,-1,-1,-1,-1,-1,-1,-1,-1,-1],"loss_changes":[5.22741E2,1.0518886E2,1.140069E2,1.87146E1,1.4604517E1,4.1118908E1,6.173218E0,7.2035675E0,2.440101E1,9.626078E0,2.4859161E0,2.2669636E1,1.282267E1,5.719208E0,3.4920044E0,0E0,1.7088013E0,8.881193E0,6.1977153E0,6.2980824E0,0E0,0E0,1.8990288E0,9.484859E0,1.0380974E1,9.07855E0,4.0502815E0,1.2192659E0,3.0660057E0,3.2381592E0,0E0,0E0,0E0,0E0,0E0,0E0,0E0,0E0,0E0,0E0,0E0,0E0,0E0,0E0,0E0,0E0,0E0,0E0,0E0,0E0,0E0,0E0,0E0,0E0,0E0],"parents":[2147483647,0,0,1,1,2,2,3,3,4,4,5,5,6,6,7,7,8,8,9,9,10,10,11,11,12,12,13,13,14,14,16,16,17,17,18,18,19,19,22,22,23,23,24,24,25,25,26,26,27,27,28,28,29,29],"right_children":[2,4,6,8,10,12,14,16,18,20,22,24,26,28,30,-1,32,34,36,38,-1,-1,40,42,44,46,48,50,52,54,-1,-1,-1,-1,-1,-1,-1,-1,-1,-1,-1,-1,-1,-1,-1,-1,-1,-1,-1,-1,-1,-1,-1,-1,-1],"split_conditions":[-3.3801003E1,-2.50405E0,-4.2375E0,1.09165E0,7.3384995E1,-2.6502651E1,-3.03601E1,2.15E1,-3.82835E1,-7.379E-1,-4.821775E1,1.25E-1,7.7987003E0,7.4122E0,1.52195E2,-2.7610851E-2,-3.830375E1,4.1665E-1,7.8E1,-3.7364853E1,-8.7152265E-2,1.3912474E-4,-2.4351E0,1.0479E0,2.1825E-1,1.38375E2,-8.8255E-1,2.4265E-1,4.1665E-1,1.8E1,1.9641127E-3,1.2955461E-1,9.22641E-2,1.00739196E-1,-2.8266806E-2,4.2517904E-2,-9.687306E-2,8.756948E-2,-2.0032939E-2,-0E0,-1.1796998E-1,8.188291E-2,-5.9997432E-2,-6.5414466E-2,5.5270568E-2,-3.9756723E-2,1.0953145E-1,-2.8664611E-2,-1.2548707E-1,-1.3053849E-2,7.218353E-2,-5.213292E-2,-1.10617675E-1,-0E0,-1.1757819E-1],"split_indices":[1,4,4,29,22,1,1,18,1,4,1,5,28,28,22,0,1,9,13,1,0,0,4,29,30,22,29,30,5,13,0,0,0,0,0,0,0,0,0,0,0,0,0,0,0,0,0,0,0,0,0,0,0,0,0],"split_type":[0,0,0,0,0,0,0,0,0,0,0,0,0,0,0,0,0,0,0,0,0,0,0,0,0,0,0,0,0,0,0,0,0,0,0,0,0,0,0,0,0,0,0,0,0,0,0,0,0,0,0,0,0,0,0],"sum_hessian":[9.056019E2,2.5383574E2,6.517662E2,2.0716132E2,4.667443E1,1.460356E2,5.057306E2,1.5981453E2,4.7346786E1,2.2242165E1,2.4432268E1,7.7961845E1,6.807376E1,5.24814E1,4.5324918E2,2.1495845E0,1.5766493E2,3.537417E1,1.1972618E1,1.6258236E1,5.9839296E0,1.4346595E0,2.2997608E1,4.8872555E1,2.9089287E1,3.3395603E1,3.4678154E1,2.4006271E0,5.0080772E1,4.51483E2,1.7661858E0,1.0421184E2,5.3453102E1,3.088067E1,4.4934983E0,2.2930017E0,9.679617E0,8.584661E0,7.673575E0,1.1271906E0,2.1870419E1,4.579223E1,3.0803282E0,2.2072313E1,7.016974E0,3.1240671E1,2.154933E0,7.1926403E0,2.7485514E1,1.0861915E0,1.3144355E0,2.8661942E1,2.141883E1,1.9462589E0,4.4953674E2],"tree_param":{"num_deleted":"0","num_feature":"32","num_nodes":"55","size_leaf_vector":"0"}},{"base_weights":[-4.7224241E-1,6.691034E-1,-9.159368E-1,1.0615816E0,-2.3032229E-1,-1.0561874E0,-2.6884553E-1,1.207559E0,3.2609275E-1,9.4527274E-1,-9.935236E-1,-7.859423E-1,-1.1600955E0,2.9847237E-1,-8.113224E-1,1.239266E0,2.2182076E-1,-2.972905E-1,8.671313E-1,-2.1719186E-1,1.1618371E0,-1.1095589E0,2.7204484E-1,7.964812E-2,-1.086455E0,-4.5193586E-1,-1.204172E0,7.356854E-1,-5.861368E-1,5.515836E-1,-8.940328E-1,1.3230704E0,8.384946E-1,7.4102026E-1,-4.3838716E-1,7.1733266E-1,-6.0356754E-1,1.0718646E0,-7.078051E-2,3.961653E-1,-7.313897E-1,1.2091126E0,-0E0,-1.1675534E0,3.4497708E-2,6.465678E-1,-2.9925206E-1,5.106303E-1,-8.827625E-1,-4.1477972E-1,-1.155629E0,1.0898297E0,-8.684848E-1,-1.209392E0,-0E0,1.0548527E0,-3.3143988E-1,7.6058686E-1,-9.5835793E-1,-0E0,7.527889E-1,-1.0444865E0,-1.4576624E-2],"categories":[],"categories_nodes":[],"categories_segments":[],"categories_sizes":[],"default_left":[1,1,1,1,1,1,1,1,1,1,1,1,1,1,1,1,1,1,1,1,1,1,1,1,1,1,1,1,1,1,1,0,0,0,0,0,0,0,0,0,0,0,0,0,0,0,0,0,0,0,0,0,0,0,0,0,0,0,0,0,0,0,0],"id":9,"left_children":[1,3,5,7,9,11,13,15,17,19,21,23,25,27,29,31,33,35,37,39,41,43,45,47,49,51,53,55,57,59,61,-1,-1,-1,-1,-1,-1,-1,-1,-1,-1,-1,-1,-1,-1,-1,-1,-1,-1,-1,-1,-1,-1,-1,-1,-1,-1,-1,-1,-1,-1,-1,-1],"loss_changes":[4.348668E2,8.569363E1,5.5079956E1,1.6804794E1,6.888143E1,1.1786743E1,3.5461315E1,3.3703156E0,1.11483555E1,8.410534E0,7.67181E0,3.8911583E1,9.665985E0,2.280752E1,7.726692E0,1.6014557E0,3.2025633E0,5.7422676E0,3.773611E0,2.6783466E0,1.2193451E0,3.2623863E0,1.6432568E0,1.732594E1,3.6815186E0,1.7834734E1,2.2788086E0,1.4203045E1,1.1410433E1,5.1767635E-1,7.115288E0,0E0,0E0,0E0,0E0,0E0,0E0,0E0,0E0,0E0,0E0,0E0,0E0,0E0,0E0,0E0,0E0,0E0,0E0,0E0,0E0,0E0,0E0,0E0,0E0,0E0,0E0,0E0,0E0,0E0,0E0,0E0,0E0],"parents":[2147483647,0,0,1,1,2,2,3,3,4,4,5,5,6,6,7,7,8,8,9,9,10,10,11,11,12,12,13,13,14,14,15,15,16,16,17,17,18,18,19,19,20,20,21,21,22,22,23,23,24,24,25,25,26,26,27,27,28,28,29,29,30,30],"right_children":[2,4,6,8,10,12,14,16,18,20,22,24,26,28,30,32,34,36,38,40,42,44,46,48,50,52,54,56,58,60,62,-1,-1,-1,-1,-1,-1,-1,-1,-1,-1,-1,-1,-1,-1,-1,-1,-1,-1,-1,-1,-1,-1,-1,-1,-1,-1,-1,-1,-1,-1,-1,-1],"split_conditions":[-3.375415E1,1.20239E1,2.5E0,1.785E2,-4.45191E1,-2.685825E1,3.55E1,3.55E1,4.9774E0,1.5E0,9.6034E0,7.6325E2,5.1607996E2,-2.4540699E1,2.5E0,-3.61893E1,9.9647E0,8.0532E0,9.3E2,1.504685E1,2.425E2,1.65E1,-3.64123E1,1.565E2,6.8118E0,-1.706435E1,8.8E1,8.2153E2,-1.585E0,3.5E0,1.2591E2,1.2701476E-1,8.0495484E-2,7.113794E-2,-4.2085167E-2,6.8863936E-2,-5.7942484E-2,1.02899E-1,-6.794929E-3,3.803187E-2,-7.0213415E-2,1.16074815E-1,-0E0,-1.1208513E-1,3.31178E-3,6.207051E-2,-2.8728198E-2,4.902051E-2,-8.47452E-2,-3.9818853E-2,-1.1094039E-1,1.0462365E-1,-8.337454E-2,-1.1610163E-1,-0E0,1.0126586E-1,-3.181823E-2,7.301634E-2,-9.200236E-2,-0E0,7.226773E-2,-1.002707E-1,-1.3993559E-3],"split_indices":[1,2,24,14,1,1,14,16,3,24,3,0,0,1,17,1,2,2,0,2,14,26,1,14,2,1,16,0,29,24,22,0,0,0,0,0,0,0,0,0,0,0,0,0,0,0,0,0,0,0,0,0,0,0,0,0,0,0,0,0,0,0,0],"split_type":[0,0,0,0,0,0,0,0,0,0,0,0,0,0,0,0,0,0,0,0,0,0,0,0,0,0,0,0,0,0,0,0,0,0,0,0,0,0,0,0,0,0,0,0,0,0,0,0,0,0,0,0,0,0,0,0,0,0,0,0,0,0,0],"sum_hessian":[8.540187E2,2.3859029E2,6.154284E2,1.6606567E2,7.252461E1,5.043684E2,1.11059975E2,1.371365E2,2.8929169E1,2.8209438E1,4.4315174E1,1.4574295E2,3.5862546E2,5.4487614E1,5.657236E1,1.320704E2,5.0660977E0,1.3632401E1,1.5296767E1,4.224612E0,2.3984827E1,4.103095E1,3.284227E0,3.77088E1,1.0803416E2,2.2751797E1,3.3587366E2,3.691133E1,1.7576284E1,2.3709545E0,5.420141E1,1.04711624E2,2.7358782E1,2.9333014E0,2.132796E0,2.3039048E0,1.1328496E1,1.2560333E1,2.7364335E0,1.8929257E0,2.3316865E0,2.2821413E1,1.163414E0,3.9245533E1,1.7854147E0,2.1173253E0,1.1669016E0,2.6918205E1,1.0790598E1,1.1818841E1,9.621532E1,3.9844937E0,1.8767303E1,3.3452084E2,1.3528337E0,2.8634933E1,8.276398E0,3.174694E0,1.4401589E1,1.1422669E0,1.2286876E0,4.567825E1,8.523159E0],"tree_param":{"num_deleted":"0","num_feature":"32","num_nodes":"63","size_leaf_vector":"0"}},{"base_weights":[-4.3567517E-1,4.044435E-1,-9.9298126E-1,7.604665E-1,-3.758221E-1,-1.079822E0,-5.595169E-1,1.1967236E0,3.537718E-1,-7.665753E-1,4.014252E-1,-1.1351584E0,-7.543937E-1,1.5327805E-1,-7.758823E-1,2.5081775E-1,1.2325317E0,-2.080271E-1,9.799724E-1,-9.1006285E-1,2.4743743E-1,6.418763E-1,-5.138181E-1,-2.1714397E-1,-1.1434703E0,-8.7687874E-1,9.854823E-1,6.7171127E-1,-7.143739E-1,-5.0297654E-1,-1.1826242E0,6.015305E-1,-2.8693688E-1,1.2455139E0,-0E0,1.646418E-1,-7.3685133E-1,1.1767454E0,2.2679208E-1,-9.8855156E-1,2.3990566E-1,-4.943044E-1,9.5046043E-1,9.013912E-1,-1.3201627E-1,5.240874E-1,-9.4769496E-1,-5.7521725E-1,4.1331413E-1,-1.1479063E0,-1.6385193E-1,1.7674142E-1,-9.539806E-1,1.4925507E0,-1.6924898E-1,9.348838E-1,-3.336862E-1,4.0712383E-1,-1.0233914E0,-6.190853E-1,4.8533067E-1,-1.253374E0,-2.2565812E-1],"categories":[],"categories_nodes":[],"categories_segments":[],"categories_sizes":[],"default_left":[1,1,1,1,1,1,1,1,1,1,1,1,1,1,1,1,1,1,1,1,1,1,1,1,1,1,1,1,1,1,1,0,0,0,0,0,0,0,0,0,0,0,0,0,0,0,0,0,0,0,0,0,0,0,0,0,0,0,0,0,0,0,0],"id":10,"left_children":[1,3,5,7,9,11,13,15,17,19,21,23,25,27,29,31,33,35,37,39,41,43,45,47,49,51,53,55,57,59,61,-1,-1,-1,-1,-1,-1,-1,-1,-1,-1,-1,-1,-1,-1,-1,-1,-1,-1,-1,-1,-1,-1,-1,-1,-1,-1,-1,-1,-1,-1,-1,-1],"loss_changes":[3.9146097E2,9.344337E1,1.7191162E1,3.95278E1,3.2854206E1,5.1802063E0,1.4093172E1,2.6632843E0,4.369954E1,1.1029156E1,8.748865E0,1.7762451E0,1.6099422E1,1.0906039E1,5.9148445E0,1.7451977E0,1.7655792E0,1.3416586E1,7.719658E0,6.4025993E0,6.431166E0,6.5007114E0,4.972925E0,1.8920321E0,7.464905E-1,5.7769585E0,3.9688644E0,4.8052635E0,4.1725016E0,5.834071E0,7.326393E-1,0E0,0E0,0E0,0E0,0E0,0E0,0E0,0E0,0E0,0E0,0E0,0E0,0E0,0E0,0E0,0E0,0E0,0E0,0E0,0E0,0E0,0E0,0E0,0E0,0E0,0E0,0E0,0E0,0E0,0E0,0E0,0E0],"parents":[2147483647,0,0,1,1,2,2,3,3,4,4,5,5,6,6,7,7,8,8,9,9,10,10,11,11,12,12,13,13,14,14,15,15,16,16,17,17,18,18,19,19,20,20,21,21,22,22,23,23,24,24,25,25,26,26,27,27,28,28,29,29,30,30],"right_children":[2,4,6,8,10,12,14,16,18,20,22,24,26,28,30,32,34,36,38,40,42,44,46,48,50,52,54,56,58,60,62,-1,-1,-1,-1,-1,-1,-1,-1,-1,-1,-1,-1,-1,-1,-1,-1,-1,-1,-1,-1,-1,-1,-1,-1,-1,-1,-1,-1,-1,-1,-1,-1],"split_conditions":[-2.996835E1,1.525E2,2.5E0,-3.85856E1,2.5E0,5E-1,4.5E0,5E-1,5.35695E0,1.05E1,1.1270001E0,2.95E1,4.4E1,-2.18235E1,1.665E2,2.899E-1,6.25E-1,4.1665E-1,3.15E1,4.5E0,1.25E1,-3.3715797E1,-4.299695E1,2.65E1,6.4585E-1,-2.88115E1,3.434E-1,1.79E2,-1.7167001E0,1.787155E1,4.5E0,5.774693E-2,-2.754594E-2,1.1956934E-1,-0E0,1.5805613E-2,-7.073773E-2,1.1296756E-1,2.177204E-2,-9.490095E-2,2.3030942E-2,-4.745322E-2,9.1244206E-2,8.6533554E-2,-1.2673562E-2,5.0312392E-2,-9.097872E-2,-5.5220857E-2,3.9678156E-2,-1.10199004E-1,-1.5729785E-2,1.6967177E-2,-9.158214E-2,1.4328487E-1,-1.6247902E-2,8.9748845E-2,-3.2033876E-2,3.9083887E-2,-9.824557E-2,-5.943219E-2,4.6591744E-2,-1.20323904E-1,-2.166318E-2],"split_indices":[1,14,24,1,24,15,17,24,3,19,29,11,16,1,14,30,8,5,18,15,26,1,1,11,30,1,29,14,29,3,24,0,0,0,0,0,0,0,0,0,0,0,0,0,0,0,0,0,0,0,0,0,0,0,0,0,0,0,0,0,0,0,0],"split_type":[0,0,0,0,0,0,0,0,0,0,0,0,0,0,0,0,0,0,0,0,0,0,0,0,0,0,0,0,0,0,0,0,0,0,0,0,0,0,0,0,0,0,0,0,0,0,0,0,0,0,0,0,0,0,0,0,0,0,0,0,0,0,0],"sum_hessian":[8.318957E2,3.317922E2,5.001035E2,2.2811897E2,1.03673225E2,4.1352347E2,8.6579994E1,1.07786705E2,1.2033226E2,6.92498E1,3.442342E1,3.4828784E2,6.523564E1,1.9998034E1,6.658196E1,4.822565E0,1.0296414E2,6.391831E1,5.641395E1,6.1094715E1,8.155091E0,2.7994535E1,6.428883E0,3.9329598E0,3.443549E2,6.205489E1,3.1807525E0,1.3014018E1,6.984015E0,4.302961E1,2.3552355E1,3.0878658E0,1.7346991E0,1.0192413E2,1.040012E0,3.8017685E1,2.5900625E1,4.350945E1,1.2904506E1,5.769253E1,3.4021823E0,4.0718365E0,4.0832543E0,2.0982134E1,7.012401E0,1.5768557E0,4.8520274E0,2.9091687E0,1.0237911E0,3.4216235E2,2.192533E0,3.7997794E0,5.825511E1,1.9595041E0,1.2212483E0,1.0651429E1,2.3625891E0,1.1697178E0,5.814297E0,3.945255E1,3.57706E0,2.1060133E1,2.4922209E0],"tree_param":{"num_deleted":"0","num_feature":"32","num_nodes":"63","size_leaf_vector":"0"}},{"base_weights":[-3.9391077E-1,4.85527E-1,-8.571032E-1,1.04377456E-1,8.329473E-1,-5.4701877E-1,-1.0592704E0,8.429049E-1,-1.2487425E-1,-9.1808304E-2,9.315941E-1,3.0913445E-1,-6.722882E-1,-2.8981546E-2,-1.0985457E0,-2.4599361E-1,1.057816E0,3.1298727E-1,-5.4919785E-1,3.9346704E-1,-7.361315E-1,1.1467541E0,6.2784356E-1,7.967235E-1,-1.300159E-1,-8.801752E-1,-2.6640227E-1,-6.244082E-1,8.971014E-1,-4.3195343E-1,-1.1313053E0,-5.571752E-1,3.3116952E-1,2.6071274E-1,1.1759614E0,-7.035416E-2,5.9688056E-1,-7.195427E-1,5.347196E-1,6.228346E-1,-4.0108493E-1,-0E0,-8.8970745E-1,-0E0,1.1967406E0,1.3416465E-1,1.0295764E0,-0E0,1.061922E0,-6.172094E-1,2.8116605E-1,2.5162527E-1,-9.5843077E-1,-4.0795946E-1,3.8517055E-1,5.055965E-2,-9.190588E-1,1.1580913E0,-2.9208746E-2,6.909426E-1,-8.177392E-1,-1.1769172E-1,-1.1369963E0],"categories":[],"categories_nodes":[],"categories_segments":[],"categories_sizes":[],"default_left":[1,1,1,1,1,1,1,1,1,1,1,1,1,1,1,1,1,1,1,1,1,1,1,1,1,1,1,1,1,1,1,0,0,0,0,0,0,0,0,0,0,0,0,0,0,0,0,0,0,0,0,0,0,0,0,0,0,0,0,0,0,0,0],"id":11,"left_children":[1,3,5,7,9,11,13,15,17,19,21,23,25,27,29,31,33,35,37,39,41,43,45,47,49,51,53,55,57,59,61,-1,-1,-1,-1,-1,-1,-1,-1,-1,-1,-1,-1,-1,-1,-1,-1,-1,-1,-1,-1,-1,-1,-1,-1,-1,-1,-1,-1,-1,-1,-1,-1],"loss_changes":[3.2605365E2,3.6160667E1,3.117862E1,2.320374E1,1.3543701E1,2.321664E1,1.2332367E1,8.357464E0,1.9782099E1,5.5359955E0,6.5406647E0,6.4248304E0,1.4839874E1,8.761221E0,5.152069E0,1.6680465E0,1.5690193E0,5.924048E0,1.0817663E1,2.3884902E0,9.857173E-1,4.323929E0,1.1133371E1,2.8693705E0,3.713318E0,1.14399185E1,6.4408464E0,2.306273E0,1.8663168E0,8.964297E0,1.0223694E0,0E0,0E0,0E0,0E0,0E0,0E0,0E0,0E0,0E0,0E0,0E0,0E0,0E0,0E0,0E0,0E0,0E0,0E0,0E0,0E0,0E0,0E0,0E0,0E0,0E0,0E0,0E0,0E0,0E0,0E0,0E0,0E0],"parents":[2147483647,0,0,1,1,2,2,3,3,4,4,5,5,6,6,7,7,8,8,9,9,10,10,11,11,12,12,13,13,14,14,15,15,16,16,17,17,18,18,19,19,20,20,21,21,22,22,23,23,24,24,25,25,26,26,27,27,28,28,29,29,30,30],"right_children":[2,4,6,8,10,12,14,16,18,20,22,24,26,28,30,32,34,36,38,40,42,44,46,48,50,52,54,56,58,60,62,-1,-1,-1,-1,-1,-1,-1,-1,-1,-1,-1,-1,-1,-1,-1,-1,-1,-1,-1,-1,-1,-1,-1,-1,-1,-1,-1,-1,-1,-1,-1,-1],"split_conditions":[-4.3174E0,9.5E0,-2.1039E0,-8.9839E0,1.5E0,-6.1370003E-1,4.25E1,2.15E1,1.165E2,5E-1,1.325E2,1.028325E1,2.0525E-1,1.05E1,-4.8206997E0,6.5E0,9E1,1.35E1,1.31295E2,1.6665E-1,1.4279001E0,2.25E1,1.25E1,6.5E0,9.5E0,4.65E1,1.25E1,2.25E1,-1.10375E0,-1.5441E0,2.45E1,-5.348882E-2,3.1792276E-2,2.5028424E-2,1.1289229E-1,-6.7539997E-3,5.7300534E-2,-6.90761E-2,5.133308E-2,5.9792124E-2,-3.8504153E-2,-0E0,-8.541191E-2,-0E0,1.148871E-1,1.2879807E-2,9.8839335E-2,-0E0,1.01944506E-1,-5.9252102E-2,2.6991941E-2,2.4156027E-2,-9.200936E-2,-3.9164107E-2,3.6976375E-2,4.8537264E-3,-8.822965E-2,1.1117677E-1,-2.8040395E-3,6.633049E-2,-7.850296E-2,-1.1298405E-2,-1.0915165E-1],"split_indices":[4,26,4,4,24,3,11,18,13,25,13,2,30,27,3,26,11,27,22,9,3,18,26,26,26,13,26,18,4,4,13,0,0,0,0,0,0,0,0,0,0,0,0,0,0,0,0,0,0,0,0,0,0,0,0,0,0,0,0,0,0,0,0],"split_type":[0,0,0,0,0,0,0,0,0,0,0,0,0,0,0,0,0,0,0,0,0,0,0,0,0,0,0,0,0,0,0,0,0,0,0,0,0,0,0,0,0,0,0,0,0,0,0,0,0,0,0,0,0,0,0,0,0,0,0,0,0,0,0],"sum_hessian":[7.959904E2,2.743634E2,5.21627E2,1.325003E2,1.418631E2,2.0944232E2,3.1218472E2,3.0367348E1,1.0213296E2,1.3412593E1,1.284505E2,2.6058582E1,1.8338373E2,1.18593E1,3.003254E2,4.7399573E0,2.562739E1,5.020461E1,5.1928352E1,7.8601513E0,5.5524416E0,7.128699E1,5.716351E1,1.1854654E1,1.4203928E1,1.1921355E2,6.417018E1,7.81366E0,4.0456395E0,1.5845545E1,2.844799E2,3.4435549E0,1.2964027E0,4.472266E0,2.1155125E1,2.1600119E1,2.860449E1,4.5701424E1,6.226928E0,6.7216315E0,1.1385196E0,1.1584793E0,4.3939624E0,2.980814E0,6.8306175E1,2.7199436E1,2.9964075E1,3.5411203E0,8.313534E0,6.3407054E0,7.863223E0,7.1803236E0,1.12033226E2,5.370789E1,1.0462293E1,2.6041994E0,5.2094607E0,2.9901402E0,1.0554996E0,3.4466653E0,1.2398879E1,2.115259E0,2.8236462E2],"tree_param":{"num_deleted":"0","num_feature":"32","num_nodes":"63","size_leaf_vector":"0"}},{"base_weights":[-3.9363617E-1,5.062017E-1,-8.432728E-1,8.456054E-1,-5.393351E-1,-2.8378496E-1,-1.0807358E0,1.0188947E0,2.8804117E-1,3.3463184E-2,-9.936544E-1,-4.4037513E-2,-1.0082365E0,-4.250782E-1,-1.1039757E0,1.0658451E0,-8.788779E-2,7.583003E-1,-1.4729649E-1,5.6122637E-1,-7.2943616E-1,-0E0,-1.1301078E0,-4.94901E-1,4.1758716E-1,-0E0,-1.1323588E0,3.8797584E-1,-8.278295E-1,-0E0,-1.1088154E0,1.1012449E0,-1.2769316E-1,-7.199382E-1,6.3749295E-1,-2.2225286E-1,8.949607E-1,-4.0557334E-1,8.09677E-1,9.582391E-1,-4.1669545E-1,1.7508924E-2,-8.358113E-1,6.203625E-1,-5.033658E-1,6.939672E-1,-6.3382375E-1,6.9255817E-1,-2.2822689E-1,4.3060493E-1,-5.343776E-1,-1.1768426E0,-0E0,-4.7834975E-1,1.2891301E0,-1.0279393E0,2.8489891E-2,-7.262098E-1,-1.1326456E0],"categories":[],"categories_nodes":[],"categories_segments":[],"categories_sizes":[],"default_left":[1,1,1,1,1,1,1,1,1,1,1,1,1,1,1,1,1,1,1,1,1,1,0,1,1,1,1,1,1,0,1,0,0,0,0,0,0,0,0,0,0,0,0,0,0,0,0,0,0,0,0,0,0,0,0,0,0,0,0],"id":12,"left_children":[1,3,5,7,9,11,13,15,17,19,21,23,25,27,29,31,33,35,37,39,41,43,-1,45,47,49,51,53,55,-1,57,-1,-1,-1,-1,-1,-1,-1,-1,-1,-1,-1,-1,-1,-1,-1,-1,-1,-1,-1,-1,-1,-1,-1,-1,-1,-1,-1,-1],"loss_changes":[3.1328024E2,9.2678505E1,6.749283E1,1.7960526E1,1.7086147E1,2.6847412E1,4.0980225E0,8.176514E0,1.0585697E1,1.2954835E1,4.7349205E0,2.5482157E1,4.920582E0,6.0713277E0,2.0839844E0,6.5937805E0,4.5033813E0,3.8918457E0,7.2999067E0,8.4454975E0,1.2960219E0,2.682571E0,0E0,1.1149568E1,1.115546E1,1.9011726E0,1.788414E0,6.5944757E0,2.3440418E0,0E0,9.253235E-1,0E0,0E0,0E0,0E0,0E0,0E0,0E0,0E0,0E0,0E0,0E0,0E0,0E0,0E0,0E0,0E0,0E0,0E0,0E0,0E0,0E0,0E0,0E0,0E0,0E0,0E0,0E0,0E0],"parents":[2147483647,0,0,1,1,2,2,3,3,4,4,5,5,6,6,7,7,8,8,9,9,10,10,11,11,12,12,13,13,14,14,15,15,16,16,17,17,18,18,19,19,20,20,21,21,23,23,24,24,25,25,26,26,27,27,28,28,30,30],"right_children":[2,4,6,8,10,12,14,16,18,20,22,24,26,28,30,32,34,36,38,40,42,44,-1,46,48,50,52,54,56,-1,58,-1,-1,-1,-1,-1,-1,-1,-1,-1,-1,-1,-1,-1,-1,-1,-1,-1,-1,-1,-1,-1,-1,-1,-1,-1,-1,-1,-1],"split_conditions":[-3.23298E1,-2.7416E0,-3.71575E0,1.525E2,2.4E1,1.795E2,4.25E1,1.7E1,-5.6418E0,-1.2402E0,-4.5243347E1,8.9571495E0,-3.07496E1,2.15E1,1.85E1,2.5E-1,5.8782997E0,2.74195E0,1.45E1,1.43E2,8.19645E0,8.5E0,-1.0849035E-1,5.1E1,1.725E2,-4.7316504E0,1.15E1,6.01685E0,1.25E1,-0E0,-3.03601E1,1.05719514E-1,-1.2258544E-2,-6.911407E-2,6.1199322E-2,-2.1336274E-2,8.591623E-2,-3.893504E-2,7.7728994E-2,9.1990955E-2,-4.0002763E-2,1.6808567E-3,-8.023789E-2,5.9554804E-2,-4.8323117E-2,6.662086E-2,-6.084708E-2,6.6485584E-2,-2.190978E-2,4.1338075E-2,-5.1300246E-2,-1.1297689E-1,-0E0,-4.5921575E-2,1.2375649E-1,-9.868217E-2,2.7350297E-3,-6.971614E-2,-1.0873398E-1],"split_indices":[1,4,4,14,14,14,11,16,4,4,1,3,1,18,13,8,3,3,26,13,28,17,0,13,13,4,19,23,27,0,1,0,0,0,0,0,0,0,0,0,0,0,0,0,0,0,0,0,0,0,0,0,0,0,0,0,0,0,0],"split_type":[0,0,0,0,0,0,0,0,0,0,0,0,0,0,0,0,0,0,0,0,0,0,0,0,0,0,0,0,0,0,0,0,0,0,0,0,0,0,0,0,0,0,0,0,0,0,0,0,0,0,0,0,0,0,0,0,0,0,0],"sum_hessian":[7.6981134E2,2.5620078E2,5.136106E2,1.9391647E2,6.2284286E1,1.5474413E2,3.5886646E2,1.4624661E2,4.766986E1,2.812267E1,3.4161617E1,1.1820782E2,3.6536312E1,1.4065623E1,3.4480084E2,1.40613E2,5.633607E0,2.2489698E1,2.5180162E1,1.7164692E1,1.0957976E1,4.5133696E0,2.9648249E1,6.0034565E1,5.8173252E1,4.161803E0,3.2374508E1,4.4526067E0,9.613016E0,1.3264248E0,3.4347443E2,1.369474E2,3.6656108E0,3.2265098E0,2.407097E0,2.3401487E0,2.014955E1,2.0999E1,4.1811614E0,1.2443088E1,4.7216043E0,1.2509164E0,9.70706E0,1.6667603E0,2.846609E0,5.2043843E0,5.483018E1,4.1002445E1,1.7170809E1,2.6089373E0,1.5528655E0,3.1111225E1,1.2632821E0,2.6053169E0,1.8472898E0,7.7230945E0,1.8899218E0,2.4648798E1,3.1882562E2],"tree_param":{"num_deleted":"0","num_feature":"32","num_nodes":"59","size_leaf_vector":"0"}},{"base_weights":[-3.8632336E-1,3.32395E-1,-8.786033E-1,7.275545E-1,-5.9550166E-1,-4.411689E-1,-1.0524988E0,9.064312E-1,1.2554595E-1,-1.5798774E-1,-1.0346339E0,-2.118805E-1,-1.083226E0,6.5969914E-2,-1.0798628E0,1.1386814E0,6.3104516E-1,3.5780135E-1,-7.5527316E-1,3.9560887E-1,-5.2931803E-1,-5.086299E-2,-1.1178926E0,2.0947922E-2,-9.3217105E-1,-1.127716E0,-0E0,8.2149327E-1,-4.0363547E-1,-1.0826395E0,-8.776718E-3,1.163166E0,-0E0,8.824609E-1,-8.111586E-1,7.919091E-1,-1.951034E-1,-1.0798459E0,5.4343206E-1,6.854499E-1,-7.0873636E-1,1.8019965E-1,-9.562298E-1,2.628509E-1,-5.049903E-1,4.705588E-1,-6.522573E-1,-9.021462E-2,-1.1388587E0,-8.426821E-2,-1.1471062E0,8.180803E-3,1.0525421E0,-6.8332916E-1,9.507693E-2,-1.0853838E0,-1.4881043E-2],"categories":[],"categories_nodes":[],"categories_segments":[],"categories_sizes":[],"default_left":[1,1,1,1,1,1,1,1,1,1,1,1,1,1,1,1,1,1,1,1,1,1,0,1,1,1,0,1,1,1,0,0,0,0,0,0,0,0,0,0,0,0,0,0,0,0,0,0,0,1,1,0,0,0,0,0,0],"id":13,"left_children":[1,3,5,7,9,11,13,15,17,19,21,23,25,27,29,31,33,35,37,39,41,43,-1,45,47,-1,-1,51,53,55,-1,-1,-1,-1,-1,-1,-1,-1,-1,-1,-1,-1,-1,-1,-1,-1,-1,-1,-1,-1,-1,-1,-1,-1,-1,-1,-1],"loss_changes":[2.5940732E2,1.1036152E2,3.1682709E1,2.2135872E1,1.6628511E1,1.795444E1,9.892578E0,8.347305E0,1.0873723E1,1.0312359E1,3.177433E0,1.6558784E1,1.6081161E0,4.0264697E0,5.7089233E-1,2.3430023E0,3.018311E1,1.0566323E1,6.0212455E0,7.43149E0,9.615054E0,1.1810272E0,0E0,2.3286041E1,3.6223297E0,9.013367E-2,0E0,5.08662E-1,1.2429467E0,5.3829956E-1,0E0,0E0,0E0,0E0,0E0,0E0,0E0,0E0,0E0,0E0,0E0,0E0,0E0,0E0,0E0,0E0,0E0,0E0,0E0,0E0,0E0,0E0,0E0,0E0,0E0,0E0,0E0],"parents":[2147483647,0,0,1,1,2,2,3,3,4,4,5,5,6,6,7,7,8,8,9,9,10,10,11,11,12,12,13,13,14,14,15,15,16,16,17,17,18,18,19,19,20,20,21,21,23,23,24,24,25,25,27,27,28,28,29,29],"right_children":[2,4,6,8,10,12,14,16,18,20,22,24,26,28,30,32,34,36,38,40,42,44,-1,46,48,-1,-1,52,54,56,-1,-1,-1,-1,-1,-1,-1,-1,-1,-1,-1,-1,-1,-1,-1,-1,-1,-1,-1,-1,-1,-1,-1,-1,-1,-1,-1],"split_conditions":[-3.019775E1,-2.9063E0,-3.61095E0,1.58E2,1.285E2,1.795E2,4.3645E2,-3.828955E1,1.20665E0,-3.619245E1,-4.5243347E1,8.056E2,1.15E1,-1.15529995E1,2.85E1,2.5E-1,9.155E2,-3.598545E1,4.5E0,-7.1440005E-1,8.0025E2,-9.309E-1,-1.0731769E-1,-2.242905E1,-2.876915E1,-1.0826073E-1,-0E0,3.48635E0,5.95E1,8.8E1,-8.425649E-4,1.11663945E-1,-0E0,8.4716246E-2,-7.7871226E-2,7.602327E-2,-1.8729927E-2,-1.0366521E-1,5.216948E-2,6.580319E-2,-6.8038695E-2,1.7299166E-2,-9.179806E-2,2.5233688E-2,-4.847907E-2,4.5173645E-2,-6.2616706E-2,-8.660603E-3,-1.0933043E-1,-8.089748E-3,-1.101222E-1,7.853571E-4,1.01044044E-1,-6.55996E-2,9.127386E-3,-1.0419685E-1,-1.4285801E-3],"split_indices":[1,4,4,14,14,14,0,1,29,1,1,0,19,1,12,8,0,1,15,4,0,4,0,1,1,0,0,28,13,16,0,0,0,0,0,0,0,0,0,0,0,0,0,0,0,0,0,0,0,2147483647,2147483647,0,0,0,0,0,0],"split_type":[0,0,0,0,0,0,0,0,0,0,0,0,0,0,0,0,0,0,0,0,0,0,0,0,0,0,0,0,0,0,0,0,0,0,0,0,0,0,0,0,0,0,0,0,0,0,0,0,0,0,0,0,0,0,0,0,0],"sum_hessian":[7.28971E2,2.9637238E2,4.3259863E2,2.083806E2,8.7991776E1,1.2559657E2,3.0700204E2,1.5947972E2,4.8900883E1,4.5807384E1,4.2184387E1,9.489704E1,3.0699532E1,7.015816E0,2.9998624E2,8.244328E1,7.703644E1,3.9922245E1,8.978638E0,1.8031113E1,2.7776272E1,3.8158128E0,3.8368576E1,7.293704E1,2.1959997E1,2.9429575E1,1.2699564E0,2.325438E0,4.690378E0,2.9892572E2,1.0605143E0,8.065458E1,1.7887015E0,6.6450455E1,1.0585983E1,2.2148592E1,1.7773653E1,7.635911E0,1.3427272E0,1.51061945E1,2.9249182E0,1.0635256E1,1.7141016E1,2.4046955E0,1.4111172E0,4.435515E1,2.8581896E1,5.182743E0,1.6777252E1,1.0039254E0,2.842565E1,1.2582012E0,1.0672368E0,2.876856E0,1.813522E0,2.9786194E2,1.0637891E0],"tree_param":{"num_deleted":"2","num_feature":"32","num_nodes":"57","size_leaf_vector":"0"}},{"base_weights":[-3.4969732E-1,3.9464882E-1,-7.830798E-1,6.2396747E-1,-2.162484E-1,-4.7713313E-1,-9.711678E-1,-6.993138E-2,7.8846335E-1,-6.621321E-1,3.4317774E-1,-6.550892E-2,-8.0942947E-1,-6.971406E-1,-1.0855436E0,3.4210545E-1,-4.487968E-1,9.869233E-1,4.743135E-1,5.649015E-1,-8.8753605E-1,6.7612755E-1,-2.184054E-1,4.075942E-1,-7.230218E-1,-8.708938E-1,4.8265225E-1,-7.977753E-1,6.62764E-1,-7.911127E-2,-1.0891494E0,-7.504529E-1,7.755408E-1,2.2762428E-1,-7.329197E-1,-3.057324E-1,1.055819E0,8.774233E-1,1.5390433E-1,-2.0470719E-1,1.1335821E0,-9.585391E-1,1.7098457E-1,9.075107E-1,-3.2730323E-1,4.1964108E-1,-7.0613074E-1,-4.647701E-1,6.672832E-1,-1.01609915E-1,-8.9399827E-1,-8.878521E-1,9.233871E-2,7.2896844E-1,-5.3348087E-2,-3.2422242E-1,-9.6231705E-1,8.8308513E-1,-1.18503205E-1,-2.9589373E-1,-1.0981512E0],"categories":[],"categories_nodes":[],"categories_segments":[],"categories_sizes":[],"default_left":[1,1,1,1,1,1,1,1,1,1,1,1,1,1,1,1,1,1,1,1,1,1,1,1,1,1,1,1,1,0,1,0,0,0,0,0,0,0,0,0,0,0,0,0,0,0,0,0,0,0,0,0,0,0,0,0,0,0,0,0,0],"id":14,"left_children":[1,3,5,7,9,11,13,15,17,19,21,23,25,27,29,31,33,35,37,39,41,43,45,47,49,51,53,55,57,-1,59,-1,-1,-1,-1,-1,-1,-1,-1,-1,-1,-1,-1,-1,-1,-1,-1,-1,-1,-1,-1,-1,-1,-1,-1,-1,-1,-1,-1,-1,-1],"loss_changes":[2.2801918E2,3.687183E1,2.4310211E1,2.2025452E1,1.858616E1,2.3513947E1,6.512451E0,6.2823386E0,8.236122E0,1.2523169E1,6.6298604E0,2.5765099E1,8.602829E0,1.3054413E1,1.7715454E-1,1.0221586E1,4.5343604E0,9.0778885E0,7.727968E0,4.008335E0,3.2521172E0,5.797926E0,4.9197373E0,1.155797E1,3.219658E0,1.9062653E0,9.946623E-1,5.4008446E0,1.6265016E0,0E0,2.7445984E-1,0E0,0E0,0E0,0E0,0E0,0E0,0E0,0E0,0E0,0E0,0E0,0E0,0E0,0E0,0E0,0E0,0E0,0E0,0E0,0E0,0E0,0E0,0E0,0E0,0E0,0E0,0E0,0E0,0E0,0E0],"parents":[2147483647,0,0,1,1,2,2,3,3,4,4,5,5,6,6,7,7,8,8,9,9,10,10,11,11,12,12,13,13,14,14,15,15,16,16,17,17,18,18,19,19,20,20,21,21,22,22,23,23,24,24,25,25,26,26,27,27,28,28,30,30],"right_children":[2,4,6,8,10,12,14,16,18,20,22,24,26,28,30,32,34,36,38,40,42,44,46,48,50,52,54,56,58,-1,60,-1,-1,-1,-1,-1,-1,-1,-1,-1,-1,-1,-1,-1,-1,-1,-1,-1,-1,-1,-1,-1,-1,-1,-1,-1,-1,-1,-1,-1,-1],"split_conditions":[-4.2794504E0,1.605E2,-2.23785E0,6.5E0,9.5E0,1.165E2,7.303E1,-6.56745E0,1.435E2,6.9155E1,1.096785E1,2.15E1,1.55E1,1.25E1,1.9E1,2.2E1,6.6E1,2.15E1,-7.2927E0,5.2438E0,1.38005E2,1.25E-1,1.185E2,4.6426E0,-3.62895E0,6.1E1,2.08E2,-1.3846E0,1.26484E1,-7.5946823E-3,2.05E1,-7.204348E-2,7.445192E-2,2.185193E-2,-7.036029E-2,-2.935031E-2,1.0135863E-1,8.4232636E-2,1.4774816E-2,-1.965189E-2,1.0882388E-1,-9.201976E-2,1.641452E-2,8.7121025E-2,-3.142111E-2,4.0285543E-2,-6.778855E-2,-4.4617932E-2,6.405918E-2,-9.754552E-3,-8.5823834E-2,-8.52338E-2,8.864516E-3,6.998097E-2,-5.1214164E-3,-3.1125352E-2,-9.238244E-2,8.477617E-2,-1.1376308E-2,-2.8405799E-2,-1.0542252E-1],"split_indices":[4,14,4,26,26,13,22,4,13,22,2,14,26,26,13,18,13,18,4,23,22,9,13,23,4,16,13,4,2,0,18,0,0,0,0,0,0,0,0,0,0,0,0,0,0,0,0,0,0,0,0,0,0,0,0,0,0,0,0,0,0],"split_type":[0,0,0,0,0,0,0,0,0,0,0,0,0,0,0,0,0,0,0,0,0,0,0,0,0,0,0,0,0,0,0,0,0,0,0,0,0,0,0,0,0,0,0,0,0,0,0,0,0,0,0,0,0,0,0,0,0,0,0,0,0],"sum_hessian":[7.0245776E2,2.583201E2,4.4413766E2,1.8812071E2,7.01994E1,1.724467E2,2.7169095E2,3.5949245E1,1.5217146E2,3.913319E1,3.1066206E1,7.8513855E1,9.3932846E1,8.505363E1,1.8663733E2,1.6960308E1,1.8988937E1,8.999311E1,6.2178356E1,5.395548E0,3.3737644E1,1.9553644E1,1.1512562E1,4.5867653E1,3.2646202E1,9.051922E1,3.4136255E0,8.018223E1,4.8713984E0,1.1148362E0,1.8552249E2,4.202904E0,1.2757403E1,5.4448633E0,1.3544073E1,3.9868934E0,8.600622E1,2.555373E1,3.6624626E1,2.6444514E0,2.7510965E0,3.2049576E1,1.6880695E0,1.627864E1,3.2750041E0,4.862234E0,6.6503277E0,9.898134E0,3.5969517E1,8.111477E0,2.4534723E1,8.939989E1,1.1193348E0,2.189199E0,1.2244266E0,2.2702093E1,5.7480133E1,3.8711557E0,1.0002428E0,3.2191195E0,1.8230338E2],"tree_param":{"num_deleted":"0","num_feature":"32","num_nodes":"61","size_leaf_vector":"0"}},{"base_weights":[-3.109841E-1,3.7991545E-1,-7.993439E-1,6.512644E-1,-2.5315163E-1,-8.883065E-1,-4.0410146E-1,1.0378907E0,3.131739E-1,-6.3850874E-1,2.7683693E-1,-8.438363E-2,-9.33522E-1,-1.436256E-1,-1.0709885E0,1.0717376E0,-6.417034E-2,-1.6569506E-1,8.151007E-1,1.193461E-2,-9.1547143E-1,8.1426305E-1,-2.2083962E-1,-6.775222E-1,5.9311116E-1,-1.1032785E-1,-9.7297996E-1,-5.7223886E-1,2.623028E-1,-0E0,-1.1475214E0,1.0895209E0,-5.575151E-2,-4.3169296E-1,2.511768E-1,2.6946992E-1,-5.5495596E-1,9.557949E-1,-1.8317728E-1,-5.231191E-1,4.601415E-1,-9.761832E-1,1.1815354E-2,9.707375E-1,-8.650195E-2,3.5380226E-1,-5.677296E-1,-8.7017065E-1,6.8201445E-2,1.1945072E0,-0E0,6.591197E-1,-6.5602547E-1,-7.158838E-1,-1.0465336E0,5.256682E-1,-6.9649076E-1,6.70467E-1,-5.41981E-1],"categories":[],"categories_nodes":[],"categories_segments":[],"categories_sizes":[],"default_left":[1,1,1,1,1,1,1,1,1,1,1,1,1,1,1,1,1,1,1,1,1,1,1,1,1,1,1,1,1,0,0,0,0,0,0,0,0,0,0,0,0,0,0,0,0,0,0,0,0,0,0,0,0,0,0,0,0,0,0],"id":15,"left_children":[1,3,5,7,9,11,13,15,17,19,21,23,25,27,29,31,33,35,37,39,41,43,45,47,49,51,53,55,57,-1,-1,-1,-1,-1,-1,-1,-1,-1,-1,-1,-1,-1,-1,-1,-1,-1,-1,-1,-1,-1,-1,-1,-1,-1,-1,-1,-1,-1,-1],"loss_changes":[2.2676819E2,4.8307472E1,1.2724838E1,2.4551987E1,1.777795E1,1.1137939E1,1.2654088E1,3.787239E0,2.6385715E1,9.286325E0,1.0386457E1,8.72329E0,9.258423E0,1.0456487E1,1.6922531E0,2.1771927E0,7.83661E-1,9.981707E0,8.065422E0,4.4782004E0,2.2889729E0,3.0185747E0,4.5561094E0,2.0193305E0,3.3570533E0,7.796185E0,3.3791504E0,4.7762346E0,1.0889656E1,0E0,0E0,0E0,0E0,0E0,0E0,0E0,0E0,0E0,0E0,0E0,0E0,0E0,0E0,0E0,0E0,0E0,0E0,0E0,0E0,0E0,0E0,0E0,0E0,0E0,0E0,0E0,0E0,0E0,0E0],"parents":[2147483647,0,0,1,1,2,2,3,3,4,4,5,5,6,6,7,7,8,8,9,9,10,10,11,11,12,12,13,13,14,14,15,15,16,16,17,17,18,18,19,19,20,20,21,21,22,22,23,23,24,24,25,25,26,26,27,27,28,28],"right_children":[2,4,6,8,10,12,14,16,18,20,22,24,26,28,30,32,34,36,38,40,42,44,46,48,50,52,54,56,58,-1,-1,-1,-1,-1,-1,-1,-1,-1,-1,-1,-1,-1,-1,-1,-1,-1,-1,-1,-1,-1,-1,-1,-1,-1,-1,-1,-1,-1,-1],"split_conditions":[-3.030015E1,1.575E2,2.5E0,-3.852065E1,4.41525E0,4.45E1,1.775E2,1.6665E-1,4.9621E0,-3.974295E1,-3.624445E1,6.02495E0,4.9156E0,1.0333099E1,3.5E0,2.27645E0,1.5E0,6.5E0,8.4595E-1,1.5E0,1.04842E1,3.945E2,1.205E2,8.5E0,2.35E1,-1.4908751E1,-2.6636799E1,3.65E1,-2.2277351E1,-0E0,-1.1016205E-1,1.0459401E-1,-5.352145E-3,-4.1442525E-2,2.4112973E-2,2.5869112E-2,-5.327577E-2,9.175631E-2,-1.7585019E-2,-5.021943E-2,4.4173587E-2,-9.371359E-2,1.1342741E-3,9.3190804E-2,-8.304187E-3,3.3965018E-2,-5.450204E-2,-8.353639E-2,6.547339E-3,1.146727E-1,-0E0,6.327549E-2,-6.297845E-2,-6.872484E-2,-1.0046723E-1,5.046415E-2,-6.686311E-2,6.4364836E-2,-5.2030176E-2],"split_indices":[1,14,24,1,3,11,14,8,3,1,1,23,28,3,17,29,24,17,29,24,28,14,13,26,18,1,1,11,1,0,0,0,0,0,0,0,0,0,0,0,0,0,0,0,0,0,0,0,0,0,0,0,0,0,0,0,0,0,0],"split_type":[0,0,0,0,0,0,0,0,0,0,0,0,0,0,0,0,0,0,0,0,0,0,0,0,0,0,0,0,0,0,0,0,0,0,0,0,0,0,0,0,0,0,0,0,0,0,0,0,0,0,0,0,0,0,0,0,0,0,0],"sum_hessian":[6.6781006E2,2.7650732E2,3.9130273E2,1.9381793E2,8.268939E1,3.1672076E2,7.458198E1,8.803277E1,1.05785164E2,4.794037E1,3.474902E1,1.7512695E1,2.9920807E2,5.5745052E1,1.8836924E1,8.571309E1,2.3196776E0,5.4557472E1,5.122769E1,1.4603929E1,3.333644E1,1.6347239E1,1.840178E1,9.5595665E0,7.95313E0,1.4371842E1,2.8483624E2,2.7040676E1,2.8704376E1,1.4103606E0,1.7426561E1,8.469696E1,1.0161269E0,1.131842E0,1.1878357E0,2.5718285E1,2.883919E1,4.52244E1,6.003292E0,6.2126594E0,8.391269E0,3.1471024E1,1.865419E0,1.4057664E1,2.2895749E0,6.6054125E0,1.1796367E1,7.6232424E0,1.9363238E0,2.755427E0,5.197703E0,5.5705814E0,8.801261E0,6.9152596E1,2.1568364E2,1.8391452E0,2.520153E1,1.950203E1,9.202348E0],"tree_param":{"num_deleted":"0","num_feature":"32","num_nodes":"59","size_leaf_vector":"0"}},{"base_weights":[-3.0341536E-1,-6.415375E-1,9.287957E-2,-3.8704565E-1,-8.788558E-1,3.4452888E-1,-3.753287E-1,-1.4606158E-1,-8.019351E-1,-5.465345E-1,-9.5240366E-1,6.6718507E-1,-3.985399E-3,-4.9986818E-1,7.549005E-1,9.550659E-2,-4.7118688E-1,-8.5340154E-1,9.331262E-2,-9.21744E-1,-2.1426806E-1,-9.5916414E-1,-0E0,-7.3078716E-1,7.9844147E-1,2.2402012E-1,-6.704616E-1,-3.3764806E-1,-9.529684E-1,-5.4848094E-2,9.0883905E-1,-4.5832908E-1,2.4199869E-1,-7.453951E-1,-0E0,-1.0701104E0,-5.6744784E-1,4.0716377E-1,-2.0108694E-1,-1.0045002E0,-2.5556973E-1,8.133796E-1,-4.9833888E-1,-3.3554515E-1,-9.7528505E-1,-9.0439063E-1,-0E0,1.07950985E-1,8.6737055E-1,-4.9672212E-2,4.945568E-1,-8.8686174E-1,-0E0,6.133431E-2,-5.172233E-1,-1.4303187E-1,-1.0204374E0,9.953276E-1,3.865485E-2],"categories":[],"categories_nodes":[],"categories_segments":[],"categories_sizes":[],"default_left":[1,1,1,1,1,1,1,1,1,1,1,1,1,1,1,1,1,1,1,1,1,1,0,1,1,1,1,1,1,0,1,0,0,0,0,0,0,0,0,1,1,0,0,0,0,0,0,0,0,0,0,0,0,0,0,0,0,0,0],"id":16,"left_children":[1,3,5,7,9,11,13,15,17,19,21,23,25,27,29,31,33,35,37,-1,41,43,-1,45,47,49,51,53,55,-1,57,-1,-1,-1,-1,-1,-1,-1,-1,-1,-1,-1,-1,-1,-1,-1,-1,-1,-1,-1,-1,-1,-1,-1,-1,-1,-1,-1,-1],"loss_changes":[8.6633675E1,1.9981506E1,3.53858E1,1.6725971E1,2.8534698E0,2.2163025E1,1.5462611E1,8.99596E0,3.256363E0,3.9859724E0,8.3691406E-1,1.9921085E1,1.4958087E1,6.0183353E0,1.7154164E0,5.4811206E0,6.319048E0,1.9730263E0,6.85836E-1,3.643799E-2,7.507371E0,3.7355042E-1,0E0,1.4238644E0,4.0201645E0,5.539818E0,3.6725912E0,5.5152054E0,6.643715E-1,0E0,3.5553408E-1,0E0,0E0,0E0,0E0,0E0,0E0,0E0,0E0,0E0,0E0,0E0,0E0,0E0,0E0,0E0,0E0,0E0,0E0,0E0,0E0,0E0,0E0,0E0,0E0,0E0,0E0,0E0,0E0],"parents":[2147483647,0,0,1,1,2,2,3,3,4,4,5,5,6,6,7,7,8,8,9,9,10,10,11,11,12,12,13,13,14,14,15,15,16,16,17,17,18,18,19,19,20,20,21,21,23,23,24,24,25,25,26,26,27,27,28,28,30,30],"right_children":[2,4,6,8,10,12,14,16,18,20,22,24,26,28,30,32,34,36,38,-1,42,44,-1,46,48,50,52,54,56,-1,58,-1,-1,-1,-1,-1,-1,-1,-1,-1,-1,-1,-1,-1,-1,-1,-1,-1,-1,-1,-1,-1,-1,-1,-1,-1,-1,-1,-1],"split_conditions":[8.5E0,4.5E1,1.525E2,1.25E-1,1.5E0,1.245E2,1.55E1,1.215E2,1.85E1,1.115E2,3.015E2,2.25E1,1.25E-1,1.25E-1,9.75E1,4.5442E0,2.0525E-1,5E-1,1.2734751E1,-8.8487424E-2,5.80075E2,2.5E0,-0E0,5.1449003E0,5.8993998E0,1.3485E-1,1.85E1,1.005E2,4.5E0,-5.265417E-3,1.6665E-1,-4.3999594E-2,2.3231873E-2,-7.155793E-2,-0E0,-1.027306E-1,-5.4474995E-2,3.9087724E-2,-1.9304346E-2,-9.6432015E-2,-2.4534695E-2,7.808444E-2,-4.7840532E-2,-3.2212336E-2,-9.362736E-2,-8.6821504E-2,-0E0,1.0363295E-2,8.326757E-2,-4.7685322E-3,4.7477454E-2,-8.513873E-2,-0E0,5.8880937E-3,-4.9653437E-2,-1.373106E-2,-9.7961985E-2,9.5551446E-2,3.7108655E-3],"split_indices":[26,14,14,5,12,13,26,13,27,13,13,18,9,9,13,23,30,20,2,2,0,17,0,23,2,30,27,13,17,0,5,0,0,0,0,0,0,0,0,2147483647,2147483647,0,0,0,0,0,0,0,0,0,0,0,0,0,0,0,0,0,0],"split_type":[0,0,0,0,0,0,0,0,0,0,0,0,0,0,0,0,0,0,0,0,0,0,0,0,0,0,0,0,0,0,0,0,0,0,0,0,0,0,0,0,0,0,0,0,0,0,0,0,0,0,0,0,0,0,0,0,0,0,0],"sum_hessian":[6.4239667E2,3.463337E2,2.9606296E2,1.703188E2,1.760149E2,1.933117E2,1.0275127E2,1.0993815E2,6.038066E1,3.575005E1,1.4026483E2,9.981798E1,9.349373E1,9.381654E1,8.934718E0,6.3414394E1,4.652375E1,5.748745E1,2.8932102E0,1.46683445E1,2.1081707E1,1.3917517E2,1.0896639E0,7.5723934E0,9.224559E1,7.036962E1,2.3124104E1,7.219908E1,2.161746E1,1.3472383E0,7.58748E0,1.1941307E1,5.1473087E1,2.8721811E1,1.780194E1,2.8916245E1,2.8571205E1,1.4805793E0,1.4126309E0,1.1736759E1,2.931585E0,3.5160646E0,1.7565641E1,5.0846767E0,1.340905E2,5.9673767E0,1.6050164E0,9.225716E0,8.3019875E1,3.530189E1,3.5067734E1,1.6999336E1,6.124766E0,2.2344692E1,4.9854393E1,2.479838E0,1.9137623E1,6.336241E0,1.2512393E0],"tree_param":{"num_deleted":"2","num_feature":"32","num_nodes":"59","size_leaf_vector":"0"}},{"base_weights":[-2.8940704E-1,5.234025E-1,-6.500706E-1,9.175736E-1,-1.4579491E-1,-1.80771E-1,-9.027258E-1,9.616573E-1,-5.0415254E-1,5.985871E-1,-9.787197E-1,1.09589E-1,-8.417374E-1,-3.6853805E-2,-9.5346165E-1,-4.4249684E-1,9.8881894E-1,8.6398023E-1,-3.18353E-1,-0E0,-1.11885E0,5.739311E-1,-3.601713E-1,-9.8826003E-1,-1.7472498E-2,-6.8282896E-1,4.3439573E-1,-1.8221974E-1,-9.799419E-1,1.1236597E0,6.611279E-1,9.4139755E-1,-6.0634304E-2,3.168477E-1,-8.5561705E-1,3.8747218E-1,-3.0711314E-1,7.1247645E-2,-1.173923E0,8.0131537E-1,-5.2558005E-1,8.845651E-1,-5.9426963E-1,1.02044165E-1,-1.046252E0,4.7283548E-1,-7.8492266E-1,-8.583664E-1,7.631191E-2,8.4477705E-1,-3.2780233E-1,9.5314527E-1,-5.9840155E-1,-5.631646E-1,-1.0317996E0],"categories":[],"categories_nodes":[],"categories_segments":[],"categories_sizes":[],"default_left":[1,1,1,1,1,1,1,1,0,1,1,1,1,1,1,0,1,1,1,1,1,1,1,1,1,1,1,1,1,0,0,0,0,0,0,0,0,0,0,0,0,0,0,0,0,0,0,0,0,0,0,0,0,0,0],"id":17,"left_children":[1,3,5,7,9,11,13,15,-1,17,19,21,23,25,27,-1,29,31,33,35,37,39,41,43,45,47,49,51,53,-1,-1,-1,-1,-1,-1,-1,-1,-1,-1,-1,-1,-1,-1,-1,-1,-1,-1,-1,-1,-1,-1,-1,-1,-1,-1],"loss_changes":[1.8377258E2,5.135133E1,5.0773087E1,8.770615E0,4.6572018E1,3.0092718E1,1.1991241E1,5.6020737E0,0E0,1.0370691E1,4.5991516E0,2.4272E1,5.4488983E0,6.1662726E0,4.7155457E0,0E0,3.160965E0,2.6242867E0,4.1839695E0,1.025876E0,2.5005646E0,1.4932884E1,1.708157E1,3.0303955E0,4.469501E0,1.5091534E0,4.29222E0,6.603875E0,3.8685913E0,0E0,0E0,0E0,0E0,0E0,0E0,0E0,0E0,0E0,0E0,0E0,0E0,0E0,0E0,0E0,0E0,0E0,0E0,0E0,0E0,0E0,0E0,0E0,0E0,0E0,0E0],"parents":[2147483647,0,0,1,1,2,2,3,3,4,4,5,5,6,6,7,7,9,9,10,10,11,11,12,12,13,13,14,14,16,16,17,17,18,18,19,19,20,20,21,21,22,22,23,23,24,24,25,25,26,26,27,27,28,28],"right_children":[2,4,6,8,10,12,14,16,-1,18,20,22,24,26,28,-1,30,32,34,36,38,40,42,44,46,48,50,52,54,-1,-1,-1,-1,-1,-1,-1,-1,-1,-1,-1,-1,-1,-1,-1,-1,-1,-1,-1,-1,-1,-1,-1,-1,-1,-1],"split_conditions":[-3.3666E1,1.1203199E1,-3.66905E0,-6.4425004E-1,-4.110575E1,8.157E2,4.45E1,3.66935E0,-4.8398644E-2,-2.64965E0,-1.335E-2,-2.54608E1,3.5E0,5.6464E0,5.1607996E2,-4.2479698E-2,9.6726E0,1.8789E0,1.482655E1,8.073E2,-7.63965E0,9.6657505E0,5.4195E2,1.05E1,-2.84402E1,1.5E0,-6.4454997E-1,-1.711005E1,-3.051595E1,1.0787134E-1,6.3468285E-2,9.0374164E-2,-5.820893E-3,3.041738E-2,-8.213924E-2,3.719733E-2,-2.9482862E-2,6.839774E-3,-1.1269661E-1,7.6926276E-2,-5.0455686E-2,8.491825E-2,-5.7049885E-2,9.79624E-3,-1.004402E-1,4.5392208E-2,-7.535258E-2,-8.2403176E-2,7.325943E-3,8.1098594E-2,-3.1469025E-2,9.1501944E-2,-5.744655E-2,-5.40638E-2,-9.905276E-2],"split_indices":[1,2,4,4,1,0,11,23,0,4,29,1,24,23,0,0,2,29,2,0,4,2,0,27,1,25,4,1,1,0,0,0,0,0,0,0,0,0,0,0,0,0,0,0,0,0,0,0,0,0,0,0,0,0,0],"split_type":[0,0,0,0,0,0,0,0,0,0,0,0,0,0,0,0,0,0,0,0,0,0,0,0,0,0,0,0,0,0,0,0,0,0,0,0,0,0,0,0,0,0,0,0,0,0,0,0,0,0,0,0,0,0,0],"sum_hessian":[6.222975E2,1.9073422E2,4.3156323E2,1.1981473E2,7.091949E1,1.5266193E2,2.789013E2,1.1705281E2,2.7619233E0,3.7578743E1,3.334074E1,1.0696923E2,4.5692696E1,1.5942936E1,2.6295837E2,1.424167E0,1.1562864E2,2.9474752E1,8.103992E0,4.6401396E0,2.8700602E1,5.3866123E1,5.310311E1,3.8156387E1,7.5363097E0,6.5855646E0,9.357371E0,9.623403E0,2.5333498E2,7.7751205E1,3.7877438E1,2.7444315E1,2.0304377E0,3.8617833E0,4.2422094E0,1.4815753E0,3.1585643E0,1.0160708E0,2.7684532E1,4.531259E1,8.553531E0,7.3058763E0,4.5797234E1,1.6020811E0,3.6554306E1,4.858649E0,2.677661E0,5.4309306E0,1.154634E0,6.1773195E0,3.1800523E0,1.6838968E0,7.939506E0,3.1348946E1,2.2198602E2],"tree_param":{"num_deleted":"0","num_feature":"32","num_nodes":"55","size_leaf_vector":"0"}},{"base_weights":[-2.7490285E-1,3.1380928E-1,-7.047248E-1,5.744442E-1,-2.4800064E-1,-9.0547794E-1,-4.1259143E-1,9.236706E-1,2.2179371E-1,-6.8837386E-1,1.06680766E-1,-5.2619356E-1,-9.7972643E-1,2.46479E-1,-5.9753656E-1,9.5958394E-1,-3.45156E-2,5.626993E-1,-3.4402424E-1,-7.893927E-1,2.1644165E-1,7.076837E-1,-2.7432272E-1,-7.972324E-2,-9.0887344E-1,-4.6878555E-1,-1.0389025E0,6.9166625E-1,-4.923945E-1,-7.5253993E-1,8.561465E-2,9.791173E-1,-4.1267466E-2,-4.5002162E-1,3.123829E-1,7.4620855E-1,-3.263558E-1,7.0976514E-1,-5.556211E-1,2.5623094E-2,-8.6578184E-1,5.91551E-1,-3.135767E-1,9.1074395E-1,-2.943426E-1,4.825067E-1,-5.956637E-1,-6.5523434E-1,3.3861145E-1,-7.252963E-3,-9.481917E-1,-5.90771E-1,2.7736735E-1,-3.992605E-2,-1.0442082E0,-6.380946E-1,9.2730427E-1,-7.5158715E-1,6.103826E-1,-8.091248E-1,2.3928523E-1,5.9744126E-1,-9.143747E-1],"categories":[],"categories_nodes":[],"categories_segments":[],"categories_sizes":[],"default_left":[1,1,1,1,1,1,1,1,1,1,1,1,1,1,1,1,1,1,1,1,1,1,1,1,1,1,1,1,1,1,1,0,0,0,0,0,0,0,0,0,0,0,0,0,0,0,0,0,0,0,0,0,0,0,0,0,0,0,0,0,0,0,0],"id":18,"left_children":[1,3,5,7,9,11,13,15,17,19,21,23,25,27,29,31,33,35,37,39,41,43,45,47,49,51,53,55,57,59,61,-1,-1,-1,-1,-1,-1,-1,-1,-1,-1,-1,-1,-1,-1,-1,-1,-1,-1,-1,-1,-1,-1,-1,-1,-1,-1,-1,-1,-1,-1,-1,-1],"loss_changes":[1.5032161E2,3.7125397E1,1.8970566E1,2.0479813E1,1.2906971E1,4.169159E0,1.7964378E1,3.2730408E0,1.7606283E1,3.859745E0,1.1076734E1,6.0625505E0,3.5583038E0,1.1516432E1,1.2333313E1,1.9669342E0,1.0218143E0,9.849697E0,8.440164E0,2.3774452E0,1.4596282E0,4.5424128E0,7.778489E0,5.3973365E0,4.2246056E-1,2.3746624E0,3.8046265E-1,8.042976E0,4.779844E0,5.780842E0,1.255571E1,0E0,0E0,0E0,0E0,0E0,0E0,0E0,0E0,0E0,0E0,0E0,0E0,0E0,0E0,0E0,0E0,0E0,0E0,0E0,0E0,0E0,0E0,0E0,0E0,0E0,0E0,0E0,0E0,0E0,0E0,0E0,0E0],"parents":[2147483647,0,0,1,1,2,2,3,3,4,4,5,5,6,6,7,7,8,8,9,9,10,10,11,11,12,12,13,13,14,14,15,15,16,16,17,17,18,18,19,19,20,20,21,21,22,22,23,23,24,24,25,25,26,26,27,27,28,28,29,29,30,30],"right_children":[2,4,6,8,10,12,14,16,18,20,22,24,26,28,30,32,34,36,38,40,42,44,46,48,50,52,54,56,58,60,62,-1,-1,-1,-1,-1,-1,-1,-1,-1,-1,-1,-1,-1,-1,-1,-1,-1,-1,-1,-1,-1,-1,-1,-1,-1,-1,-1,-1,-1,-1,-1,-1],"split_conditions":[-3.0197601E1,1.575E2,1.5E0,-3.73069E1,2.8086E0,-2.69236E1,7.1191E0,1.6665E-1,1.25E-1,4.5E0,-3.7517754E1,5.5E0,5.517E0,-1.748045E1,5E-1,9.315451E0,1.5E0,1.21945E0,7.773E0,-4.83553E1,-3.7649048E1,3.655E2,8.387051E0,5E-1,4.95E1,5E-1,2.45E1,4.3313503E0,1.37445E2,1.86081E1,-2.270875E1,9.399526E-2,-3.9616767E-3,-4.3202076E-2,2.998876E-2,7.163602E-2,-3.1330157E-2,6.813745E-2,-5.3339627E-2,2.459817E-3,-8.3115056E-2,5.6788895E-2,-3.0103363E-2,8.743142E-2,-2.8256891E-2,4.6320643E-2,-5.7183716E-2,-6.2902495E-2,3.25067E-2,-6.962844E-4,-9.10264E-2,-5.6714017E-2,2.6627267E-2,-3.8329007E-3,-1.00243986E-1,-6.1257083E-2,8.902121E-2,-7.215237E-2,5.859673E-2,-7.767598E-2,2.2971382E-2,5.735436E-2,-8.777998E-2],"split_indices":[1,14,24,1,3,1,28,8,5,15,1,12,28,1,15,23,24,29,28,1,1,14,28,24,13,15,13,23,22,3,1,0,0,0,0,0,0,0,0,0,0,0,0,0,0,0,0,0,0,0,0,0,0,0,0,0,0,0,0,0,0,0,0],"split_type":[0,0,0,0,0,0,0,0,0,0,0,0,0,0,0,0,0,0,0,0,0,0,0,0,0,0,0,0,0,0,0,0,0,0,0,0,0,0,0,0,0,0,0,0,0,0,0,0,0,0,0,0,0,0,0,0,0,0,0,0,0,0,0],"sum_hessian":[5.8974835E2,2.4883281E2,3.4091553E2,1.7028816E2,7.8544655E1,1.989148E2,1.4200075E2,8.347523E1,8.6812935E1,3.452625E1,4.4018406E1,3.592428E1,1.6299051E2,3.0631062E1,1.1136968E2,8.0740326E1,2.7349021E0,5.4491547E1,3.232139E1,3.1576351E1,2.9498978E0,1.6677683E1,2.7340723E1,1.8073624E1,1.7850657E1,1.9327547E1,1.4366296E2,1.9434902E1,1.1196159E1,9.093887E1,2.043081E1,7.951512E1,1.2252041E0,1.3345603E0,1.4003417E0,4.5706715E1,8.78483E0,4.3677516E0,2.7953638E1,2.5073624E0,2.9068989E1,1.8983514E0,1.0515463E0,1.4258103E1,2.4195802E0,7.5780277E0,1.9762695E1,7.3984466E0,1.0675177E1,1.1479666E0,1.670269E1,1.7306728E1,2.0208185E0,1.1329077E0,1.4253006E2,2.2136989E0,1.7221203E1,9.805746E0,1.3904136E0,8.666007E1,4.2788E0,1.4251116E1,6.1796956E0],"tree_param":{"num_deleted":"0","num_feature":"32","num_nodes":"63","size_leaf_vector":"0"}},{"base_weights":[-2.6276162E-1,2.6407534E-1,-7.4422544E-1,7.3103315E-1,-2.348568E-1,-3.1100374E-1,-9.688293E-1,7.8260005E-1,-5.936649E-1,4.2101637E-1,-6.3701314E-1,1.356526E-3,-6.4539874E-1,-9.823893E-1,3.4034657E-1,1.0116726E0,4.7361836E-1,4.0567896E-1,-1.1326398E0,8.206223E-1,-3.0688637E-1,1.3238025E-2,-9.458168E-1,4.2997333E-1,-5.256856E-1,-7.8404313E-1,5.906323E-1,-2.9092768E-1,-9.9961966E-1,1.0242602E0,-0E0,7.2929543E-1,-4.259275E-1,9.694243E-1,-4.518447E-1,2.2790702E-2,-8.0067086E-1,4.9287742E-1,-9.160292E-1,1.4820057E-1,-9.80027E-1,-3.2725087E-1,7.832433E-1,-8.392596E-1,1.10222094E-1,-3.348371E-1,-9.6583945E-1,9.651438E-1,-2.420879E-1,-7.887722E-1,6.11159E-1,-1.0084661E0,-1.2129001E-1],"categories":[],"categories_nodes":[],"categories_segments":[],"categories_sizes":[],"default_left":[1,1,1,1,1,1,1,1,1,1,1,1,1,1,0,1,1,0,0,1,1,1,1,1,1,1,1,1,1,0,0,0,0,0,0,0,0,0,0,0,0,0,0,0,0,0,0,0,0,0,0,0,0],"id":19,"left_children":[1,3,5,7,9,11,13,15,17,19,21,23,25,27,-1,29,31,-1,-1,33,35,37,39,41,43,45,47,49,51,-1,-1,-1,-1,-1,-1,-1,-1,-1,-1,-1,-1,-1,-1,-1,-1,-1,-1,-1,-1,-1,-1,-1,-1],"loss_changes":[1.4751627E2,6.524606E1,2.8554718E1,1.0875221E1,3.639128E1,1.1372801E1,4.396652E0,8.502602E0,4.591595E0,1.5946342E1,1.7391033E1,1.3320055E1,9.953859E0,1.3844452E0,0E0,8.036804E-1,1.5455737E1,0E0,0E0,7.6273766E0,3.4923296E0,1.3815415E1,2.708252E0,9.453171E0,5.622627E0,2.8850365E0,2.6321182E0,4.689203E0,9.1400146E-1,0E0,0E0,0E0,0E0,0E0,0E0,0E0,0E0,0E0,0E0,0E0,0E0,0E0,0E0,0E0,0E0,0E0,0E0,0E0,0E0,0E0,0E0,0E0,0E0],"parents":[2147483647,0,0,1,1,2,2,3,3,4,4,5,5,6,6,7,7,8,8,9,9,10,10,11,11,12,12,13,13,15,15,16,16,19,19,20,20,21,21,22,22,23,23,24,24,25,25,26,26,27,27,28,28],"right_children":[2,4,6,8,10,12,14,16,18,20,22,24,26,28,-1,30,32,-1,-1,34,36,38,40,42,44,46,48,50,52,-1,-1,-1,-1,-1,-1,-1,-1,-1,-1,-1,-1,-1,-1,-1,-1,-1,-1,-1,-1,-1,-1,-1,-1],"split_conditions":[-2.88752E1,-4.2957E0,-3.6118999E0,1.62877E1,9.791599E0,1.365E2,1.51755E2,-3.624445E1,-4.565975E1,9.5E1,-3.853E1,4.95E1,1.45E2,3.45E1,3.2673273E-2,-4.3719997E0,9.703051E0,3.894518E-2,-1.08733416E-1,-6.5145004E-1,1.0265E-1,1.551005E1,4.55E1,7.4255005E1,8.5E0,-6.4852E0,7E0,1.15E1,1.85E1,9.832898E-2,-0E0,7.001236E-2,-4.088904E-2,9.306473E-2,-4.337709E-2,2.1879075E-3,-7.686441E-2,4.7316235E-2,-8.793881E-2,1.4227255E-2,-9.4082594E-2,-3.1416085E-2,7.5191356E-2,-8.0568925E-2,1.0581321E-2,-3.2144364E-2,-9.272059E-2,9.26538E-2,-2.324044E-2,-7.5722136E-2,5.8671266E-2,-9.681275E-2,-1.1643841E-2],"split_indices":[1,4,4,2,2,13,22,1,1,14,1,14,22,11,0,4,2,0,0,4,31,2,11,22,19,4,12,27,27,0,0,0,0,0,0,0,0,0,0,0,0,0,0,0,0,0,0,0,0,0,0,0,0],"split_type":[0,0,0,0,0,0,0,0,0,0,0,0,0,0,0,0,0,0,0,0,0,0,0,0,0,0,0,0,0,0,0,0,0,0,0,0,0,0,0,0,0,0,0,0,0,0,0,0,0,0,0,0,0],"sum_hessian":[5.773633E2,2.7585724E2,3.01506E2,1.4228957E2,1.3356767E2,1.0505681E2,1.9644922E2,1.3797763E2,4.3119392E0,5.0465595E1,8.310209E1,5.4946896E1,5.010991E1,1.9515942E2,1.2897972E0,7.6009796E1,6.196783E1,1.5066336E0,2.8053055E0,3.265988E1,1.7805714E1,2.710112E1,5.6000965E1,3.0808132E1,2.4138763E1,4.594111E1,4.1688E0,6.0420265E0,1.8911739E2,7.48686E1,1.1411939E0,4.8801823E1,1.3166009E1,2.9879856E1,2.7800252E0,1.1517478E1,6.288235E0,1.8715675E1,8.385447E0,1.2391753E0,5.476179E1,9.595183E0,2.121295E1,1.602084E1,8.117925E0,1.5376048E1,3.0565062E1,2.88229E0,1.2865099E0,4.262185E0,1.7798415E0,1.866104E2,2.5069966E0],"tree_param":{"num_deleted":"0","num_feature":"32","num_nodes":"53","size_leaf_vector":"0"}},{"base_weights":[-2.739387E-1,6.296851E-1,-5.325324E-1,8.601423E-1,-4.6353212E-1,-2.4766167E-1,-8.022925E-1,9.8140323E-1,5.0471383E-1,6.473992E-1,-1.1101484E0,1.963775E-1,-8.8607526E-1,-8.340167E-1,4.5669562E-1,1.0322831E0,1.8346918E-1,8.8875306E-1,-0E0,8.377315E-1,-1.9387047E-1,-1.4071426E-1,-1.2214344E0,-1.8752506E-1,6.1428773E-1,-9.27943E-1,3.5345855E-1,-3.4601176E-1,-8.9637196E-1,1.047181E0,-2.2588548E-1,1.0517339E0,-0E0,6.944701E-1,-3.2418036E-1,5.0248742E-2,9.734079E-1,6.861838E-1,-3.928259E-1,-4.548647E-1,8.192226E-1,8.671274E-1,-2.0089809E-2,-5.3563356E-1,-1.1042714E0,1.0550593E-1,-7.143827E-1,-9.765398E-1,-5.410781E-1,-4.7975513E-1,1.1209421E-1],"categories":[],"categories_nodes":[],"categories_segments":[],"categories_sizes":[],"default_left":[1,1,1,1,1,1,1,1,1,1,1,1,1,1,1,1,1,1,1,0,0,0,0,1,1,1,0,1,1,0,1,0,0,0,0,0,0,0,0,0,0,0,0,0,0,0,0,0,0,0,0],"id":20,"left_children":[1,3,5,7,9,11,13,15,17,19,21,23,25,27,29,31,33,35,37,-1,-1,-1,-1,39,41,43,-1,45,47,-1,49,-1,-1,-1,-1,-1,-1,-1,-1,-1,-1,-1,-1,-1,-1,-1,-1,-1,-1,-1,-1],"loss_changes":[1.282053E2,3.1710033E1,3.200875E1,2.9448776E0,1.7705627E1,6.024518E1,9.570374E0,2.2347336E0,5.754461E0,2.0203056E0,8.87249E-1,2.0512589E1,5.355919E0,5.484955E0,3.3233232E0,1.471344E0,2.4458315E0,8.312321E-1,4.834585E0,0E0,0E0,0E0,0E0,1.8621479E1,1.0056023E1,4.19149E0,0E0,4.983921E0,3.803238E0,0E0,5.9881985E-1,0E0,0E0,0E0,0E0,0E0,0E0,0E0,0E0,0E0,0E0,0E0,0E0,0E0,0E0,0E0,0E0,0E0,0E0,0E0,0E0],"parents":[2147483647,0,0,1,1,2,2,3,3,4,4,5,5,6,6,7,7,8,8,9,9,10,10,11,11,12,12,13,13,14,14,15,15,16,16,17,17,18,18,23,23,24,24,25,25,27,27,28,28,30,30],"right_children":[2,4,6,8,10,12,14,16,18,20,22,24,26,28,30,32,34,36,38,-1,-1,-1,-1,40,42,44,-1,46,48,-1,50,-1,-1,-1,-1,-1,-1,-1,-1,-1,-1,-1,-1,-1,-1,-1,-1,-1,-1,-1,-1],"split_conditions":[-3.658125E1,1.4096849E1,-2.59853E1,-3.9222E1,-4.59555E1,9.52635E0,1.48745E2,1.78775E0,9.18575E0,1.909375E1,-4.40698E1,1.8465E-1,1.32119E1,5.586E0,1.05E1,5.55E1,1.121225E1,8.1231E0,3.47E-2,8.042222E-2,-1.8611565E-2,-1.35085685E-2,-1.172577E-1,1.0722099E1,2.9165E-1,1.06682E1,3.3932023E-2,3.55E1,1.033625E1,1.0052938E-1,1.342245E1,1.0096645E-1,-0E0,6.666913E-2,-3.1121315E-2,4.8238793E-3,9.344716E-2,6.5873645E-2,-3.7711285E-2,-4.366701E-2,7.864537E-2,8.3244234E-2,-1.9286217E-3,-5.1420823E-2,-1.0601006E-1,1.0128569E-2,-6.858074E-2,-9.3747824E-2,-5.1943496E-2,-4.6056494E-2,1.0761044E-2],"split_indices":[1,2,1,1,1,2,22,29,2,2,1,30,3,28,27,16,2,28,29,0,0,0,0,3,5,2,0,14,3,0,3,0,0,0,0,0,0,0,0,0,0,0,0,0,0,0,0,0,0,0,0],"split_type":[0,0,0,0,0,0,0,0,0,0,0,0,0,0,0,0,0,0,0,0,0,0,0,0,0,0,0,0,0,0,0,0,0,0,0,0,0,0,0,0,0,0,0,0,0,0,0,0,0,0,0],"sum_hessian":[5.43738E2,1.20078896E2,4.2365906E2,9.974985E1,2.0329052E1,2.0849608E2,2.1516296E2,7.106812E1,2.868172E1,7.3178544E0,1.3011198E1,1.2355168E2,8.49444E1,2.1077391E2,4.3890643E0,6.590495E1,5.16317E0,1.5133965E1,1.3547756E1,6.2481523E0,1.0697023E0,2.0829625E0,1.0928235E1,6.4638466E1,5.891322E1,8.2891914E1,2.052487E0,2.5927322E1,1.8484659E2,1.9825354E0,2.4065287E0,6.474417E1,1.1607834E0,2.4706569E0,2.692513E0,1.9954783E0,1.3138486E1,4.5845323E0,8.963224E0,5.219259E1,1.2445873E1,4.189943E1,1.701379E1,2.8789045E1,5.4102867E1,1.1968061E1,1.3959261E1,1.4721875E2,3.7627834E1,1.3553555E0,1.0511732E0],"tree_param":{"num_deleted":"0","num_feature":"32","num_nodes":"51","size_leaf_vector":"0"}},{"base_weights":[-2.3913847E-1,2.4132058E-1,-6.710292E-1,7.325056E-1,-1.1179041E-1,-1.9371216E-1,-8.2988644E-1,7.995076E-1,-4.1472447E-1,1.722002E-1,-6.923405E-1,7.2156465E-1,-4.9565217E-1,-3.978382E-1,-9.2170125E-1,2.0829935E-1,8.947868E-1,4.7828373E-1,-1.0019478E0,6.237494E-1,-3.49937E-1,-3.2424477E-1,-1.0347741E0,-2.745904E-1,1.0226316E0,9.488525E-2,-7.7284133E-1,8.3385414E-1,-5.967408E-1,-1.0308197E0,-7.233432E-1,5.02168E-1,-5.4041255E-1,9.28632E-1,-2.2310504E-1,-4.3601164E-1,7.8385544E-1,8.221114E-1,-4.667205E-1,4.385791E-1,-6.3501155E-1,-1.1408724E0,-2.185007E-1,2.26188E-1,-5.522606E-1,1.1843104E0,-1.6864233E-1,4.2052037E-1,-7.1081775E-1,2.8874952E-1,-9.4300956E-1,1.3512304E0,-3.7153518E-1,2.3565887E-1,-7.289753E-1,-3.5408558E-3,-1.0392255E0,-0E0,-7.692802E-1],"categories":[],"categories_nodes":[],"categories_segments":[],"categories_sizes":[],"default_left":[1,1,1,1,1,1,1,1,1,1,1,1,1,1,1,1,1,0,0,1,1,1,1,1,1,1,1,1,1,1,1,0,0,0,0,0,0,0,0,0,0,0,0,0,0,0,0,0,0,0,0,0,0,0,0,0,0,0,0],"id":21,"left_children":[1,3,5,7,9,11,13,15,17,19,21,23,25,27,29,31,33,-1,-1,35,37,39,41,43,45,47,49,51,53,55,57,-1,-1,-1,-1,-1,-1,-1,-1,-1,-1,-1,-1,-1,-1,-1,-1,-1,-1,-1,-1,-1,-1,-1,-1,-1,-1,-1,-1],"loss_changes":[1.10054825E2,4.3920074E1,2.053418E1,8.917793E0,2.4732023E1,2.079741E1,7.130905E0,4.981018E0,4.7890735E0,2.4214342E1,5.1283264E0,6.391362E0,9.543232E0,1.0927573E1,1.6353302E0,4.311777E0,3.8723068E0,0E0,0E0,1.0120802E1,7.2118607E0,7.0639315E0,1.1938438E0,1.1492957E0,3.587181E0,5.6449337E0,7.757244E0,5.2565427E0,4.503669E0,5.9345245E-1,2.2476997E0,0E0,0E0,0E0,0E0,0E0,0E0,0E0,0E0,0E0,0E0,0E0,0E0,0E0,0E0,0E0,0E0,0E0,0E0,0E0,0E0,0E0,0E0,0E0,0E0,0E0,0E0,0E0,0E0],"parents":[2147483647,0,0,1,1,2,2,3,3,4,4,5,5,6,6,7,7,8,8,9,9,10,10,11,11,12,12,13,13,14,14,15,15,16,16,19,19,20,20,21,21,22,22,23,23,24,24,25,25,26,26,27,27,28,28,29,29,30,30],"right_children":[2,4,6,8,10,12,14,16,18,20,22,24,26,28,30,32,34,-1,-1,36,38,40,42,44,46,48,50,52,54,56,58,-1,-1,-1,-1,-1,-1,-1,-1,-1,-1,-1,-1,-1,-1,-1,-1,-1,-1,-1,-1,-1,-1,-1,-1,-1,-1,-1,-1],"split_conditions":[-3.5777001E0,-3.3621002E1,-3.2119453E1,1.62877E1,8.0545E2,7.99005E2,6.5925E2,5E-1,-4.565145E1,-2.541155E1,-2.875615E1,2.35E1,-3.96442E1,5.1235E1,1.9525E-1,1.1089251E1,3.695E2,4.591524E-2,-9.618699E-2,6.112E1,2.5E0,7.2964E0,3.5E0,9.8E1,1.389835E1,1.570315E1,8.1094E0,-1.718575E1,4.2345E2,4.5E1,3.7841E0,4.820813E-2,-5.1879603E-2,8.914868E-2,-2.1418083E-2,-4.185712E-2,7.525013E-2,7.89227E-2,-4.480517E-2,4.2103596E-2,-6.096111E-2,-1.0952375E-1,-2.0976068E-2,2.1714048E-2,-5.3017017E-2,1.136938E-1,-1.6189663E-2,4.0369954E-2,-6.8238504E-2,2.7719954E-2,-9.052892E-2,1.2971812E-1,-3.566738E-2,2.2623252E-2,-6.998163E-2,-3.3992218E-4,-9.976564E-2,-0E0,-7.38509E-2],"split_indices":[4,1,1,2,0,0,0,20,1,1,1,18,1,22,30,2,14,0,0,22,17,2,25,11,2,2,2,1,0,11,23,0,0,0,0,0,0,0,0,0,0,0,0,0,0,0,0,0,0,0,0,0,0,0,0,0,0,0,0],"split_type":[0,0,0,0,0,0,0,0,0,0,0,0,0,0,0,0,0,0,0,0,0,0,0,0,0,0,0,0,0,0,0,0,0,0,0,0,0,0,0,0,0,0,0,0,0,0,0,0,0,0,0,0,0,0,0,0,0,0,0],"sum_hessian":[5.2610406E2,2.4917151E2,2.7693256E2,1.03616035E2,1.4555547E2,7.074138E1,2.0619116E2,9.872291E1,4.8931293E0,9.8392944E1,4.716252E1,1.6603344E1,5.4138035E1,3.8609352E1,1.6758182E2,1.5027274E1,8.369563E1,1.9028418E0,2.9902878E0,5.283681E1,4.5556133E1,2.506684E1,2.2095682E1,3.6782236E0,1.292512E1,1.7403502E1,3.673453E1,4.25307E0,3.4356285E1,1.01593704E2,6.5988106E1,1.15511E1,3.4761744E0,8.182081E1,1.8748271E0,6.2358623E0,4.660095E1,2.7773879E0,4.2778748E1,6.7471013E0,1.8319738E1,1.8520567E1,3.575114E0,1.0865178E0,2.5917058E0,1.1599636E1,1.3254843E0,1.3347568E1,4.055935E0,4.646869E0,3.208766E1,2.9644227E0,1.2886469E0,4.195586E0,3.0160698E1,1.1206815E0,1.0047302E2,4.0870457E0,6.1901062E1],"tree_param":{"num_deleted":"0","num_feature":"32","num_nodes":"59","size_leaf_vector":"0"}},{"base_weights":[-2.2149326E-1,-5.9528893E-1,1.2013023E-1,-4.0690193E-1,-8.400062E-1,3.9236924E-1,-2.238886E-1,-1.9928952E-1,-6.364662E-1,-8.5773623E-1,1.6104272E-1,-2.6083842E-1,6.9568205E-1,-4.132466E-1,3.1303263E-1,-4.0824324E-1,1.740972E-1,-8.2101953E-1,-1.3217042E-1,-3.2142925E-1,-8.8112336E-1,3.7185875E-1,-5.536459E-1,8.7565094E-1,4.6764696E-1,-0E0,-6.0635734E-1,4.8401853E-1,-3.5081804E-1,-4.8944655E-1,4.997362E-1,-1.7967126E-1,4.6538562E-1,7.002743E-2,-8.5490805E-1,5.577736E-1,-3.47011E-1,-6.106183E-1,4.0063444E-1,-1.08555526E-1,5.5733854E-1,-7.153634E-1,7.359867E-1,-1.3703966E-1,9.329061E-1,-4.8141456E-1,6.081604E-1,2.1188463E-1,-6.4878064E-1,-7.930382E-1,-2.4767055E-1,6.53191E-1,-1.7304267E-1,2.6475176E-1,-6.7793095E-1],"categories":[],"categories_nodes":[],"categories_segments":[],"categories_sizes":[],"default_left":[1,1,1,1,1,1,1,1,1,1,0,1,1,1,1,1,1,1,1,1,0,1,1,1,1,1,1,1,1,0,0,0,0,0,0,0,0,0,0,0,0,0,0,0,0,0,0,0,0,0,0,0,0,0,0],"id":22,"left_children":[1,3,5,7,9,11,13,15,17,19,-1,21,23,25,27,29,31,33,35,37,-1,39,41,43,45,47,49,51,53,-1,-1,-1,-1,-1,-1,-1,-1,-1,-1,-1,-1,-1,-1,-1,-1,-1,-1,-1,-1,-1,-1,-1,-1,-1,-1],"loss_changes":[6.308411E1,9.802406E0,2.4419168E1,6.06843E0,2.2548447E0,2.9304419E1,1.1983849E1,6.142761E0,5.448427E0,3.136902E-1,0E0,9.242335E0,2.884388E0,7.0477076E0,3.880401E0,4.177223E0,3.16322E0,1.7320786E0,3.3021493E0,2.211726E0,0E0,1.6686041E0,8.065558E0,3.5567513E0,7.216281E0,4.166526E0,3.2668781E0,3.2222896E0,1.9297376E0,0E0,0E0,0E0,0E0,0E0,0E0,0E0,0E0,0E0,0E0,0E0,0E0,0E0,0E0,0E0,0E0,0E0,0E0,0E0,0E0,0E0,0E0,0E0,0E0,0E0,0E0],"parents":[2147483647,0,0,1,1,2,2,3,3,4,4,5,5,6,6,7,7,8,8,9,9,11,11,12,12,13,13,14,14,15,15,16,16,17,17,18,18,19,19,21,21,22,22,23,23,24,24,25,25,26,26,27,27,28,28],"right_children":[2,4,6,8,10,12,14,16,18,20,-1,22,24,26,28,30,32,34,36,38,-1,40,42,44,46,48,50,52,54,-1,-1,-1,-1,-1,-1,-1,-1,-1,-1,-1,-1,-1,-1,-1,-1,-1,-1,-1,-1,-1,-1,-1,-1,-1,-1],"split_conditions":[1.5E0,1.25E-1,2.15E1,4.55E1,2.5E1,5E-1,3.5E0,5E-1,9.04235E0,8.5E0,1.5460101E-2,6.065E-2,8.0345E2,6.46E-2,8.3335E-1,2.5E0,5.40455E0,2.2768E0,1.5E0,3.05E1,-8.458784E-2,1.15E1,5.5E0,2.15E1,1.35E1,2.53E2,1.5E0,2.49E2,7.105E-2,-4.698687E-2,4.7974676E-2,-1.724844E-2,4.467702E-2,6.7226337E-3,-8.207117E-2,5.3546265E-2,-3.3313055E-2,-5.8619358E-2,3.8460907E-2,-1.042133E-2,5.35045E-2,-6.8674885E-2,7.065473E-2,-1.3155808E-2,8.955899E-2,-4.62158E-2,5.8383398E-2,2.0340925E-2,-6.2282942E-2,-7.6131664E-2,-2.3776373E-2,6.270634E-2,-1.6612096E-2,2.541617E-2,-6.508137E-2],"split_indices":[24,5,14,14,12,20,24,21,28,27,0,31,0,31,5,20,23,2,12,18,0,27,24,18,27,14,20,14,31,0,0,0,0,0,0,0,0,0,0,0,0,0,0,0,0,0,0,0,0,0,0,0,0,0,0],"split_type":[0,0,0,0,0,0,0,0,0,0,0,0,0,0,0,0,0,0,0,0,0,0,0,0,0,0,0,0,0,0,0,0,0,0,0,0,0,0,0,0,0,0,0,0,0,0,0,0,0,0,0,0,0,0,0],"sum_hessian":[4.8973715E2,2.3351784E2,2.562193E2,1.3570726E2,9.7810585E1,1.4332683E2,1.12892494E2,7.3934425E1,6.177283E1,9.667607E1,1.1345153E0,4.524597E1,9.808085E1,8.41992E1,2.8693287E1,4.776596E1,2.6168467E1,4.3862713E1,1.7910116E1,5.817558E0,9.085851E1,1.38334055E1,3.1412565E1,5.0844135E1,4.7236717E1,2.7029724E1,5.716948E1,2.359977E1,5.093518E0,4.5004864E1,2.7610958E0,1.1737562E1,1.4430904E1,1.2213885E0,4.2641323E1,3.1572537E0,1.4752863E1,4.660671E0,1.1568866E0,3.6685963E0,1.0164809E1,2.892497E1,2.4875948E0,2.3030088E0,4.8541126E1,5.1858845E0,4.2050835E1,2.17382E1,5.2915254E0,3.5436092E1,2.1733389E1,1.911868E1,4.4810896E0,1.6051193E0,3.4883983E0],"tree_param":{"num_deleted":"0","num_feature":"32","num_nodes":"55","size_leaf_vector":"0"}},{"base_weights":[-1.9934842E-1,1.4207757E-1,-7.222165E-1,7.197355E-1,-1.0485883E-1,-3.3423203E-1,-8.706559E-1,8.1797737E-1,-4.1929832E-1,2.1365811E-1,-7.1117043E-1,5.255003E-1,-6.8702734E-1,-4.3477815E-1,-9.697071E-1,8.491612E-1,-3.7446854E-1,5.3178453E-1,-1.0382813E0,5.3298867E-1,-5.1041794E-1,-4.539493E-1,-1.2439086E0,1.1759138E0,-1.9722815E-1,1.2774487E-1,-7.876353E-1,5.23387E-1,-6.335288E-1,-1.5495484E-1,-9.9027014E-1,-4.166748E-2,8.808683E-1,-3.1339106E-1,6.728952E-1,9.7235304E-1,-8.013015E-1,9.61921E-2,-8.875301E-1,-1.2957891E0,-0E0,-1.5978235E-1,1.4577074E0,6.574524E-1,-5.5798095E-1,7.262358E-1,-5.462046E-1,-2.2038111E-1,-1.0014808E0,-1.6367134E-1,1.2267035E0,7.616534E-2,-7.694179E-1,-4.87889E-1,2.224015E-1],"categories":[],"categories_nodes":[],"categories_segments":[],"categories_sizes":[],"default_left":[1,1,1,1,1,1,1,1,1,1,1,1,1,1,1,1,0,0,0,1,1,1,1,1,1,1,1,1,1,1,0,0,0,0,0,0,0,0,0,0,0,0,0,0,0,0,0,0,0,0,0,0,0,0,0],"id":23,"left_children":[1,3,5,7,9,11,13,15,17,19,21,23,25,27,29,31,-1,-1,-1,33,35,37,39,41,43,45,47,49,51,53,-1,-1,-1,-1,-1,-1,-1,-1,-1,-1,-1,-1,-1,-1,-1,-1,-1,-1,-1,-1,-1,-1,-1,-1,-1],"loss_changes":[8.7070145E1,4.243661E1,1.0145241E1,1.0781261E1,4.0672527E1,1.8127024E1,4.665085E0,3.8728027E0,6.115736E0,3.2434464E1,8.289143E0,9.013905E0,3.808504E0,6.376871E0,1.1987305E0,2.6178665E0,0E0,0E0,0E0,1.2014065E1,2.0093922E1,1.2925149E1,1.1817627E0,4.517145E0,3.7790504E0,3.3110757E0,3.7686787E0,3.6117387E0,2.8043604E0,9.891682E-1,0E0,0E0,0E0,0E0,0E0,0E0,0E0,0E0,0E0,0E0,0E0,0E0,0E0,0E0,0E0,0E0,0E0,0E0,0E0,0E0,0E0,0E0,0E0,0E0,0E0],"parents":[2147483647,0,0,1,1,2,2,3,3,4,4,5,5,6,6,7,7,8,8,9,9,10,10,11,11,12,12,13,13,14,14,15,15,19,19,20,20,21,21,22,22,23,23,24,24,25,25,26,26,27,27,28,28,29,29],"right_children":[2,4,6,8,10,12,14,16,18,20,22,24,26,28,30,32,-1,-1,-1,34,36,38,40,42,44,46,48,50,52,54,-1,-1,-1,-1,-1,-1,-1,-1,-1,-1,-1,-1,-1,-1,-1,-1,-1,-1,-1,-1,-1,-1,-1,-1,-1],"split_conditions":[-2.6328E0,-3.65772E1,-3.02453E1,1.54674E1,8.0345E2,7.96905E2,6.46795E2,7.5E-1,-4.6764603E1,-2.27557E1,9.156E2,9.5423E0,-4.505595E1,-2.1866299E1,4.5E1,4.1615E1,-3.594898E-2,5.1051315E-2,-9.967501E-2,2.15E1,5.1109998E2,-3.030925E1,1.37805E2,5.1379997E1,-3.8051147E1,9.5E0,8.645E2,2.1167E0,2.05E1,2.56905E0,-9.506594E-2,-4.000078E-3,8.456336E-2,-3.0085541E-2,6.459794E-2,9.3345895E-2,-7.692494E-2,9.234441E-3,-8.520289E-2,-1.2439576E-1,-0E0,-1.5339105E-2,1.3993992E-1,6.311543E-2,-5.3566173E-2,6.971864E-2,-5.2435644E-2,-2.1156587E-2,-9.614216E-2,-1.571245E-2,1.1776354E-1,7.3118727E-3,-7.386412E-2,-4.6837345E-2,2.1350544E-2],"split_indices":[4,1,1,2,0,0,0,6,1,1,0,2,1,1,11,22,0,0,0,18,0,1,22,22,1,17,0,3,18,3,0,0,0,0,0,0,0,0,0,0,0,0,0,0,0,0,0,0,0,0,0,0,0,0,0],"split_type":[0,0,0,0,0,0,0,0,0,0,0,0,0,0,0,0,0,0,0,0,0,0,0,0,0,0,0,0,0,0,0,0,0,0,0,0,0,0,0,0,0,0,0,0,0,0,0,0,0,0,0,0,0,0,0],"sum_hessian":[4.8355814E2,2.9312082E2,1.9043732E2,8.693542E1,2.0618541E2,5.508436E1,1.3535295E2,8.079713E1,6.1382856E0,1.357469E2,7.043851E1,1.5500141E1,3.9584217E1,2.7653816E1,1.07699135E2,7.954867E1,1.2484604E0,2.3552012E0,3.7830844E0,9.485109E1,4.0895817E1,5.044279E1,1.9995714E1,7.6810746E0,7.819067E0,3.9812632E0,3.5602955E1,3.9267044E0,2.3727112E1,3.4233747E0,1.0427576E2,2.4060411E0,7.714263E1,1.280513E1,8.204596E1,5.753454E0,3.514236E1,2.2655527E1,2.7787266E1,1.8968142E1,1.0275736E0,1.3198205E0,6.361254E0,1.5839418E0,6.235125E0,2.2453249E0,1.7359383E0,1.1257862E1,2.4345093E1,2.586139E0,1.3405656E0,3.6256206E0,2.0101492E1,1.8939444E0,1.5294303E0],"tree_param":{"num_deleted":"0","num_feature":"32","num_nodes":"55","size_leaf_vector":"0"}},{"base_weights":[-1.8556435E-1,2.7737725E-1,-4.9476796E-1,8.397366E-2,7.364105E-1,-6.403922E-1,-1.5563244E-1,7.0938575E-1,-7.0598714E-2,7.748071E-1,-2.3011796E-1,-3.149837E-1,-8.0430424E-1,4.96749E-1,-4.880673E-1,9.0481395E-1,-6.39837E-2,1.481239E-1,-3.4215558E-1,8.678189E-1,2.3002705E-1,1.0234105E-1,-5.4008466E-1,1.0019708E-1,-8.448115E-1,6.856711E-1,-2.845831E-1,2.9301563E-2,-6.6730726E-1,-7.023988E-2,1.0188011E0,-4.875991E-1,4.830183E-1,3.631208E-1,-2.648008E-1,-7.179649E-1,-1.1887577E-1,3.179101E-1,9.3291897E-1,-4.149592E-1,4.5892212E-1,5.288381E-1,-4.7360078E-1,1.6149904E-1,-6.504568E-1,4.8733968E-1,-3.0333093E-1,-1.7408915E-1,-8.792252E-1,-0E0,9.786794E-1,-6.7709595E-1,2.8677014E-1,2.6014158E-1,-5.6161916E-1,-3.2610062E-1,-9.9015373E-1],"categories":[],"categories_nodes":[],"categories_segments":[],"categories_sizes":[],"default_left":[1,1,1,1,1,1,1,1,1,1,0,1,1,1,1,1,1,1,1,1,1,1,1,1,1,1,1,1,1,0,0,0,0,0,0,0,0,0,0,0,0,0,0,0,0,0,0,0,0,0,0,0,0,0,0,0,0],"id":24,"left_children":[1,3,5,7,9,11,13,15,17,19,-1,21,23,25,27,29,31,33,35,37,39,41,43,45,47,49,51,53,55,-1,-1,-1,-1,-1,-1,-1,-1,-1,-1,-1,-1,-1,-1,-1,-1,-1,-1,-1,-1,-1,-1,-1,-1,-1,-1,-1,-1],"loss_changes":[6.748053E1,1.6399809E1,1.3511345E1,1.3390524E1,2.573103E0,9.628227E0,1.9609686E1,4.5006437E0,6.7068105E0,2.0089035E0,0E0,6.7868767E0,5.096962E0,5.0164094E0,5.7568026E0,2.8955727E0,2.150005E0,5.7239795E0,3.8146229E0,6.396637E-1,2.047447E0,6.853167E0,3.9215193E0,1.460977E0,2.2395935E0,4.86679E0,2.1053367E0,2.5275998E0,3.899765E0,0E0,0E0,0E0,0E0,0E0,0E0,0E0,0E0,0E0,0E0,0E0,0E0,0E0,0E0,0E0,0E0,0E0,0E0,0E0,0E0,0E0,0E0,0E0,0E0,0E0,0E0,0E0,0E0],"parents":[2147483647,0,0,1,1,2,2,3,3,4,4,5,5,6,6,7,7,8,8,9,9,11,11,12,12,13,13,14,14,15,15,16,16,17,17,18,18,19,19,20,20,21,21,22,22,23,23,24,24,25,25,26,26,27,27,28,28],"right_children":[2,4,6,8,10,12,14,16,18,20,-1,22,24,26,28,30,32,34,36,38,40,42,44,46,48,50,52,54,56,-1,-1,-1,-1,-1,-1,-1,-1,-1,-1,-1,-1,-1,-1,-1,-1,-1,-1,-1,-1,-1,-1,-1,-1,-1,-1,-1,-1],"split_conditions":[-4.3174E0,1.15E1,9.5E0,-9.37545E0,2.5E-1,6.065E-2,7.914E2,1.595E2,4.95E1,-5.02425E0,-2.2091325E-2,-2.19575E0,5.33265E2,1.09732E1,-8.01E-2,4.18045E0,1.885E2,9.779E1,6.5E0,5.41E-2,8.5E1,7.819E2,4.3E1,7.4E1,4.9375E1,1.4835E-1,5.53785E0,1.54491005E1,-2.6328E0,-6.7430283E-3,9.7804904E-2,-4.6809513E-2,4.6369758E-2,3.4859598E-2,-2.5420876E-2,-6.892463E-2,-1.1412074E-2,3.051937E-2,8.956022E-2,-3.9836083E-2,4.4056524E-2,5.0768457E-2,-4.5465674E-2,1.5503908E-2,-6.2443852E-2,4.678461E-2,-2.911977E-2,-1.6712558E-2,-8.4405616E-2,-0E0,9.395322E-2,-6.500121E-2,2.7529933E-2,2.4973592E-2,-5.391544E-2,-3.130566E-2,-9.505476E-2],"split_indices":[4,26,26,4,8,31,0,14,14,4,0,4,0,2,3,23,11,22,26,30,11,0,11,14,22,30,23,2,4,0,0,0,0,0,0,0,0,0,0,0,0,0,0,0,0,0,0,0,0,0,0,0,0,0,0,0,0],"split_type":[0,0,0,0,0,0,0,0,0,0,0,0,0,0,0,0,0,0,0,0,0,0,0,0,0,0,0,0,0,0,0,0,0,0,0,0,0,0,0,0,0,0,0,0,0,0,0,0,0,0,0,0,0,0,0,0,0],"sum_hessian":[4.669407E2,1.8670525E2,2.8023544E2,1.3351309E2,5.319216E1,1.9418443E2,8.605102E1,2.5349327E1,1.0816376E2,5.183493E1,1.3572334E0,6.764794E1,1.2653649E2,2.8416016E1,5.7635E1,2.02463E1,5.103027E0,5.985539E1,4.830837E1,4.2786045E1,9.048885E0,2.365952E1,4.398842E1,4.9948835E0,1.215416E2,2.3377556E1,5.038459E0,1.4869993E1,4.2765007E1,1.9432578E0,1.8303041E1,3.292967E0,1.8100599E0,3.997436E1,1.988103E1,1.5826149E1,3.248222E1,6.275422E0,3.6510624E1,1.607157E0,7.441728E0,1.3971842E1,9.687677E0,5.501982E0,3.848644E1,2.686647E0,2.3082364E0,6.94317E0,1.14598434E2,7.8744E0,1.5503157E1,3.0523574E0,1.9861014E0,1.1868464E1,3.0015283E0,2.3236925E1,1.952808E1],"tree_param":{"num_deleted":"0","num_feature":"32","num_nodes":"57","size_leaf_vector":"0"}},{"base_weights":[-1.7479748E-1,2.5330734E-1,-5.3636336E-1,4.7946182E-1,-3.9693898E-1,-2.7935418E-1,-8.589018E-1,8.343322E-1,1.920042E-1,7.3135215E-1,-7.917764E-1,-9.326934E-2,-8.383864E-1,-8.742444E-1,-0E0,8.706265E-1,-1.4019607E-1,9.2414784E-1,-1.3859005E-1,-1.9972757E-2,8.958755E-1,-2.0274599E-1,-1.032927E0,5.7387304E-2,-8.66557E-1,-9.283726E-1,2.8654164E-1,-3.9375335E-2,-8.9337873E-1,8.9914894E-1,-6.580152E-2,1.0076487E0,-2.26867E-2,5.38642E-2,-6.704373E-1,6.1361752E-2,-1.6488166E-1,5.48638E-1,-5.526568E-1,-1.0768135E0,-0E0,5.6306475E-1,-2.9404026E-1,-9.215824E-1,-2.0210374E-2,-3.4957618E-1,-1.0136989E0,-3.4964302E-1,1.816511E-1,-9.14721E-2,-9.073207E-1],"categories":[],"categories_nodes":[],"categories_segments":[],"categories_sizes":[],"default_left":[1,1,1,1,1,1,1,1,1,1,1,1,1,1,0,1,0,1,1,1,0,1,1,1,1,1,0,1,1,0,0,0,0,0,0,1,1,0,0,0,0,0,0,0,0,0,0,0,0,0,0],"id":25,"left_children":[1,3,5,7,9,11,13,15,17,19,21,23,25,27,-1,29,-1,31,33,-1,-1,37,39,41,43,45,-1,47,49,-1,-1,-1,-1,-1,-1,-1,-1,-1,-1,-1,-1,-1,-1,-1,-1,-1,-1,-1,-1,-1,-1],"loss_changes":[7.000987E1,3.0868076E1,1.9488861E1,1.5180244E1,2.5379974E1,1.4126926E1,1.5518417E0,2.8728294E0,2.1955877E1,2.1321745E0,5.093563E0,1.287257E1,4.202856E0,1.3487473E0,0E0,2.1302414E0,0E0,2.5488815E0,6.66028E0,1.0198477E-1,0E0,4.5527935E0,1.3773212E0,1.6719978E1,5.335684E-1,4.8659325E-1,0E0,5.117456E-1,6.944809E-1,0E0,0E0,0E0,0E0,0E0,0E0,0E0,0E0,0E0,0E0,0E0,0E0,0E0,0E0,0E0,0E0,0E0,0E0,0E0,0E0,0E0,0E0],"parents":[2147483647,0,0,1,1,2,2,3,3,4,4,5,5,6,6,7,7,8,8,9,9,10,10,11,11,12,12,13,13,15,15,17,17,18,18,19,19,21,21,22,22,23,23,24,24,25,25,27,27,28,28],"right_children":[2,4,6,8,10,12,14,16,18,20,22,24,26,28,-1,30,-1,32,34,-1,-1,38,40,42,44,46,-1,48,50,-1,-1,-1,-1,-1,-1,-1,-1,-1,-1,-1,-1,-1,-1,-1,-1,-1,-1,-1,-1,-1,-1],"split_conditions":[-3.024155E1,1.2046801E1,-2.1618E0,-3.65962E1,-4.59127E1,1.795E2,1.85E1,3.645E2,7.26785E0,1.5E0,5.8855E-1,9.5868E0,1.15E1,2.95E1,-0E0,-7.633E-1,-1.3458823E-2,1.6665E-1,5.8335E-1,-1.9173847E-3,8.600405E-2,-4.0562798E1,3.55E1,-2.48947E1,2.3E1,5.0335503E0,2.7507998E-2,5.3934E0,2.1506E0,8.63183E-2,-6.3169464E-3,9.673428E-2,-2.1779232E-3,5.1709632E-3,-6.436198E-2,5.8907284E-3,-1.582864E-2,5.2669246E-2,-5.3055055E-2,-1.03374094E-1,-0E0,5.4054216E-2,-2.8227866E-2,-8.847191E-2,-1.9401959E-3,-3.3559315E-2,-9.7315095E-2,-3.356573E-2,1.7438507E-2,-8.781321E-3,-8.7102786E-2],"split_indices":[1,2,4,1,1,14,27,14,2,24,29,2,19,11,0,4,0,9,5,11,0,1,18,1,16,2,0,23,2,0,0,0,0,0,0,2147483647,2147483647,0,0,0,0,0,0,0,0,0,0,0,0,0,0],"split_type":[0,0,0,0,0,0,0,0,0,0,0,0,0,0,0,0,0,0,0,0,0,0,0,0,0,0,0,0,0,0,0,0,0,0,0,0,0,0,0,0,0,0,0,0,0,0,0,0,0,0,0],"sum_hessian":[4.4789606E2,2.0500421E2,2.4289183E2,1.5282782E2,5.2176395E1,1.3781207E2,1.05079765E2,6.6194496E1,8.6633316E1,1.2883536E1,3.929286E1,1.0558388E2,3.2228195E1,1.0338238E2,1.6973891E0,6.430929E1,1.8852111E0,2.6060053E1,6.057326E1,2.332891E0,1.0550646E1,1.2859215E1,2.6433643E1,8.96647E1,1.5919175E1,3.0407804E1,1.8203884E0,2.7882216E0,1.00594154E2,6.2780544E1,1.5287453E0,2.409972E1,1.9603335E0,4.545371E1,1.5119551E1,1.0114424E0,1.3214486E0,3.4564872E0,9.402728E0,2.5345606E1,1.0880376E0,3.6582428E1,5.3082275E1,1.4461901E1,1.4572741E0,5.685641E0,2.4722164E1,1.190097E0,1.5981245E0,2.3318944E0,9.826226E1],"tree_param":{"num_deleted":"2","num_feature":"32","num_nodes":"51","size_leaf_vector":"0"}},{"base_weights":[-2.0043546E-1,2.4835207E-1,-5.7209694E-1,5.74434E-1,-1.996927E-1,2.4222979E-1,-6.56495E-1,9.43792E-1,2.4764588E-1,7.856526E-1,-5.755011E-1,8.3334595E-1,-3.7850097E-1,-4.3478262E-1,-9.872977E-1,-4.7038785E-1,9.955464E-1,8.6530864E-1,-3.5643673E-1,9.9411285E-1,-1.538173E-1,-7.9694283E-1,-3.3576225E-3,1.0795292E0,-1.7427595E-1,