{"learner":{"attributes":{"best_iteration":"506","best_ntree_limit":"507","scikit_learn":"{\"use_label_encoder\": null, \"n_estimators\": 507, \"objective\": \"binary:logistic\", \"max_depth\": 4, \"max_leaves\": null, \"max_bin\": null, \"grow_policy\": null, \"learning_rate\": 0.17000323199830797, \"verbosity\": null, \"booster\": null, \"tree_method\": null, \"gamma\": null, \"min_child_weight\": null, \"max_delta_step\": null, \"subsample\": 0.9370668965820986, \"sampling_method\": null, \"colsample_bytree\": 0.8828729618153027, \"colsample_bylevel\": null, \"colsample_bynode\": null, \"reg_alpha\": null, \"reg_lambda\": null, \"scale_pos_weight\": null, \"base_score\": null, \"missing\": NaN, \"num_parallel_tree\": null, \"random_state\": null, \"n_jobs\": 1, \"monotone_constraints\": null, \"interaction_constraints\": null, \"importance_type\": null, \"gpu_id\": null, \"validate_parameters\": null, \"predictor\": null, \"enable_categorical\": false, \"feature_types\": null, \"max_cat_to_onehot\": null, \"max_cat_threshold\": null, \"eval_metric\": null, \"early_stopping_rounds\": null, \"callbacks\": null, \"classes_\": [0, 1], \"n_classes_\": 2, \"_estimator_type\": \"classifier\"}"},"feature_names":["TotalExposedSasa","TotalBSA","InteractionScore","FaRepInteraction","FaSolInteraction","FaElecInteraction","GenBonded","InterfaceUnsat","NH1","SideFlexAlpha","TotalHphobics","6.6","6.7","6.16","7.7","7.8","8.7","8.8","8.16","9.16","16.6","17.8","lipinskiHBD","NumSaturatedRings","NumAromaticHeterocycles","tpsa","chi0v","chi2v","chi4v","chi0n","chi4n","hallKierAlpha","kappa1","Phi","Hydrogen bond","Weak hydrogen bond","Van der Waals clash","Chalcogen bond","Halogen-pi","Unfavorable cation-electrophile","Displaced face-to-edge pi-stacking","C_RESIDUE","VOLUME_HULL","hydrophobic_kyte","p_aromatic_residue","p_negative_residue"],"feature_types":["float","float","float","float","float","float","float","int","float","int","int","int","int","int","int","int","int","int","int","int","int","int","int","int","int","float","float","float","float","float","float","float","float","float","int","int","int","int","int","int","int","float","float","float","float","float"],"gradient_booster":{"model":{"gbtree_model_param":{"num_parallel_tree":"1","num_trees":"507","size_leaf_vector":"0"},"tree_info":[0,0,0,0,0,0,0,0,0,0,0,0,0,0,0,0,0,0,0,0,0,0,0,0,0,0,0,0,0,0,0,0,0,0,0,0,0,0,0,0,0,0,0,0,0,0,0,0,0,0,0,0,0,0,0,0,0,0,0,0,0,0,0,0,0,0,0,0,0,0,0,0,0,0,0,0,0,0,0,0,0,0,0,0,0,0,0,0,0,0,0,0,0,0,0,0,0,0,0,0,0,0,0,0,0,0,0,0,0,0,0,0,0,0,0,0,0,0,0,0,0,0,0,0,0,0,0,0,0,0,0,0,0,0,0,0,0,0,0,0,0,0,0,0,0,0,0,0,0,0,0,0,0,0,0,0,0,0,0,0,0,0,0,0,0,0,0,0,0,0,0,0,0,0,0,0,0,0,0,0,0,0,0,0,0,0,0,0,0,0,0,0,0,0,0,0,0,0,0,0,0,0,0,0,0,0,0,0,0,0,0,0,0,0,0,0,0,0,0,0,0,0,0,0,0,0,0,0,0,0,0,0,0,0,0,0,0,0,0,0,0,0,0,0,0,0,0,0,0,0,0,0,0,0,0,0,0,0,0,0,0,0,0,0,0,0,0,0,0,0,0,0,0,0,0,0,0,0,0,0,0,0,0,0,0,0,0,0,0,0,0,0,0,0,0,0,0,0,0,0,0,0,0,0,0,0,0,0,0,0,0,0,0,0,0,0,0,0,0,0,0,0,0,0,0,0,0,0,0,0,0,0,0,0,0,0,0,0,0,0,0,0,0,0,0,0,0,0,0,0,0,0,0,0,0,0,0,0,0,0,0,0,0,0,0,0,0,0,0,0,0,0,0,0,0,0,0,0,0,0,0,0,0,0,0,0,0,0,0,0,0,0,0,0,0,0,0,0,0,0,0,0,0,0,0,0,0,0,0,0,0,0,0,0,0,0,0,0,0,0,0,0,0,0,0,0,0,0,0,0,0,0,0,0,0,0,0,0,0,0,0,0,0,0,0,0,0,0,0,0,0,0,0,0,0,0,0,0,0,0,0,0,0,0,0,0,0,0,0,0,0,0,0,0,0,0,0,0,0,0,0,0,0,0,0,0,0,0,0,0,0,0,0,0,0,0,0,0,0,0,0,0,0,0,0,0,0],"trees":[{"base_weights":[-8.466383E-1,8.574468E-1,-1.6469117E0,1.5808656E0,-8.289242E-1,-3.738657E-1,-1.8482039E0,1.8577586E0,9.109415E-1,-2.0224719E-1,-1.3684211E0,5.5252916E-1,-1.1677853E0,-1.5445545E0,-1.9101754E0,1.9335039E0,1.4133333E0,1.2231884E0,-1.2307693E0,-1.1304348E0,4.871795E-1,-1.4776633E0,8.235294E-1,1.1604939E0,-4.6464646E-1,-1.4590164E0,1.3793103E-1,-9.378531E-1,-1.778291E0,-1.2571429E0,-1.9238505E0],"categories":[],"categories_nodes":[],"categories_segments":[],"categories_sizes":[],"default_left":[1,1,1,1,1,1,1,1,1,1,1,1,1,1,1,0,0,0,0,0,0,0,0,0,0,0,0,0,0,0,0],"id":0,"left_children":[1,3,5,7,9,11,13,15,17,19,21,23,25,27,29,-1,-1,-1,-1,-1,-1,-1,-1,-1,-1,-1,-1,-1,-1,-1,-1],"loss_changes":[2.0043965E3,5.746881E2,2.5549927E2,5.938263E1,4.7647537E1,1.01958015E2,1.3289307E1,5.0771484E0,6.720942E1,4.3265205E1,1.941536E1,4.027186E1,2.8531013E1,1.9816162E1,3.944336E0,0E0,0E0,0E0,0E0,0E0,0E0,0E0,0E0,0E0,0E0,0E0,0E0,0E0,0E0,0E0,0E0],"parents":[2147483647,0,0,1,1,2,2,3,3,4,4,5,5,6,6,7,7,8,8,9,9,10,10,11,11,12,12,13,13,14,14],"right_children":[2,4,6,8,10,12,14,16,18,20,22,24,26,28,30,-1,-1,-1,-1,-1,-1,-1,-1,-1,-1,-1,-1,-1,-1,-1,-1],"split_conditions":[-4.3324E0,-2.98269E1,-3.3518402E1,-3.59985E1,4.95E1,-2.45165E0,2.5E0,1.685E2,9.14E2,5E-1,1.4574E2,9.65E1,3.346E-1,-2.25425E0,-3.2614098E1,3.287019E-1,2.4027124E-1,2.0794599E-1,-2.0923476E-1,-1.9217756E-1,8.282209E-2,-2.5120753E-1,1.4000267E-1,1.9728771E-1,-7.89914E-2,-2.4803752E-1,2.3448722E-2,-1.5943806E-1,-3.0231524E-1,-2.1371835E-1,-3.2706082E-1],"split_indices":[5,2,2,2,20,5,7,20,1,24,25,20,0,5,2,0,0,0,0,0,0,0,0,0,0,0,0,0,0,0,0],"split_type":[0,0,0,0,0,0,0,0,0,0,0,0,0,0,0,0,0,0,0,0,0,0,0,0,0,0,0,0,0,0,0],"sum_hessian":[1.46775E3,4.69E2,9.9875E2,3.2825E2,1.4075E2,1.3675E2,8.62E2,2.31E2,9.725E1,6.575E1,7.5E1,6.325E1,7.35E1,1.505E2,7.115E2,1.945E2,3.65E1,8.525E1,1.2E1,2.775E1,3.8E1,7.175E1,3.25E0,3.95E1,2.375E1,6E1,1.35E1,4.325E1,1.0725E2,1.65E1,6.95E2],"tree_param":{"num_deleted":"0","num_feature":"46","num_nodes":"31","size_leaf_vector":"0"}},{"base_weights":[-7.199106E-1,7.284217E-1,-1.4073027E0,1.3096741E0,-8.168392E-1,1.46528E-1,-1.5216264E0,1.5920384E0,7.2471935E-1,-3.610733E-1,-1.3620186E0,7.365932E-1,-1.3145348E0,-1.086311E0,-1.6075507E0,1.6279228E0,5.114283E-1,1.0020528E0,-1.5023324E0,-1.0204978E0,2.4645151E-1,-1.4233409E0,7.0789796E-3,1.1055728E0,-5.9394765E-1,5.887846E-1,-1.6169318E0,-1.3436751E-2,-1.4852136E0,-1.3598967E0,-1.6606075E0],"categories":[],"categories_nodes":[],"categories_segments":[],"categories_sizes":[],"default_left":[1,1,1,1,1,1,1,1,1,1,1,1,1,1,1,0,0,0,0,0,0,0,0,0,0,0,0,0,0,0,0],"id":1,"left_children":[1,3,5,7,9,11,13,15,17,19,21,23,25,27,29,-1,-1,-1,-1,-1,-1,-1,-1,-1,-1,-1,-1,-1,-1,-1,-1],"loss_changes":[1.4450017E3,4.2095056E2,1.7500635E2,5.50177E1,3.1410767E1,5.9888554E1,3.2537598E1,8.029053E0,7.102198E1,2.8812397E1,4.888069E0,2.4871548E1,1.2474701E1,6.596428E1,7.772461E0,0E0,0E0,0E0,0E0,0E0,0E0,0E0,0E0,0E0,0E0,0E0,0E0,0E0,0E0,0E0,0E0],"parents":[2147483647,0,0,1,1,2,2,3,3,4,4,5,5,6,6,7,7,8,8,9,9,10,10,11,11,12,12,13,13,14,14],"right_children":[2,4,6,8,10,12,14,16,18,20,22,24,26,28,30,-1,-1,-1,-1,-1,-1,-1,-1,-1,-1,-1,-1,-1,-1,-1,-1],"split_conditions":[-4.3324E0,-2.8827099E1,-3.7337852E1,-3.612315E1,5.5E0,1.471045E1,-3.027755E1,1.625545E1,1.1371799E1,8.521151E0,1.4824E2,-1.6366999E0,-4.85112E1,8.960051E0,2.5E0,2.7675214E-1,8.694447E-2,1.7035222E-1,-2.5540137E-1,-1.7348793E-1,4.1897554E-2,-2.4197257E-1,1.2034494E-3,1.8795095E-1,-1.00973025E-1,1.0009528E-1,-2.7488363E-1,-2.2842912E-3,-2.5249112E-1,-2.3118684E-1,-2.8230864E-1],"split_indices":[5,2,2,2,7,3,2,3,3,4,25,5,2,3,7,0,0,0,0,0,0,0,0,0,0,0,0,0,0,0,0],"split_type":[0,0,0,0,0,0,0,0,0,0,0,0,0,0,0,0,0,0,0,0,0,0,0,0,0,0,0,0,0,0,0],"sum_hessian":[1.4493986E3,4.6647595E2,9.829226E2,3.390821E2,1.27393845E2,6.734329E1,9.155793E2,2.2752945E2,1.1155265E2,7.0292305E1,5.7101543E1,4.8323284E1,1.9020004E1,1.531787E2,7.624006E2,2.1972641E2,7.8030396E0,9.9688545E1,1.18641E1,3.3380455E1,3.6911846E1,5.461567E1,2.4858756E0,3.7964283E1,1.0359004E1,2.4777453E0,1.6542257E1,4.179691E1,1.1138178E2,1.3921506E2,6.2318555E2],"tree_param":{"num_deleted":"0","num_feature":"46","num_nodes":"31","size_leaf_vector":"0"}},{"base_weights":[-6.3292503E-1,6.3296205E-1,-1.243294E0,1.1916616E0,-6.3884777E-1,-2.9806328E-1,-1.4022741E0,1.4228363E0,7.077006E-1,-3.18545E-1,-1.4469842E0,8.074495E-1,-9.131708E-1,-7.792584E-1,-1.4271339E0,1.4398508E0,-5.1735327E-2,9.7702897E-1,-1.3229436E0,3.2059568E-1,-9.374862E-1,-1.6121137E-3,-1.5248284E0,1.2284583E0,-3.2225618E-1,2.5551692E-1,-1.2677833E0,1.336291E0,-1.0610973E0,-1.0346756E0,-1.4659851E0],"categories":[],"categories_nodes":[],"categories_segments":[],"categories_sizes":[],"default_left":[1,1,1,1,1,1,1,1,1,1,1,1,1,1,1,0,0,0,0,0,0,0,0,0,0,0,0,0,0,0,0],"id":2,"left_children":[1,3,5,7,9,11,13,15,17,19,21,23,25,27,29,-1,-1,-1,-1,-1,-1,-1,-1,-1,-1,-1,-1,-1,-1,-1,-1],"loss_changes":[1.063005E3,3.1901245E2,1.3901575E2,3.3847443E1,3.509275E1,9.244421E1,1.1185547E1,5.339142E0,5.7458218E1,3.9720528E1,4.352371E0,2.357859E1,3.6428665E1,2.0897097E1,1.0106812E1,0E0,0E0,0E0,0E0,0E0,0E0,0E0,0E0,0E0,0E0,0E0,0E0,0E0,0E0,0E0,0E0],"parents":[2147483647,0,0,1,1,2,2,3,3,4,4,5,5,6,6,7,7,8,8,9,9,10,10,11,11,12,12,13,13,14,14],"right_children":[2,4,6,8,10,12,14,16,18,20,22,24,26,28,30,-1,-1,-1,-1,-1,-1,-1,-1,-1,-1,-1,-1,-1,-1,-1,-1],"split_conditions":[-4.3143E0,-2.98269E1,-3.3518402E1,-3.64636E1,8.139E2,1.05055E1,4.45E1,4.105E2,1.1371799E1,4.95E1,-9.23745E0,1.005E2,-4.2139E1,2.1279E1,-3.5403E0,2.4477929E-1,-8.795173E-3,1.6609809E-1,-2.2490469E-1,5.4502305E-2,-1.5937568E-1,-2.7406454E-4,-2.5922576E-1,2.0884189E-1,-5.4784592E-2,4.3438703E-2,-2.1552727E-1,2.2717379E-1,-1.8038997E-1,-1.758982E-1,-2.492222E-1],"split_indices":[5,2,2,2,1,3,15,20,3,20,5,20,2,29,5,0,0,0,0,0,0,0,0,0,0,0,0,0,0,0,0],"split_type":[0,0,0,0,0,0,0,0,0,0,0,0,0,0,0,0,0,0,0,0,0,0,0,0,0,0,0,0,0,0,0],"sum_hessian":[1.373758E3,4.4688815E2,9.268699E2,3.1053482E2,1.3635333E2,1.338612E2,7.9300867E2,2.0883847E2,1.0169636E2,9.8648445E1,3.770488E1,4.774249E1,8.611871E1,3.1669777E1,7.6133887E2,2.0647954E2,2.3589318E0,9.024574E1,1.1450613E1,4.8769424E1,4.987902E1,1.9790792E0,3.5725803E1,3.4717033E1,1.3025454E1,2.0112822E1,6.600589E1,3.2832909E0,2.8386486E1,7.106825E1,6.902706E2],"tree_param":{"num_deleted":"0","num_feature":"46","num_nodes":"31","size_leaf_vector":"0"}},{"base_weights":[-5.6512773E-1,5.639118E-1,-1.1192083E0,1.0824707E0,-5.2587086E-1,1.7369743E-1,-1.2245271E0,1.2972194E0,5.896284E-1,-2.2304241E-1,-1.3208933E0,8.302519E-1,-6.490293E-1,-7.949107E-1,-1.299406E0,1.3890275E0,9.03181E-1,8.555452E-1,-1.2395378E0,-8.444939E-1,3.2957685E-1,2.4713509E-1,-1.3894393E0,1.133152E0,-5.938028E-1,8.531038E-2,-1.2041962E0,5.136249E-1,-1.1424538E0,-1.3227971E0,-5.746047E-1],"categories":[],"categories_nodes":[],"categories_segments":[],"categories_sizes":[],"default_left":[1,1,1,1,1,1,1,1,1,1,1,1,1,1,1,0,0,0,0,0,0,0,0,0,0,0,0,0,0,0,0],"id":3,"left_children":[1,3,5,7,9,11,13,15,17,19,21,23,25,27,29,-1,-1,-1,-1,-1,-1,-1,-1,-1,-1,-1,-1,-1,-1,-1,-1],"loss_changes":[8.075497E2,2.4090753E2,1.1807703E2,2.9768707E1,3.2880108E1,3.622994E1,2.4718872E1,5.9844666E0,4.4540123E1,3.4960457E1,4.4068146E0,1.6713408E1,1.2287213E1,5.5791763E1,1.077063E1,0E0,0E0,0E0,0E0,0E0,0E0,0E0,0E0,0E0,0E0,0E0,0E0,0E0,0E0,0E0,0E0],"parents":[2147483647,0,0,1,1,2,2,3,3,4,4,5,5,6,6,7,7,8,8,9,9,10,10,11,11,12,12,13,13,14,14],"right_children":[2,4,6,8,10,12,14,16,18,20,22,24,26,28,30,-1,-1,-1,-1,-1,-1,-1,-1,-1,-1,-1,-1,-1,-1,-1,-1],"split_conditions":[-4.3324E0,-2.98269E1,-3.73424E1,-3.58784E1,1.74E2,5.05E1,-3.0921299E1,1.1026499E0,9.14E2,2.5E0,5E-1,1.63E2,-2.3986502E0,7.7775E2,2.5E0,2.3613916E-1,1.535437E-1,1.4544545E-1,-2.1072544E-1,-1.435667E-1,5.602913E-2,4.2013764E-2,-2.3620918E-1,1.9263951E-1,-1.009484E-1,1.450304E-2,-2.0471725E-1,8.73179E-2,-1.9422084E-1,-2.2487979E-1,-9.768466E-2],"split_indices":[5,2,2,2,20,20,2,43,1,34,7,16,5,1,39,0,0,0,0,0,0,0,0,0,0,0,0,0,0,0,0],"split_type":[0,0,0,0,0,0,0,0,0,0,0,0,0,0,0,0,0,0,0,0,0,0,0,0,0,0,0,0,0,0,0],"sum_hessian":[1.288875E3,4.2428983E2,8.6458514E2,2.8749554E2,1.3679431E2,6.5074425E1,7.995107E2,1.9910594E2,8.838959E1,9.998863E1,3.680567E1,3.6187134E1,2.8887291E1,1.20390305E2,6.791204E2,1.5943393E2,3.967202E1,7.763552E1,1.07540655E1,4.6814697E1,5.3173935E1,1.4324383E0,3.5373234E1,3.0008518E1,6.1786137E0,1.2801116E1,1.6086174E1,2.5164707E1,9.522559E1,6.570896E2,2.20308E1],"tree_param":{"num_deleted":"0","num_feature":"46","num_nodes":"31","size_leaf_vector":"0"}},{"base_weights":[-5.236574E-1,6.9145805E-1,-9.495032E-1,1.1027858E0,-3.4446228E-1,1.7396657E-1,-1.104925E0,1.953814E-1,1.1813831E0,4.4438553E-1,-9.330553E-1,8.3218217E-1,-4.6212903E-1,-6.8308187E-1,-1.2002738E0,-5.157045E-1,8.475581E-1,4.921056E-1,1.2547188E0,-9.9951655E-1,8.519273E-1,-1.1398709E0,6.898343E-1,1.0901455E0,-7.0385504E-1,-1.2684767E-1,-1.2734765E0,-1.3198708E-1,-1.0373291E0,-6.143489E-1,-1.2317126E0],"categories":[],"categories_nodes":[],"categories_segments":[],"categories_sizes":[],"default_left":[1,1,1,1,1,1,1,1,1,1,1,1,1,1,1,0,0,0,0,0,0,0,0,0,0,0,0,0,0,0,0],"id":4,"left_children":[1,3,5,7,9,11,13,15,17,19,21,23,25,27,29,-1,-1,-1,-1,-1,-1,-1,-1,-1,-1,-1,-1,-1,-1,-1,-1],"loss_changes":[6.185449E2,1.3266739E2,1.5466064E2,1.5634949E1,4.1737656E1,4.575901E1,3.044342E1,9.216492E0,9.721222E0,2.3628872E1,1.8001701E1,2.2012737E1,1.5005601E1,2.8290886E1,1.0897339E1,0E0,0E0,0E0,0E0,0E0,0E0,0E0,0E0,0E0,0E0,0E0,0E0,0E0,0E0,0E0,0E0],"parents":[2147483647,0,0,1,1,2,2,3,3,4,4,5,5,6,6,7,7,8,8,9,9,10,10,11,11,12,12,13,13,14,14],"right_children":[2,4,6,8,10,12,14,16,18,20,22,24,26,28,30,-1,-1,-1,-1,-1,-1,-1,-1,-1,-1,-1,-1,-1,-1,-1,-1],"split_conditions":[-3.4221947E1,-3.5277E0,-5.72815E0,1.5E0,1.1510099E1,-2.7891998E1,-3.61325E0,4.05E1,2.6990002E-1,7.5E0,2.5E0,8.696E2,-1.735E0,4.5E0,5E-1,-8.767144E-2,1.4408761E-1,8.3659545E-2,2.1330625E-1,-1.6992104E-1,1.4483039E-1,-1.9378173E-1,1.1727406E-1,1.8532826E-1,-1.19657636E-1,-2.1564513E-2,-2.1649513E-1,-2.243823E-2,-1.763493E-1,-1.044413E-1,-2.0939513E-1],"split_indices":[2,5,5,34,3,2,5,10,0,35,19,1,31,7,7,0,0,0,0,0,0,0,0,0,0,0,0,0,0,0,0],"split_type":[0,0,0,0,0,0,0,0,0,0,0,0,0,0,0,0,0,0,0,0,0,0,0,0,0,0,0,0,0,0,0],"sum_hessian":[1.1930985E3,3.094591E2,8.8363934E2,2.2146037E2,8.7998726E1,1.07372894E2,7.762665E2,1.793118E1,2.0352919E2,3.7707348E1,5.0291378E1,5.2617435E1,5.4755455E1,1.4461647E2,6.3165E2,8.678276E0,9.252903E0,2.031356E1,1.8321564E2,7.980445E0,2.9726904E1,4.487082E1,5.420558E0,4.5300007E1,7.317431E0,3.956284E1,1.5192613E1,5.71234E1,8.7493065E1,3.3212334E1,5.984377E2],"tree_param":{"num_deleted":"0","num_feature":"46","num_nodes":"31","size_leaf_vector":"0"}},{"base_weights":[-4.661387E-1,5.538163E-1,-8.870152E-1,8.74328E-1,-6.98569E-1,-2.774479E-1,-1.1263309E0,1.0630763E0,1.6219741E-1,2.1326312E-1,-1.083842E0,4.5111727E-2,-9.480482E-1,-4.685007E-1,-1.1547006E0,1.11086E0,-1.0634467E-1,7.381567E-1,-8.006615E-1,6.934812E-1,-9.6895427E-1,-5.272631E-2,-1.1817172E0,5.584835E-1,-5.763842E-1,-8.949419E-2,-1.1137698E0,-1.0603076E0,4.819604E-1,-8.9871967E-1,-1.2045842E0],"categories":[],"categories_nodes":[],"categories_segments":[],"categories_sizes":[],"default_left":[1,1,1,1,1,1,1,1,1,1,1,1,1,1,1,0,0,0,0,0,0,0,0,0,0,0,0,0,0,0,0],"id":5,"left_children":[1,3,5,7,9,11,13,15,17,19,21,23,25,27,29,-1,-1,-1,-1,-1,-1,-1,-1,-1,-1,-1,-1,-1,-1,-1,-1],"loss_changes":[4.7650195E2,1.3087613E2,1.1425311E2,3.461908E1,2.365776E1,4.8221268E1,9.977478E0,1.1541443E1,3.1320156E1,1.2391226E1,4.6852036E0,4.8610237E1,1.0199188E1,1.4564583E1,5.8081055E0,0E0,0E0,0E0,0E0,0E0,0E0,0E0,0E0,0E0,0E0,0E0,0E0,0E0,0E0,0E0,0E0],"parents":[2147483647,0,0,1,1,2,2,3,3,4,4,5,5,6,6,7,7,8,8,9,9,10,10,11,11,12,12,13,13,14,14],"right_children":[2,4,6,8,10,12,14,16,18,20,22,24,26,28,30,-1,-1,-1,-1,-1,-1,-1,-1,-1,-1,-1,-1,-1,-1,-1,-1],"split_conditions":[-3.3347E1,-2.45165E0,-3.71575E0,1.685E2,1.0355551E1,1.545E2,4.45E1,1.625545E1,9.6075E-1,8.817E1,-4.58904E1,-2.62215E1,5E-1,1.6362E0,2.5E0,1.8884979E-1,-1.8078938E-2,1.2548903E-1,-1.3611504E-1,1.17894046E-1,-1.6472536E-1,-8.963644E-3,-2.0089574E-1,9.4944E-2,-9.7987175E-2,-1.5214302E-2,-1.8934447E-1,-1.8025573E-1,8.1934825E-2,-1.5278526E-1,-2.0478322E-1],"split_indices":[2,5,5,20,3,20,15,3,43,25,2,2,18,33,7,0,0,0,0,0,0,0,0,0,0,0,0,0,0,0,0],"split_type":[0,0,0,0,0,0,0,0,0,0,0,0,0,0,0,0,0,0,0,0,0,0,0,0,0,0,0,0,0,0,0],"sum_hessian":[1.107871E3,3.2352423E2,7.843467E2,2.5783957E2,6.5684685E1,2.2173041E2,5.626163E2,2.0342856E2,5.4411007E1,1.9642622E1,4.604206E1,1.5034634E2,7.138406E1,2.3984568E1,5.386317E2,1.9549069E2,7.937855E0,3.4191708E1,2.0219297E1,1.4262561E1,5.380062E0,4.1249003E0,4.191716E1,8.23908E1,6.795555E1,1.1798675E1,5.958539E1,1.4709864E1,9.274704E0,9.094711E1,4.476846E2],"tree_param":{"num_deleted":"0","num_feature":"46","num_nodes":"31","size_leaf_vector":"0"}},{"base_weights":[-4.3720347E-1,4.8271465E-1,-8.233185E-1,-3.385713E-1,8.7002724E-1,-9.920451E-1,-7.2579354E-2,6.204683E-1,-7.621756E-1,5.633129E-1,1.150795E0,-6.103229E-1,-1.0874925E0,2.9304618E-1,-9.420181E-1,-1.1798681E-1,9.474512E-1,-9.781191E-1,1.5183012E-1,8.9554423E-1,-3.666293E-1,1.1758498E0,1.3845672E-1,1.7372878E-1,-8.310734E-1,-1.0972496E0,1.1154256E0,7.997041E-1,-6.769059E-1,5.239856E-1,-1.0902483E0],"categories":[],"categories_nodes":[],"categories_segments":[],"categories_sizes":[],"default_left":[1,1,1,1,1,1,1,1,1,1,1,1,1,1,1,0,0,0,0,0,0,0,0,0,0,0,0,0,0,0,0],"id":6,"left_children":[1,3,5,7,9,11,13,15,17,19,21,23,25,27,29,-1,-1,-1,-1,-1,-1,-1,-1,-1,-1,-1,-1,-1,-1,-1,-1],"loss_changes":[3.6031732E2,9.578756E1,9.0382935E1,3.9848717E1,1.6943329E1,2.0576843E1,4.22756E1,7.4151E0,1.3506367E1,3.109642E1,2.5179443E0,2.0722134E1,1.1220764E1,4.6623245E1,9.122227E0,0E0,0E0,0E0,0E0,0E0,0E0,0E0,0E0,0E0,0E0,0E0,0E0,0E0,0E0,0E0,0E0],"parents":[2147483647,0,0,1,1,2,2,3,3,4,4,5,5,6,6,7,7,8,8,9,9,10,10,11,11,12,12,13,13,14,14],"right_children":[2,4,6,8,10,12,14,16,18,20,22,24,26,28,30,-1,-1,-1,-1,-1,-1,-1,-1,-1,-1,-1,-1,-1,-1,-1,-1],"split_conditions":[-3.3347E1,1.5E0,2.5E0,9.79715E0,1.15E1,2.5E0,-2.29278E1,3.55E1,3.3585E-1,1.12054E1,1.5E0,-2.650035E1,3.285E2,8.0355E2,2.111905E1,-2.005814E-2,1.6106977E-1,-1.6628341E-1,2.5811613E-2,1.5224542E-1,-6.2328167E-2,1.9989827E-1,2.353809E-2,2.9534455E-2,-1.4128517E-1,-1.8653598E-1,1.8962596E-1,1.3595228E-1,-1.15076184E-1,8.907925E-2,-1.8534574E-1],"split_indices":[2,34,34,3,35,7,2,10,0,3,37,2,16,1,29,0,0,0,0,0,0,0,0,0,0,0,0,0,0,0,0],"split_type":[0,0,0,0,0,0,0,0,0,0,0,0,0,0,0,0,0,0,0,0,0,0,0,0,0,0,0,0,0,0,0],"sum_hessian":[1.01230457E3,2.9920328E2,7.1310126E2,9.592428E1,2.0327899E2,5.8198114E2,1.3112015E2,2.9246197E1,6.667808E1,9.858728E1,1.046917E2,1.1789166E2,4.6408948E2,9.277034E1,3.8349808E1,9.171815E0,2.007438E1,5.3878563E1,1.2799518E1,7.266423E1,2.592305E1,1.0200561E2,2.6860957E0,2.594707E1,9.1944595E1,4.6254266E2,1.5467979E0,6.1054058E1,3.1716282E1,3.2887719E0,3.506104E1],"tree_param":{"num_deleted":"0","num_feature":"46","num_nodes":"31","size_leaf_vector":"0"}},{"base_weights":[-3.811073E-1,5.741138E-1,-7.236988E-1,8.8924503E-1,-2.5615412E-1,-1.6842653E-1,-9.537184E-1,1.1032169E0,5.601876E-1,-4.6850887E-1,1.0158751E0,5.811067E-1,-4.6752793E-1,-1.0239162E0,-3.5544035E-1,4.0486223E-1,1.1499172E0,-2.5123698E-1,8.0901325E-1,3.013381E-1,-7.325812E-1,-9.672523E-1,1.5890602E0,9.4361377E-1,-4.2296654E-1,5.224508E-1,-7.733024E-1,-1.0360049E0,9.2582035E-1,1.2364573E0,-7.3836726E-1],"categories":[],"categories_nodes":[],"categories_segments":[],"categories_sizes":[],"default_left":[1,1,1,1,1,1,1,1,1,1,1,1,1,1,1,0,0,0,0,0,0,0,0,0,0,0,0,0,0,0,0],"id":7,"left_children":[1,3,5,7,9,11,13,15,17,19,21,23,25,27,29,-1,-1,-1,-1,-1,-1,-1,-1,-1,-1,-1,-1,-1,-1,-1,-1],"loss_changes":[3.081656E2,6.5325615E1,8.8301636E1,1.2096054E1,1.9176235E1,4.602498E1,2.0194885E1,3.0694275E0,1.4979345E1,1.2420443E1,1.3153511E1,2.1749353E1,4.47295E1,1.1272858E1,3.318248E1,0E0,0E0,0E0,0E0,0E0,0E0,0E0,0E0,0E0,0E0,0E0,0E0,0E0,0E0,0E0,0E0],"parents":[2147483647,0,0,1,1,2,2,3,3,4,4,5,5,6,6,7,7,8,8,9,9,10,10,11,11,12,12,13,13,14,14],"right_children":[2,4,6,8,10,12,14,16,18,20,22,24,26,28,30,-1,-1,-1,-1,-1,-1,-1,-1,-1,-1,-1,-1,-1,-1,-1,-1],"split_conditions":[-5.3125E0,-2.85654E1,-3.0505451E1,-7.31775E0,4.828E-1,9.0069E0,1.5E0,2.5E0,8.5E0,-2.995E0,1.2768E0,8.6335E2,-4.1454903E1,1.5343E2,2.5E0,6.882789E-2,1.9548965E-1,-4.2711098E-2,1.3753487E-1,5.1228452E-2,-1.2454117E-1,-1.6443603E-1,2.701454E-1,1.604174E-1,-7.190568E-2,8.881833E-2,-1.314639E-1,-1.7612419E-1,1.5739246E-1,2.1020176E-1,-1.2552482E-1],"split_indices":[5,2,2,5,0,3,39,34,35,31,30,1,2,25,7,0,0,0,0,0,0,0,0,0,0,0,0,0,0,0,0],"split_type":[0,0,0,0,0,0,0,0,0,0,0,0,0,0,0,0,0,0,0,0,0,0,0,0,0,0,0,0,0,0,0],"sum_hessian":[9.394111E2,2.4780367E2,6.916074E2,1.7957448E2,6.822919E1,2.030859E2,4.885215E2,1.0739046E2,7.218402E1,5.900969E1,9.219496E0,5.7657135E1,1.4542877E2,4.3658426E2,5.1937263E1,7.3373656E0,1.0005309E2,1.6938288E1,5.524573E1,1.5035564E1,4.3974125E1,1.9130725E0,7.3064237E0,4.240691E1,1.5250225E1,3.4151352E1,1.1127741E2,4.343598E2,2.224436E0,9.638651E0,4.2298615E1],"tree_param":{"num_deleted":"0","num_feature":"46","num_nodes":"31","size_leaf_vector":"0"}},{"base_weights":[-3.5026562E-1,2.5463963E-1,-8.3027E-1,5.4828393E-1,-5.5297184E-1,3.1915713E-2,-9.333621E-1,7.741671E-1,-1.504872E-1,-1.678915E-1,-1.0388348E0,4.2022663E-1,-1.1933757E0,-1.2529758E-1,-9.742807E-1,1.9265097E-1,9.426049E-1,-5.433346E-1,7.627538E-1,-6.8199366E-1,2.5600734E-1,-1.095989E0,5.6778806E-1,9.5332044E-1,-3.2046133E-1,-1.2459055E0,-3.1706053E-1,-8.8724554E-1,8.425623E-1,-7.702867E-1,-1.0835742E0],"categories":[],"categories_nodes":[],"categories_segments":[],"categories_sizes":[],"default_left":[1,1,1,1,1,1,1,1,1,1,1,1,1,1,1,0,0,0,0,0,0,0,0,0,0,0,0,0,0,0,0],"id":8,"left_children":[1,3,5,7,9,11,13,15,17,19,21,23,25,27,29,-1,-1,-1,-1,-1,-1,-1,-1,-1,-1,-1,-1,-1,-1,-1,-1],"loss_changes":[2.5224706E2,9.156091E1,4.3068542E1,4.4738693E1,1.9116215E1,2.55667E1,1.4179443E1,2.0760483E1,2.549164E1,1.2969315E1,4.790634E0,1.6393057E1,2.0054245E-1,1.6967445E1,8.340607E0,0E0,0E0,0E0,0E0,0E0,0E0,0E0,0E0,0E0,0E0,0E0,0E0,0E0,0E0,0E0,0E0],"parents":[2147483647,0,0,1,1,2,2,3,3,4,4,5,5,6,6,7,7,8,8,9,9,10,10,11,11,12,12,13,13,14,14],"right_children":[2,4,6,8,10,12,14,16,18,20,22,24,26,28,30,-1,-1,-1,-1,-1,-1,-1,-1,-1,-1,-1,-1,-1,-1,-1,-1],"split_conditions":[-3.52835E0,-2.62215E1,-3.661445E1,1.575E2,7.2294995E2,1.56096E1,4.15E1,5E-1,1.25E1,8.54085E0,3.5E0,5.05E1,1.55E1,1.6374E0,-1.857E0,3.275129E-2,1.6024588E-1,-9.236864E-2,1.296706E-1,-1.1594113E-1,4.3522075E-2,-1.8632168E-1,9.652581E-2,1.6206756E-1,-5.4479465E-2,-2.1180797E-1,-5.3901315E-2,-1.508346E-1,1.4323832E-1,-1.3095123E-1,-1.8421112E-1],"split_indices":[5,2,2,20,1,3,14,24,35,4,39,20,35,33,5,0,0,0,0,0,0,0,0,0,0,0,0,0,0,0,0],"split_type":[0,0,0,0,0,0,0,0,0,0,0,0,0,0,0,0,0,0,0,0,0,0,0,0,0,0,0,0,0,0,0],"sum_hessian":[8.670194E2,3.8380936E2,4.8321002E2,2.81704E2,1.0210535E2,5.1680805E1,4.3152924E2,2.1280518E2,6.8898834E1,5.771095E1,4.4394398E1,3.974282E1,1.1937982E1,2.0994291E1,4.1053494E2,4.827699E1,1.6452818E2,4.8458546E1,2.0440285E1,2.5805422E1,3.1905529E1,4.3176273E1,1.2181247E0,2.2943018E1,1.6799805E1,1.0864939E1,1.0730428E0,1.1793303E1,9.200989E0,1.4602672E2,2.645082E2],"tree_param":{"num_deleted":"0","num_feature":"46","num_nodes":"31","size_leaf_vector":"0"}},{"base_weights":[-3.2699955E-1,2.270638E-1,-7.9064023E-1,7.2235173E-1,-1.6502422E-1,-2.510339E-1,-9.582502E-1,8.9862186E-1,1.1302772E-1,2.6663232E-1,-5.492511E-1,-5.736408E-1,6.463821E-1,-6.2691414E-1,-1.0461005E0,9.313773E-1,-1.1904991E0,1.0610521E0,-6.1147416E-1,5.8246315E-1,-4.8023012E-1,-6.8350905E-1,5.676659E-1,1.0033604E-1,-8.2785034E-1,1.2029526E0,-5.4792637E-1,-8.922634E-1,2.4846087E-1,2.7008587E-1,-1.0643129E0],"categories":[],"categories_nodes":[],"categories_segments":[],"categories_sizes":[],"default_left":[1,1,1,1,1,1,1,1,1,1,1,1,1,1,1,0,0,0,0,0,0,0,0,0,0,0,0,0,0,0,0],"id":9,"left_children":[1,3,5,7,9,11,13,15,17,19,21,23,25,27,29,-1,-1,-1,-1,-1,-1,-1,-1,-1,-1,-1,-1,-1,-1,-1,-1],"loss_changes":[2.0588422E2,7.111433E1,3.920883E1,1.7268013E1,3.412402E1,3.0691114E1,9.021118E0,9.682365E0,2.635758E1,2.3195831E1,1.669017E1,1.3372471E1,1.937976E1,1.698488E1,6.550537E0,0E0,0E0,0E0,0E0,0E0,0E0,0E0,0E0,0E0,0E0,0E0,0E0,0E0,0E0,0E0,0E0],"parents":[2147483647,0,0,1,1,2,2,3,3,4,4,5,5,6,6,7,7,8,8,9,9,10,10,11,11,12,12,13,13,14,14],"right_children":[2,4,6,8,10,12,14,16,18,20,22,24,26,28,30,-1,-1,-1,-1,-1,-1,-1,-1,-1,-1,-1,-1,-1,-1,-1,-1],"split_conditions":[-3.52835E0,-3.3258102E1,-3.1778599E1,1.0999999E0,4.5E0,3.3605E-1,2.5E0,-1.37E0,-4.4108902E1,-2.2912498E1,4.5E0,-3.9877098E1,2.8101501E0,5E-1,1.05831E1,1.5833715E-1,-2.0238869E-1,1.8038228E-1,-1.0395259E-1,9.902062E-2,-8.1640676E-2,-1.1619875E-1,9.650504E-2,1.705745E-2,-1.4073724E-1,2.0450583E-1,-9.314925E-2,-1.5168767E-1,4.2239152E-2,4.5915473E-2,-1.8093665E-1],"split_indices":[5,2,2,43,7,0,7,31,2,2,34,2,28,39,26,0,0,0,0,0,0,0,0,0,0,0,0,0,0,0,0],"split_type":[0,0,0,0,0,0,0,0,0,0,0,0,0,0,0,0,0,0,0,0,0,0,0,0,0,0,0,0,0,0,0],"sum_hessian":[7.9976154E2,3.6458395E2,4.3517758E2,1.6071964E2,2.0386432E2,1.0372886E2,3.3144873E2,1.2428942E2,3.6430218E1,9.615068E1,1.07713646E2,7.656554E1,2.7163319E1,7.1167984E1,2.6028073E2,1.2291639E2,1.3730346E0,1.5579554E1,2.0850666E1,6.7729546E1,2.8421137E1,9.650178E1,1.1211871E1,2.113537E1,5.543017E1,1.852369E1,8.63963E0,5.4598457E1,1.6569525E1,3.3636446E0,2.5691708E2],"tree_param":{"num_deleted":"0","num_feature":"46","num_nodes":"31","size_leaf_vector":"0"}},{"base_weights":[-2.8311166E-1,1.2156922E-1,-8.1163186E-1,3.841084E-1,-5.5001366E-1,-4.4372126E-1,-9.676827E-1,7.157894E-1,2.5207335E-2,8.9044124E-1,-7.242257E-1,4.0766436E-1,-7.482764E-1,-3.7549323E-1,-1.0021565E0,-1.7145868E-1,8.985349E-1,8.3727396E-1,-2.622554E-1,-6.6619503E-1,1.2891448E0,6.344506E-2,-9.0267766E-1,1.281899E0,-3.4622025E-1,3.1121638E-1,-8.7643814E-1,1.2342199E0,-7.6876575E-1,3.0390516E-1,-1.0149796E0],"categories":[],"categories_nodes":[],"categories_segments":[],"categories_sizes":[],"default_left":[1,1,1,1,1,1,1,1,1,1,1,1,1,1,1,0,0,0,0,0,0,0,0,0,0,0,0,0,0,0,0],"id":10,"left_children":[1,3,5,7,9,11,13,15,17,19,21,23,25,27,29,-1,-1,-1,-1,-1,-1,-1,-1,-1,-1,-1,-1,-1,-1,-1,-1],"loss_changes":[1.5785768E2,7.4019226E1,1.7942032E1,3.5878254E1,3.0272243E1,2.5495089E1,4.19339E0,2.555819E1,3.427058E1,9.043029E0,1.4939434E1,1.7739868E1,1.0036564E1,9.7565155E0,3.8410187E0,0E0,0E0,0E0,0E0,0E0,0E0,0E0,0E0,0E0,0E0,0E0,0E0,0E0,0E0,0E0,0E0],"parents":[2147483647,0,0,1,1,2,2,3,3,4,4,5,5,6,6,7,7,8,8,9,9,10,10,11,11,12,12,13,13,14,14],"right_children":[2,4,6,8,10,12,14,16,18,20,22,24,26,28,30,-1,-1,-1,-1,-1,-1,-1,-1,-1,-1,-1,-1,-1,-1,-1,-1],"split_conditions":[-2.70875E0,-2.583065E1,-2.9087101E1,1.145E2,5.4335E2,8.8498E0,4.45E1,1.5822E0,-4.0550346E1,4.7012E0,2.6313E0,7.9625E2,-4.5084198E1,1.56605E0,1.95E1,-2.914853E-2,1.5275384E-1,1.4233927E-1,-4.4584267E-2,-1.13255315E-1,2.1915878E-1,1.0785866E-2,-1.5345812E-1,2.1792698E-1,-5.8858562E-2,5.290779E-2,-1.4899732E-1,2.0982137E-1,-1.3069266E-1,5.166486E-2,-1.7254981E-1],"split_indices":[5,2,2,16,1,3,15,30,2,32,6,1,2,6,16,0,0,0,0,0,0,0,0,0,0,0,0,0,0,0,0],"split_type":[0,0,0,0,0,0,0,0,0,0,0,0,0,0,0,0,0,0,0,0,0,0,0,0,0,0,0,0,0,0,0],"sum_hessian":[7.3659827E2,4.1760992E2,3.1898837E2,3.0054654E2,1.1706338E2,9.614862E1,2.2283975E2,1.5567966E2,1.4486688E2,1.2186796E1,1.0487658E2,2.524303E1,7.090559E1,1.2912973E1,2.0992677E2,2.6599268E1,1.290804E2,3.7374187E1,1.0749269E2,2.3481479E0,9.838648E0,1.9490732E1,8.538584E1,1.1364227E1,1.3878802E1,7.497405E0,6.3408184E1,2.115527E0,1.0797446E1,1.8203506E0,2.0810641E2],"tree_param":{"num_deleted":"0","num_feature":"46","num_nodes":"31","size_leaf_vector":"0"}},{"base_weights":[-2.5518885E-1,1.8174672E-1,-6.772835E-1,8.6707556E-1,-6.5504074E-2,-2.6248723E-1,-8.998545E-1,-1.7333345E-2,9.507997E-1,1.6894063E-1,-8.5187984E-1,4.9160013E-1,-5.967206E-1,-2.520917E-1,-9.6211123E-1,9.668281E-1,-6.8507195E-1,1.0048021E0,9.184683E-2,3.9684248E-1,-5.1992863E-1,-5.932321E-1,-1.4447775E0,9.411752E-1,-5.4657173E-1,8.789289E-2,-8.42092E-1,8.2654613E-1,-6.7039293E-1,-2.712015E-1,-9.9164355E-1],"categories":[],"categories_nodes":[],"categories_segments":[],"categories_sizes":[],"default_left":[1,1,1,1,1,1,1,1,1,1,1,1,1,1,1,0,0,0,0,0,0,0,0,0,0,0,0,0,0,0,0],"id":11,"left_children":[1,3,5,7,9,11,13,15,17,19,21,23,25,27,29,-1,-1,-1,-1,-1,-1,-1,-1,-1,-1,-1,-1,-1,-1,-1,-1],"loss_changes":[1.26461235E2,5.7225906E1,3.1950989E1,6.6450806E0,4.6025024E1,3.133446E1,8.890976E0,6.3952594E0,3.701851E0,3.043473E1,7.9331055E0,1.8423805E1,1.448497E1,1.0125687E1,3.9398193E0,0E0,0E0,0E0,0E0,0E0,0E0,0E0,0E0,0E0,0E0,0E0,0E0,0E0,0E0,0E0,0E0],"parents":[2147483647,0,0,1,1,2,2,3,3,4,4,5,5,6,6,7,7,8,8,9,9,10,10,11,11,12,12,13,13,14,14],"right_children":[2,4,6,8,10,12,14,16,18,20,22,24,26,28,30,-1,-1,-1,-1,-1,-1,-1,-1,-1,-1,-1,-1,-1,-1,-1,-1],"split_conditions":[-3.41255E0,-3.827565E1,-2.891175E1,1.5E0,9.69895E0,8.03E2,1.7745E3,-3.335E0,3.20995E0,-2.29278E1,9.0035E2,-1.2572E0,-3.987815E1,-2.20265E0,4.45E1,1.643639E-1,-1.1646444E-1,1.7081961E-1,1.5614258E-2,6.746451E-2,-8.838955E-2,-1.0085137E-1,-2.4561685E-1,1.6000283E-1,-9.291896E-2,1.4942076E-2,-1.4315836E-1,1.4051552E-1,-1.1396897E-1,-4.610513E-2,-1.6858262E-1],"split_indices":[5,2,2,34,3,1,11,31,28,2,1,5,2,5,15,0,0,0,0,0,0,0,0,0,0,0,0,0,0,0,0],"split_type":[0,0,0,0,0,0,0,0,0,0,0,0,0,0,0,0,0,0,0,0,0,0,0,0,0,0,0,0,0,0,0],"sum_hessian":[6.8402625E2,3.363842E2,3.476421E2,8.851945E1,2.4786473E2,1.2215893E2,2.2548317E2,7.723737E0,8.079571E1,1.9154422E2,5.6320522E1,3.737154E1,8.478739E1,2.0213808E1,2.0526936E2,2.9410663E0,4.7826705E0,7.585679E1,4.938919E0,1.4424641E2,4.7297794E1,4.0606686E1,1.5713837E1,2.614361E1,1.1227929E1,2.2540024E1,6.2247368E1,5.37578E0,1.4838027E1,8.831813E0,1.9643755E2],"tree_param":{"num_deleted":"0","num_feature":"46","num_nodes":"31","size_leaf_vector":"0"}},{"base_weights":[-2.555566E-1,8.080541E-2,-7.435365E-1,-1.5054038E-1,6.8567276E-1,-3.869418E-1,-9.164872E-1,1.02797486E-1,-7.705433E-1,7.7008903E-1,-4.1450706E-1,9.206708E-2,-8.942922E-1,-2.8422108E-1,-9.7045285E-1,4.2913932E-1,-3.468697E-1,-1.0621134E0,-2.0410183E-1,8.816362E-1,1.6305079E-1,-9.925533E-1,5.221411E-1,8.414213E-1,-4.489621E-1,-9.9659956E-1,1.7117196E-1,1.097626E0,-7.247465E-1,1.7470273E-1,-9.807319E-1],"categories":[],"categories_nodes":[],"categories_segments":[],"categories_sizes":[],"default_left":[1,1,1,1,1,1,1,1,1,1,1,1,1,1,1,0,0,0,0,0,0,0,0,0,0,0,0,0,0,0,0],"id":12,"left_children":[1,3,5,7,9,11,13,15,17,19,21,23,25,27,29,-1,-1,-1,-1,-1,-1,-1,-1,-1,-1,-1,-1,-1,-1,-1,-1],"loss_changes":[1.0524224E2,5.3311707E1,1.5777542E1,4.3409237E1,1.0105904E1,2.1264805E1,5.709381E0,2.9017159E1,1.3018955E1,6.5069084E0,4.9359818E0,1.8921658E1,4.7947845E0,1.0053655E1,2.0688934E0,0E0,0E0,0E0,0E0,0E0,0E0,0E0,0E0,0E0,0E0,0E0,0E0,0E0,0E0,0E0,0E0],"parents":[2147483647,0,0,1,1,2,2,3,3,4,4,5,5,6,6,7,7,8,8,9,9,10,10,11,11,12,12,13,13,14,14],"right_children":[2,4,6,8,10,12,14,16,18,20,22,24,26,28,30,-1,-1,-1,-1,-1,-1,-1,-1,-1,-1,-1,-1,-1,-1,-1,-1],"split_conditions":[-2.70875E0,1.15E1,-2.9087101E1,6.5E0,-2.69449E1,1.185E2,5E-1,5.1E1,1.915E2,8.5E0,2.085E2,9.50545E0,2.143185E1,2.8717499E0,2.65E1,7.295507E-2,-5.8968972E-2,-1.8056272E-1,-3.4697972E-2,1.49881E-1,2.771916E-2,-1.6873728E-1,8.876567E-2,1.4304434E-1,-7.632501E-2,-1.6942514E-1,2.9099787E-2,1.8659997E-1,-1.2320925E-1,2.970003E-2,-1.667276E-1],"split_indices":[5,35,2,7,2,20,7,20,14,7,15,3,6,27,15,0,0,0,0,0,0,0,0,0,0,0,0,0,0,0,0],"split_type":[0,0,0,0,0,0,0,0,0,0,0,0,0,0,0,0,0,0,0,0,0,0,0,0,0,0,0,0,0,0,0],"sum_hessian":[6.3981586E2,3.792412E2,2.6057462E2,2.7486407E2,1.0437714E2,8.616157E1,1.7441306E2,1.9572398E2,7.91401E1,9.7217705E1,7.1594343E0,4.473967E1,4.1421898E1,1.4208746E1,1.602043E2,1.13440926E2,8.228306E1,5.166895E1,2.7471146E1,8.17443E1,1.54734E1,4.390302E0,2.7691321E0,1.8525558E1,2.6214111E1,3.7851933E1,3.569965E0,3.074132E0,1.1134614E1,1.2829218E0,1.5892139E2],"tree_param":{"num_deleted":"0","num_feature":"46","num_nodes":"31","size_leaf_vector":"0"}},{"base_weights":[-2.129251E-1,4.8312607E-1,-4.10049E-1,7.42968E-1,-1.4037715E-1,-5.661896E-1,1.8574055E-1,8.3760226E-1,3.617189E-2,-7.355907E-1,7.7077186E-1,-7.752178E-2,-7.3433775E-1,5.75324E-1,-6.97053E-1,9.211921E-1,-2.9853417E-2,6.5123254E-1,-6.011737E-1,1.3626863E-1,-1.1917466E0,1.0667667E0,-4.756447E-1,-4.46585E-1,7.6763296E-1,-5.4385364E-1,-9.677784E-1,9.571519E-1,-2.9577324E-1,-9.289204E-1,5.851421E-1],"categories":[],"categories_nodes":[],"categories_segments":[],"categories_sizes":[],"default_left":[1,1,1,1,1,1,1,1,1,1,1,1,1,1,1,0,0,0,0,0,0,0,0,0,0,0,0,0,0,0,0],"id":13,"left_children":[1,3,5,7,9,11,13,15,17,19,21,23,25,27,29,-1,-1,-1,-1,-1,-1,-1,-1,-1,-1,-1,-1,-1,-1,-1,-1],"loss_changes":[8.271883E1,2.1683367E1,4.3756447E1,6.268673E0,2.2271498E1,3.0513214E1,3.4170906E1,6.046425E0,5.160356E0,9.993263E0,6.5217247E0,3.0399813E1,1.1776718E1,2.3124666E1,9.616138E0,0E0,0E0,0E0,0E0,0E0,0E0,0E0,0E0,0E0,0E0,0E0,0E0,0E0,0E0,0E0,0E0],"parents":[2147483647,0,0,1,1,2,2,3,3,4,4,5,5,6,6,7,7,8,8,9,9,10,10,11,11,12,12,13,13,14,14],"right_children":[2,4,6,8,10,12,14,16,18,20,22,24,26,28,30,-1,-1,-1,-1,-1,-1,-1,-1,-1,-1,-1,-1,-1,-1,-1,-1],"split_conditions":[-3.6461998E1,1.685E2,1.01022E1,8.5E0,3.9358E0,2.5E0,-2.23042E1,1.74655E0,8.167E-1,7.1625E1,3.66E2,5E-1,-2.599945E1,7.5E0,4.979E-1,1.5660565E-1,-5.075177E-3,1.1071164E-1,-1.0220148E-1,2.3166109E-2,-2.0260078E-1,1.8135379E-1,-8.086114E-2,-7.5920895E-2,1.305001E-1,-9.245688E-2,-1.6452545E-1,1.6271892E-1,-5.0282408E-2,-1.5791947E-1,9.947605E-2],"split_indices":[2,20,4,7,4,7,2,43,43,25,20,39,2,7,0,0,0,0,0,0,0,0,0,0,0,0,0,0,0,0,0],"split_type":[0,0,0,0,0,0,0,0,0,0,0,0,0,0,0,0,0,0,0,0,0,0,0,0,0,0,0,0,0,0,0],"sum_hessian":[6.0042664E2,1.3219405E2,4.6823257E2,9.3173035E1,3.902101E1,3.71042E2,9.7190575E1,8.200778E1,1.1165248E1,2.3719067E1,1.5301944E1,9.5362625E1,2.7567938E2,6.767388E1,2.9516699E1,7.474341E1,7.2643747E0,5.6708713E0,5.4943767E0,8.388066E0,1.5331E1,1.2481914E1,2.82003E0,6.670528E1,2.8657349E1,1.5364061E2,1.22038765E2,4.6981636E1,2.0692242E1,2.5229767E1,4.286932E0],"tree_param":{"num_deleted":"0","num_feature":"46","num_nodes":"31","size_leaf_vector":"0"}},{"base_weights":[-1.9445705E-1,3.507149E-2,-7.917017E-1,3.42902E-1,-3.5392445E-1,6.506778E-2,-8.4080213E-1,7.461892E-1,-1.2092844E-1,3.0014893E-1,-5.388052E-1,-6.1425465E-1,1.0469558E0,-1.897469E-1,-8.966883E-1,9.045965E-1,-3.0742013E-1,6.9744134E-1,-3.7797683E-1,-5.080105E-1,8.511136E-1,-6.3546807E-1,5.554274E-1,4.917019E-1,-9.21616E-1,1.0430541E-1,1.6041601E0,1.592525E0,-7.607498E-1,-3.2032597E-1,-9.4926906E-1],"categories":[],"categories_nodes":[],"categories_segments":[],"categories_sizes":[],"default_left":[1,1,1,1,1,1,1,1,1,1,1,1,1,1,1,0,0,0,0,0,0,0,0,0,0,0,0,0,0,0,0],"id":14,"left_children":[1,3,5,7,9,11,13,15,17,19,21,23,25,27,29,-1,-1,-1,-1,-1,-1,-1,-1,-1,-1,-1,-1,-1,-1,-1,-1],"loss_changes":[7.767688E1,4.9233105E1,6.671753E0,4.301274E1,2.213079E1,6.9490647E0,5.2454376E0,2.0786911E1,2.2894428E1,1.8544912E1,1.5372166E1,2.566892E0,2.0575228E0,1.4476803E1,3.841919E0,0E0,0E0,0E0,0E0,0E0,0E0,0E0,0E0,0E0,0E0,0E0,0E0,0E0,0E0,0E0,0E0],"parents":[2147483647,0,0,1,1,2,2,3,3,4,4,5,5,6,6,7,7,8,8,9,9,10,10,11,11,12,12,13,13,14,14],"right_children":[2,4,6,8,10,12,14,16,18,20,22,24,26,28,30,-1,-1,-1,-1,-1,-1,-1,-1,-1,-1,-1,-1,-1,-1,-1,-1],"split_conditions":[-1.857E0,2.05E1,4.25E1,1.165E2,2.5E0,5.2201465E2,5E-1,-1.955E0,-7.2911997E0,6.5E0,1.45E1,1.5199E0,2.7885002E-1,3.23945E0,-3.732895E1,1.5378433E-1,-5.2262418E-2,1.1856728E-1,-6.425729E-2,-8.636343E-2,1.4469206E-1,-1.0803163E-1,9.442445E-2,8.359092E-2,-1.5667771E-1,1.7732257E-2,2.727124E-1,2.707344E-1,-1.2932993E-1,-5.445645E-2,-1.6137882E-1],"split_indices":[5,20,15,17,7,42,22,31,5,35,35,6,44,27,2,0,0,0,0,0,0,0,0,0,0,0,0,0,0,0,0],"split_type":[0,0,0,0,0,0,0,0,0,0,0,0,0,0,0,0,0,0,0,0,0,0,0,0,0,0,0,0,0,0,0],"sum_hessian":[5.654317E2,4.0913666E2,1.5629503E2,2.2846233E2,1.8067433E2,8.453961E0,1.4784106E2,1.218813E2,1.06581024E2,3.9677895E1,1.4099644E2,5.2181687E0,3.2357924E0,1.20348015E1,1.3580626E2,1.0607469E2,1.5806611E1,2.5065681E1,8.151534E1,1.6116316E1,2.356158E1,1.2993723E2,1.105921E1,1.0043906E0,4.2137785E0,1.643164E0,1.5926285E0,2.486061E0,9.54874E0,1.1946568E1,1.23859695E2],"tree_param":{"num_deleted":"0","num_feature":"46","num_nodes":"31","size_leaf_vector":"0"}},{"base_weights":[-1.5348934E-1,1.2674737E-1,-5.7125115E-1,4.6224284E-1,-2.519392E-1,-9.521278E-2,-7.6458114E-1,7.3743767E-1,2.2518463E-2,7.731948E-1,-5.4047585E-1,-2.1975006E-1,1.4888107E0,-3.6386147E-2,-8.481593E-1,1.3400195E0,4.8389566E-1,5.395729E-1,-3.3066922E-1,9.463174E-1,-6.238771E-1,-8.108308E-1,3.5014648E-2,1.6201074E-1,-6.4804864E-1,1.9032309E0,1.6687293E-1,5.7100904E-1,-7.7647614E-1,-5.5137205E-1,-9.877761E-1],"categories":[],"categories_nodes":[],"categories_segments":[],"categories_sizes":[],"default_left":[1,1,1,1,1,1,1,1,1,1,1,1,1,1,1,0,0,0,0,0,0,0,0,0,0,0,0,0,0,0,0],"id":15,"left_children":[1,3,5,7,9,11,13,15,17,19,21,23,25,27,29,-1,-1,-1,-1,-1,-1,-1,-1,-1,-1,-1,-1,-1,-1,-1,-1],"loss_changes":[6.247809E1,4.0753662E1,1.9640099E1,2.0549465E1,4.505369E1,1.2756556E1,9.231491E0,1.5317322E1,1.2313703E1,8.706465E0,1.8441776E1,9.798668E0,2.2688599E0,7.956645E0,5.110367E0,0E0,0E0,0E0,0E0,0E0,0E0,0E0,0E0,0E0,0E0,0E0,0E0,0E0,0E0,0E0,0E0],"parents":[2147483647,0,0,1,1,2,2,3,3,4,4,5,5,6,6,7,7,8,8,9,9,10,10,11,11,12,12,13,13,14,14],"right_children":[2,4,6,8,10,12,14,16,18,20,22,24,26,28,30,-1,-1,-1,-1,-1,-1,-1,-1,-1,-1,-1,-1,-1,-1,-1,-1],"split_conditions":[-2.68262E1,9.69895E0,2.2365E3,2.4E1,-4.4108902E1,1.37495E2,1.85195E0,7.444E2,-3.3021103E1,1.8337551E1,1.15E1,-1.720435E1,1.065E2,7.487E2,-2.4191E1,2.2780764E-1,8.226383E-2,9.1729134E-2,-5.621484E-2,1.6087702E-1,-1.0606112E-1,-1.3784385E-1,5.9526036E-3,2.754235E-2,-1.10170364E-1,3.235554E-1,2.8368939E-2,9.707338E-2,-1.3200346E-1,-9.373503E-2,-1.6792513E-1],"split_indices":[2,3,11,20,2,25,6,1,2,3,35,2,15,1,2,0,0,0,0,0,0,0,0,0,0,0,0,0,0,0,0],"split_type":[0,0,0,0,0,0,0,0,0,0,0,0,0,0,0,0,0,0,0,0,0,0,0,0,0,0,0,0,0,0,0],"sum_hessian":[5.32053E2,3.1885803E2,2.1319496E2,1.6895369E2,1.4990433E2,6.2007004E1,1.5118796E2,1.0350169E2,6.5451996E1,3.2556282E1,1.17348045E2,5.8285793E1,3.7212086E0,1.571372E1,1.3547423E2,2.938307E1,7.411862E1,2.6349512E1,3.9102486E1,2.9253841E1,3.30244E0,7.956222E1,3.778582E1,3.1145878E1,2.7139917E1,2.4982824E0,1.2229261E0,8.75605E0,6.9576697E0,4.492504E1,9.0549194E1],"tree_param":{"num_deleted":"0","num_feature":"46","num_nodes":"31","size_leaf_vector":"0"}},{"base_weights":[-1.5769775E-1,3.7266463E-2,-7.1917886E-1,3.7165985E-1,-2.6055807E-1,-4.0837315E-1,-9.0354764E-1,1.3630487E-1,8.6339885E-1,-6.187188E-1,1.4318399E-1,5.700301E-1,-6.3630724E-1,4.349206E-1,-9.305495E-1,4.1000065E-1,-3.3334795E-1,1.0491574E0,1.3198061E-1,-7.275304E-1,4.425195E-1,-3.8515292E-2,9.457197E-1,1.1997925E0,-5.00366E-1,-5.5802934E-2,-7.962078E-1,2.853574E-1,-9.5102626E-1],"categories":[],"categories_nodes":[],"categories_segments":[],"categories_sizes":[],"default_left":[1,1,1,1,1,1,1,1,1,1,1,1,1,0,1,0,0,0,0,0,0,0,0,0,0,0,0,0,0],"id":16,"left_children":[1,3,5,7,9,11,13,15,17,19,21,23,25,-1,27,-1,-1,-1,-1,-1,-1,-1,-1,-1,-1,-1,-1,-1,-1],"loss_changes":[5.5540695E1,3.7679108E1,7.1235657E0,2.0503908E1,2.9036346E1,1.1626628E1,3.3410034E0,1.5779382E1,7.6723633E0,1.2593346E1,1.3877205E1,7.3890533E0,3.8019066E0,0E0,2.2621384E0,0E0,0E0,0E0,0E0,0E0,0E0,0E0,0E0,0E0,0E0,0E0,0E0,0E0,0E0],"parents":[2147483647,0,0,1,1,2,2,3,3,4,4,5,5,6,6,7,7,8,8,9,9,10,10,11,11,12,12,14,14],"right_children":[2,4,6,8,10,12,14,16,18,20,22,24,26,-1,28,-1,-1,-1,-1,-1,-1,-1,-1,-1,-1,-1,-1,-1,-1],"split_conditions":[-1.857E0,4.5E0,1.5E0,3.55E1,9.5E0,2.9193501E0,2E2,1.355E2,9.2525E2,4.5E0,3.5E0,-9.2345E-1,-3.4555252E1,7.393791E-2,-4.68503E1,6.970144E-2,-5.667023E-2,1.7836015E-1,2.2437131E-2,-1.2368253E-1,7.522974E-2,-6.5477244E-3,1.6077541E-1,2.0396861E-1,-8.506384E-2,-9.486679E-3,-1.353579E-1,4.851168E-2,-1.6167754E-1],"split_indices":[5,7,22,10,35,27,12,17,1,34,34,5,2,0,2,0,0,0,0,0,0,0,0,0,0,0,0,0,0],"split_type":[0,0,0,0,0,0,0,0,0,0,0,0,0,0,0,0,0,0,0,0,0,0,0,0,0,0,0,0,0],"sum_hessian":[5.0612112E2,3.763678E2,1.2975333E2,1.7718214E2,1.9918564E2,4.950822E1,8.02451E1,1.2069337E2,5.648878E1,1.0526887E2,9.391678E1,9.070859E0,4.043736E1,1.2880907E0,7.895701E1,7.633515E1,4.4358208E1,4.4701515E1,1.1787268E1,9.576434E1,9.50452E0,7.7355095E1,1.6561687E1,5.6347775E0,3.4360814E0,9.024331E0,3.141303E1,1.0934312E0,7.786358E1],"tree_param":{"num_deleted":"0","num_feature":"46","num_nodes":"29","size_leaf_vector":"0"}},{"base_weights":[-1.2425439E-1,9.004904E-2,-5.881158E-1,7.0998204E-1,-3.921271E-2,-2.5041124E-1,-7.9759306E-1,9.8045623E-1,1.8361422E-1,2.7792832E-1,-4.1494495E-1,1.0338227E0,-4.6257502E-1,3.8560504E-1,-8.1873477E-1,1.0189414E0,-1.7298308E-1,-7.94071E-1,5.1059365E-1,6.4879847E-1,-1.5295498E-1,-6.405887E-1,1.4854696E-1,1.6754645E0,-9.3938954E-2,-1.6799277E-1,-9.153222E-1,-9.609314E-1,-5.6248456E-1],"categories":[],"categories_nodes":[],"categories_segments":[],"categories_sizes":[],"default_left":[1,1,1,1,1,1,1,1,1,1,1,1,1,0,1,0,0,0,0,0,0,0,0,0,0,0,0,0,0],"id":17,"left_children":[1,3,5,7,9,11,13,15,17,19,21,23,25,-1,27,-1,-1,-1,-1,-1,-1,-1,-1,-1,-1,-1,-1,-1,-1],"loss_changes":[4.815061E1,2.661738E1,1.0625858E1,7.97797E0,3.294551E1,1.6837765E1,2.6668053E0,1.8462791E0,7.01666E0,2.4070229E1,1.6180536E1,6.541213E0,6.8108845E0,0E0,2.8357697E0,0E0,0E0,0E0,0E0,0E0,0E0,0E0,0E0,0E0,0E0,0E0,0E0,0E0,0E0],"parents":[2147483647,0,0,1,1,2,2,3,3,4,4,5,5,6,6,7,7,8,8,9,9,10,10,11,11,12,12,14,14],"right_children":[2,4,6,8,10,12,14,16,18,20,22,24,26,-1,28,-1,-1,-1,-1,-1,-1,-1,-1,-1,-1,-1,-1,-1,-1],"split_conditions":[-2.42975E0,-3.99827E1,1.5E0,1.09735E0,7.8685E2,2.2783E0,1.96E2,1.79729E1,2.7475E-1,-2.5403599E1,9.8692E0,2.9868999E0,-7.1889997E-1,6.5554105E-2,7.45E1,1.7322333E-1,-2.9407684E-2,-1.3499464E-1,8.680257E-2,1.1029784E-1,-2.6002841E-2,-1.0890215E-1,2.5253465E-2,2.8483438E-1,-1.5969926E-2,-2.8559314E-2,-1.5560773E-1,-1.6336145E-1,-9.562419E-2],"split_indices":[5,2,22,43,1,6,12,3,0,2,4,27,5,0,9,0,0,0,0,0,0,0,0,0,0,0,0,0,0],"split_type":[0,0,0,0,0,0,0,0,0,0,0,0,0,0,0,0,0,0,0,0,0,0,0,0,0,0,0,0,0],"sum_hessian":[4.8284528E2,3.30815E2,1.5203027E2,5.6301796E1,2.745132E2,5.9042103E1,9.298817E1,3.6621265E1,1.9680529E1,1.4900455E2,1.25508675E2,7.8220763E0,5.1220028E1,1.3297465E0,9.165842E1,3.555167E1,1.069597E0,4.5743833E0,1.5106144E1,7.9807144E1,6.91974E1,8.952329E1,3.5985382E1,4.6760025E0,3.1460743E0,3.1860731E1,1.9359295E1,5.7179043E1,3.4479374E1],"tree_param":{"num_deleted":"0","num_feature":"46","num_nodes":"29","size_leaf_vector":"0"}},{"base_weights":[-1.3119891E-1,-3.5587797E-1,2.4618684E-1,-1.3707347E-1,-7.1041137E-1,4.3143687E-1,-4.4528016E-1,-3.3476526E-1,2.867872E-1,1.1932743E-1,-8.0786E-1,5.668847E-1,-2.9827642E-1,7.0399E-2,-7.417545E-1,3.427639E-1,-5.0431734E-1,-1.353129E-1,8.4742624E-1,6.92485E-1,-7.894321E-1,-8.6053276E-1,5.383779E-1,3.0135512E-1,1.0223325E0,4.899842E-1,-1.039736E0,3.6729768E-1,-8.558841E-1,4.72652E-1,-8.989997E-1],"categories":[],"categories_nodes":[],"categories_segments":[],"categories_sizes":[],"default_left":[1,1,1,1,1,1,1,1,1,1,1,1,1,1,1,0,0,0,0,0,0,0,0,0,0,0,0,0,0,0,0],"id":18,"left_children":[1,3,5,7,9,11,13,15,17,19,21,23,25,27,29,-1,-1,-1,-1,-1,-1,-1,-1,-1,-1,-1,-1,-1,-1,-1,-1],"loss_changes":[3.927092E1,2.2404633E1,2.2358154E1,1.5230083E1,9.028057E0,1.3708754E1,5.717611E0,1.43747E1,1.38363285E1,7.0475807E0,7.4820557E0,1.37066345E1,1.3427174E1,4.2857203E0,4.9345684E0,0E0,0E0,0E0,0E0,0E0,0E0,0E0,0E0,0E0,0E0,0E0,0E0,0E0,0E0,0E0,0E0],"parents":[2147483647,0,0,1,1,2,2,3,3,4,4,5,5,6,6,7,7,8,8,9,9,10,10,11,11,12,12,13,13,14,14],"right_children":[2,4,6,8,10,12,14,16,18,20,22,24,26,28,30,-1,-1,-1,-1,-1,-1,-1,-1,-1,-1,-1,-1,-1,-1,-1,-1],"split_conditions":[9.5E0,5.5E0,8.5E0,5E-1,-7.4796E0,1.2786E1,2.9165E-1,-6.46665E0,3.953E-1,1.605E2,3.5E0,3.85E1,-4.2278152E1,-2.7922451E1,-4.471905E1,5.8270972E-2,-8.573558E-2,-2.300363E-2,1.440652E-1,1.1772469E-1,-1.3420601E-1,-1.4629336E-1,9.152598E-2,5.1231347E-2,1.7379984E-1,8.32989E-2,-1.7675848E-1,6.2441792E-2,-1.4550306E-1,8.0352366E-2,-1.5283285E-1],"split_indices":[35,7,7,39,5,3,8,5,0,20,39,10,2,2,2,0,0,0,0,0,0,0,0,0,0,0,0,0,0,0,0],"split_type":[0,0,0,0,0,0,0,0,0,0,0,0,0,0,0,0,0,0,0,0,0,0,0,0,0,0,0,0,0,0,0],"sum_hessian":[4.6111816E2,2.8907343E2,1.7204475E2,1.79611E2,1.0946243E2,1.3598834E2,3.6056408E1,1.2262703E2,5.698396E1,1.1481052E1,9.798138E1,1.148865E2,2.1101847E1,1.3440655E1,2.2615755E1,2.4340593E1,9.828644E1,3.2941353E1,2.4042604E1,7.1864953E0,4.294557E0,9.463932E1,3.342057E0,7.362452E1,4.126198E1,1.0392516E1,1.070933E1,1.0635243E1,2.8054109E0,2.362708E0,2.0253046E1],"tree_param":{"num_deleted":"0","num_feature":"46","num_nodes":"31","size_leaf_vector":"0"}},{"base_weights":[-1.02776565E-1,-3.6391583E-1,1.8236603E-1,-1.987853E-1,-8.126626E-1,5.036075E-1,-1.614627E-1,-3.6066562E-2,-7.714386E-1,2.3162119E-1,-8.872494E-1,5.639911E-2,8.307418E-1,7.62588E-1,-3.4147587E-1,4.187437E-1,-3.367647E-1,-8.756642E-1,1.5511952E-1,-7.6743937E-1,8.6068094E-1,-9.2116416E-1,1.5436208E-1,5.363631E-1,-7.3005503E-1,9.1205686E-1,-6.4329183E-1,1.0736413E0,-8.826062E-2,-7.0606023E-1,1.441265E-1],"categories":[],"categories_nodes":[],"categories_segments":[],"categories_sizes":[],"default_left":[1,1,1,1,1,1,1,1,1,1,1,1,1,1,1,0,0,0,0,0,0,0,0,0,0,0,0,0,0,0,0],"id":19,"left_children":[1,3,5,7,9,11,13,15,17,19,21,23,25,27,29,-1,-1,-1,-1,-1,-1,-1,-1,-1,-1,-1,-1,-1,-1,-1,-1],"loss_changes":[3.312655E1,1.703614E1,2.3597187E1,1.5904027E1,5.0428734E0,1.6091337E1,1.7492487E1,1.8493334E1,3.7846413E0,3.7608106E0,2.1971893E0,1.8387672E1,8.214134E0,4.6468973E0,1.557439E1,0E0,0E0,0E0,0E0,0E0,0E0,0E0,0E0,0E0,0E0,0E0,0E0,0E0,0E0,0E0,0E0],"parents":[2147483647,0,0,1,1,2,2,3,3,4,4,5,5,6,6,7,7,8,8,9,9,10,10,11,11,12,12,13,13,14,14],"right_children":[2,4,6,8,10,12,14,16,18,20,22,24,26,28,30,-1,-1,-1,-1,-1,-1,-1,-1,-1,-1,-1,-1,-1,-1,-1,-1],"split_conditions":[8.5E0,6.5E0,1.235E2,9.48955E0,-9.2395E0,1.5E0,-7.3508997E0,-2.563065E1,3.5E0,6.545E2,9.16095E0,9.1E1,4.58E-1,1.0277349E1,1.8465E-1,7.118779E-2,-5.725109E-2,-1.4886574E-1,2.6370822E-2,-1.3046718E-1,1.4631854E-1,-1.5660089E-1,2.6242053E-2,9.118347E-2,-1.2411172E-1,1.5505262E-1,-1.0936169E-1,1.8252249E-1,-1.5004591E-2,-1.2003253E-1,2.4501972E-2],"split_indices":[35,7,16,3,5,34,5,2,34,12,32,20,44,3,44,0,0,0,0,0,0,0,0,0,0,0,0,0,0,0,0],"split_type":[0,0,0,0,0,0,0,0,0,0,0,0,0,0,0,0,0,0,0,0,0,0,0,0,0,0,0,0,0,0,0],"sum_hessian":[4.429877E2,2.3108197E2,2.1190573E2,1.6997667E2,6.1105297E1,1.0931101E2,1.0259472E2,1.3319301E2,3.6783657E1,3.9330854E0,5.717221E1,4.6675606E1,6.2635406E1,1.6199993E1,8.639473E1,5.2855595E1,8.033742E1,3.3113724E1,3.6699305E0,1.4346397E0,2.4984457E0,5.548138E1,1.6908323E0,2.918334E1,1.7492264E1,5.9722088E1,2.9133182E0,1.1671337E1,4.528655E0,4.9086895E1,3.7307835E1],"tree_param":{"num_deleted":"0","num_feature":"46","num_nodes":"31","size_leaf_vector":"0"}},{"base_weights":[-9.1634884E-2,1.6256568E-1,-3.9720803E-1,3.9209628E-1,-3.2894215E-1,7.527624E-2,-5.421509E-1,6.497478E-1,-1.3941032E-1,-5.20683E-1,5.499121E-1,6.564277E-1,-2.3828347E-1,-6.027478E-1,6.400838E-1,-1.4047654E-1,8.53228E-1,6.541848E-1,-6.037446E-1,7.016248E-1,-6.635867E-1,1.5229684E-1,1.06409E0,7.747346E-1,-4.35139E-1,3.256617E-1,-6.128573E-1,-8.897004E-1,-3.0967054E-1,-3.6248013E-1,1.2936081E0],"categories":[],"categories_nodes":[],"categories_segments":[],"categories_sizes":[],"default_left":[1,1,1,1,1,1,1,1,1,1,1,1,1,1,1,0,0,0,0,0,0,0,0,0,0,0,0,0,0,0,0],"id":20,"left_children":[1,3,5,7,9,11,13,15,17,19,21,23,25,27,29,-1,-1,-1,-1,-1,-1,-1,-1,-1,-1,-1,-1,-1,-1,-1,-1],"loss_changes":[3.311585E1,2.6413189E1,1.3293289E1,2.1901958E1,1.2875877E1,8.594579E0,1.1003391E1,1.7397064E1,1.9860327E1,1.1267899E1,2.672923E0,2.467245E0,6.7081537E0,1.1624275E1,5.5212693E0,0E0,0E0,0E0,0E0,0E0,0E0,0E0,0E0,0E0,0E0,0E0,0E0,0E0,0E0,0E0,0E0],"parents":[2147483647,0,0,1,1,2,2,3,3,4,4,5,5,6,6,7,7,8,8,9,9,10,10,11,11,12,12,13,13,14,14],"right_children":[2,4,6,8,10,12,14,16,18,20,22,24,26,28,30,-1,-1,-1,-1,-1,-1,-1,-1,-1,-1,-1,-1,-1,-1,-1,-1],"split_conditions":[4.5E1,1.535E2,-5.86075E0,-2.582855E1,3.5E0,-2.755E0,2.5E0,4.6437E0,2.1935E3,4.95E1,2.0525E-1,-2.41816E1,6.9994995E2,1.8465E-1,2.7150998E0,-2.3881467E-2,1.4505151E-1,1.11213535E-1,-1.0263854E-1,1.1927849E-1,-1.1281188E-1,2.5890956E-2,1.8089874E-1,1.3170739E-1,-7.397504E-2,5.536354E-2,-1.0418772E-1,-1.5125194E-1,-5.2644994E-2,-6.1622795E-2,2.1991755E-1],"split_indices":[20,17,5,2,34,31,39,32,11,15,44,2,1,44,28,0,0,0,0,0,0,0,0,0,0,0,0,0,0,0,0],"split_type":[0,0,0,0,0,0,0,0,0,0,0,0,0,0,0,0,0,0,0,0,0,0,0,0,0,0,0,0,0,0,0],"sum_hessian":[4.24497E2,2.3198283E2,1.9251418E2,1.5827284E2,7.371E1,4.5306114E1,1.4720805E2,1.0644865E2,5.1824192E1,6.0843285E1,1.2866718E1,1.5494726E1,2.9811386E1,1.4049689E2,6.711177E0,2.1860815E1,8.458783E1,1.8978727E1,3.2845467E1,5.9595227E0,5.4883762E1,7.9867425E0,4.879976E0,1.4241453E1,1.253273E0,1.1950186E1,1.78612E1,6.996159E1,7.0535286E1,2.8241017E0,3.8870752E0],"tree_param":{"num_deleted":"0","num_feature":"46","num_nodes":"31","size_leaf_vector":"0"}},{"base_weights":[-7.8971535E-2,6.1052278E-2,-5.719353E-1,2.0030078E-1,-4.0141407E-1,-2.3764737E-1,-7.746907E-1,3.2373193E-1,-3.5550907E-1,-6.806287E-2,-8.2121956E-1,2.895196E-1,-6.451228E-1,-1.470972E-1,-9.1435564E-1,7.5962305E-1,4.70728E-2,7.206682E-1,-7.3581713E-1,2.7595866E-1,-6.722515E-1,-8.9817435E-1,6.709187E-1,1.4140581E0,-3.5344515E-2,3.5233402E-1,-9.2746454E-1,-5.279713E-1,9.018779E-1,-9.504397E-1,3.28663E-1],"categories":[],"categories_nodes":[],"categories_segments":[],"categories_sizes":[],"default_left":[1,1,1,1,1,1,1,1,1,1,1,1,1,1,1,0,0,0,0,0,0,0,0,0,0,0,0,0,0,0,0],"id":21,"left_children":[1,3,5,7,9,11,13,15,17,19,21,23,25,27,29,-1,-1,-1,-1,-1,-1,-1,-1,-1,-1,-1,-1,-1,-1,-1,-1],"loss_changes":[2.8266308E1,2.065049E1,5.9546185E0,1.7003326E1,1.0335329E1,7.841735E0,4.7682495E0,2.4319107E1,1.9033875E1,9.014905E0,4.3660164E0,5.977915E0,6.07465E0,5.020153E0,2.355896E0,0E0,0E0,0E0,0E0,0E0,0E0,0E0,0E0,0E0,0E0,0E0,0E0,0E0,0E0,0E0,0E0],"parents":[2147483647,0,0,1,1,2,2,3,3,4,4,5,5,6,6,7,7,8,8,9,9,10,10,11,11,12,12,13,13,14,14],"right_children":[2,4,6,8,10,12,14,16,18,20,22,24,26,28,30,-1,-1,-1,-1,-1,-1,-1,-1,-1,-1,-1,-1,-1,-1,-1,-1],"split_conditions":[-1.857E0,1.795E2,1.2678801E1,-2.29323E1,-3.10576E1,-2.3049998E0,-2.8629E0,-2.4E-3,5.4335E2,9.2725E2,1.4956E2,5E-1,1.4600999E0,-3.49715E0,1.24E2,1.2913838E-1,8.002529E-3,1.22515924E-1,-1.250913E-1,4.6913866E-2,-1.1428493E-1,-1.5269254E-1,1.1405835E-1,2.4039444E-1,-6.008682E-3,5.9897922E-2,-1.5767197E-1,-8.975683E-2,1.5332216E-1,-1.6157782E-1,5.587377E-2],"split_indices":[5,20,26,2,2,31,4,43,1,1,25,22,6,4,13,0,0,0,0,0,0,0,0,0,0,0,0,0,0,0,0],"split_type":[0,0,0,0,0,0,0,0,0,0,0,0,0,0,0,0,0,0,0,0,0,0,0,0,0,0,0,0,0,0,0],"sum_hessian":[4.0799252E2,3.1842242E2,8.95701E1,2.4516899E2,7.325344E1,3.4636353E1,5.4933743E1,2.0095876E2,4.4210243E1,4.147884E1,3.1774601E1,1.5226593E1,1.9409761E1,1.0373403E1,4.456034E1,7.734768E1,1.2361108E2,1.1310207E1,3.2900036E1,2.6775997E1,1.4702841E1,3.0594784E1,1.179817E0,2.6613586E0,1.2565234E1,4.2273784E0,1.5182383E1,7.974578E0,2.3988245E0,4.3532013E1,1.0283285E0],"tree_param":{"num_deleted":"0","num_feature":"46","num_nodes":"31","size_leaf_vector":"0"}},{"base_weights":[-7.250119E-2,5.6263257E-2,-5.447825E-1,1.7903218E-1,-3.6908147E-1,-2.280365E-1,-7.8374237E-1,-1.9487491E-1,3.7177297E-1,-5.568619E-1,4.1150403E-1,6.5656126E-1,-4.1477135E-1,-8.4468895E-1,1.4303637E-1,2.4103278E-1,-6.085026E-1,7.152032E-1,1.550776E-1,3.7960476E-1,-6.630826E-1,7.965552E-1,-4.145966E-1,1.252084E0,-1.4117575E-1,-8.5345685E-1,-4.281793E-2,3.054066E-1,-8.789228E-1,9.4775707E-1,-6.429131E-1],"categories":[],"categories_nodes":[],"categories_segments":[],"categories_sizes":[],"default_left":[1,1,1,1,1,1,1,1,1,1,1,1,1,1,1,0,0,0,0,0,0,0,0,0,0,0,0,0,0,0,0],"id":22,"left_children":[1,3,5,7,9,11,13,15,17,19,21,23,25,27,29,-1,-1,-1,-1,-1,-1,-1,-1,-1,-1,-1,-1,-1,-1,-1,-1],"loss_changes":[2.385806E1,1.6190329E1,6.18174E0,1.7389606E1,1.0414706E1,6.4743233E0,2.8031216E0,1.5001784E1,1.1714567E1,5.865797E0,4.799406E0,3.469682E0,5.121981E0,2.0284653E0,3.0034583E0,0E0,0E0,0E0,0E0,0E0,0E0,0E0,0E0,0E0,0E0,0E0,0E0,0E0,0E0,0E0,0E0],"parents":[2147483647,0,0,1,1,2,2,3,3,4,4,5,5,6,6,7,7,8,8,9,9,10,10,11,11,12,12,13,13,14,14],"right_children":[2,4,6,8,10,12,14,16,18,20,22,24,26,28,30,-1,-1,-1,-1,-1,-1,-1,-1,-1,-1,-1,-1,-1,-1,-1,-1],"split_conditions":[-1.857E0,1.795E2,1.5E0,5E-1,4.15E1,2.28825E0,2.5E0,1.015E2,-3.378695E1,1.5E0,1.41528E1,1.80515E0,7.55E1,-4.68503E1,1.1213551E1,4.0976353E-2,-1.03447415E-1,1.2158686E-1,2.6363695E-2,6.453404E-2,-1.1272619E-1,1.3541697E-1,-7.048276E-2,2.1285833E-1,-2.4000334E-2,-1.4509043E-1,-7.279187E-3,5.192011E-2,-1.4941972E-1,1.6112177E-1,-1.09297305E-1],"split_indices":[5,20,22,24,10,6,39,15,2,7,3,28,9,2,26,0,0,0,0,0,0,0,0,0,0,0,0,0,0,0,0],"split_type":[0,0,0,0,0,0,0,0,0,0,0,0,0,0,0,0,0,0,0,0,0,0,0,0,0,0,0,0,0,0,0],"sum_hessian":[3.9081415E2,3.077806E2,8.303352E1,2.3929193E2,6.848868E1,3.654573E1,4.6487797E1,8.1389496E1,1.5790244E2,5.543875E1,1.3049931E1,5.9314313E0,3.06143E1,4.3702423E1,2.7853708E0,3.983065E1,4.155885E1,6.01976E1,9.7704834E1,5.38547E0,5.005328E1,8.925471E0,4.1244593E0,3.0700486E0,2.8613827E0,1.345308E1,1.716122E1,1.034283E0,4.266814E1,1.2745277E0,1.5108432E0],"tree_param":{"num_deleted":"0","num_feature":"46","num_nodes":"31","size_leaf_vector":"0"}},{"base_weights":[-5.5257905E-2,-1.8061194E-1,3.82342E-1,7.3689766E-2,-4.3419716E-1,5.5887055E-1,-2.7204952E-1,3.6688116E-1,-3.856494E-1,5.474484E-1,-5.2102685E-1,9.0942407E-1,2.3527347E-1,5.9718245E-1,-6.577749E-1,-2.8182107E-1,6.3345295E-1,2.3638655E-1,-7.454856E-1,-4.5411515E-1,7.870885E-1,6.3226384E-1,-5.922604E-1,-6.3227996E-2,1.0528197E0,7.6885426E-1,-4.2503437E-1,-1.7104083E-1,9.169646E-1,2.2451732E-1,-9.231361E-1],"categories":[],"categories_nodes":[],"categories_segments":[],"categories_sizes":[],"default_left":[1,1,1,1,1,1,1,1,1,1,1,1,1,1,1,0,0,0,0,0,0,0,0,0,0,0,0,0,0,0,0],"id":23,"left_children":[1,3,5,7,9,11,13,15,17,19,21,23,25,27,29,-1,-1,-1,-1,-1,-1,-1,-1,-1,-1,-1,-1,-1,-1,-1,-1],"loss_changes":[2.0838055E1,1.905498E1,9.9281845E0,2.0092299E1,1.2887173E1,7.383709E0,6.646478E0,1.590383E1,1.3204181E1,3.3582082E0,1.1575615E1,4.5018635E0,1.3072674E1,1.6939552E0,3.3433366E0,0E0,0E0,0E0,0E0,0E0,0E0,0E0,0E0,0E0,0E0,0E0,0E0,0E0,0E0,0E0,0E0],"parents":[2147483647,0,0,1,1,2,2,3,3,4,4,5,5,6,6,7,7,8,8,9,9,10,10,11,11,12,12,13,13,14,14],"right_children":[2,4,6,8,10,12,14,16,18,20,22,24,26,28,30,-1,-1,-1,-1,-1,-1,-1,-1,-1,-1,-1,-1,-1,-1,-1,-1],"split_conditions":[1.15E1,7.7013E2,8.5E0,-2.232815E1,-4.39311E1,8.323E2,-5.0548E0,1.48E0,4.885E2,5E-1,-9.23E0,1.40205E0,-3.827845E1,4.5E0,-4.085515E1,-4.7910493E-2,1.0768905E-1,4.018648E-2,-1.2673496E-1,-7.7201046E-2,1.338076E-1,1.07486896E-1,-1.00686185E-1,-1.0748964E-2,1.7898276E-1,1.3070771E-1,-7.225722E-2,-2.9077495E-2,1.5588695E-1,3.816867E-2,-1.5693612E-1],"split_indices":[35,1,7,2,2,1,5,30,12,34,5,30,2,9,2,0,0,0,0,0,0,0,0,0,0,0,0,0,0,0,0],"split_type":[0,0,0,0,0,0,0,0,0,0,0,0,0,0,0,0,0,0,0,0,0,0,0,0,0,0,0,0,0,0,0],"sum_hessian":[3.776169E2,2.9398874E2,8.362818E1,1.471412E2,1.4684753E2,6.597638E1,1.7651804E1,8.993678E1,5.7204422E1,1.1502478E1,1.3534506E2,3.0800144E1,3.5176235E1,5.2569847E0,1.2394819E1,2.6177254E1,6.375953E1,2.1089987E1,3.6114433E1,2.047996E0,9.454482E0,7.4151864E0,1.2792987E2,4.0291953E0,2.6770948E1,1.9364115E1,1.58121195E1,1.681822E0,3.575163E0,2.9015274E0,9.493292E0],"tree_param":{"num_deleted":"0","num_feature":"46","num_nodes":"31","size_leaf_vector":"0"}},{"base_weights":[-5.547592E-2,-1.702422E-3,-1.0384222E0,5.3771454E-1,-1.4443943E-1,2.4142271E-1,-1.2364609E0,8.981261E-1,2.765674E-1,-3.262697E-2,-9.6635085E-1,6.6745174E-1,-3.7464556E-1,9.8276114E-1,-3.1216177E-1,-4.0631053E-1,5.1209384E-1,-4.675479E-1,1.3337441E-1,-1.0510464E0,6.1048704E-1],"categories":[],"categories_nodes":[],"categories_segments":[],"categories_sizes":[],"default_left":[1,1,1,1,1,1,0,1,1,1,1,0,0,0,0,0,0,0,0,0,0],"id":24,"left_children":[1,3,5,7,9,11,-1,13,15,17,19,-1,-1,-1,-1,-1,-1,-1,-1,-1,-1],"loss_changes":[1.9507437E1,2.7099346E1,5.150486E0,6.6833096E0,2.5544922E1,1.1429151E0,0E0,3.43075E0,7.3088636E0,1.782406E1,5.0878506E0,0E0,0E0,0E0,0E0,0E0,0E0,0E0,0E0,0E0,0E0],"parents":[2147483647,0,0,1,1,2,2,3,3,4,4,5,5,7,7,8,8,9,9,10,10],"right_children":[2,4,6,8,10,12,-1,14,16,18,20,-1,-1,-1,-1,-1,-1,-1,-1,-1,-1],"split_conditions":[1.5452299E1,-3.6151E1,-4.802135E1,1.0035749E1,8.9830005E2,1.88084E1,-2.1020235E-1,2.39215E0,3.75E1,5.5E0,1.4405E2,1.1346895E-1,-6.369096E-2,1.6707258E-1,-5.306851E-2,-6.90741E-2,8.705761E-2,-7.948466E-2,2.267408E-2,-1.7868128E-1,1.0378477E-1],"split_indices":[3,2,2,3,1,3,0,33,10,35,25,0,0,0,0,0,0,0,0,0,0],"split_type":[0,0,0,0,0,0,0,0,0,0,0,0,0,0,0,0,0,0,0,0,0],"sum_hessian":[3.680978E2,3.4995477E2,1.814305E1,7.264712E1,2.7730765E2,2.4018412E0,1.5741208E1,2.9497784E1,4.3149334E1,2.4501555E2,3.2292107E1,1.3706154E0,1.0312258E0,2.7745543E1,1.7522415E0,1.08797655E1,3.2269566E1,6.718235E1,1.778332E2,3.0962488E1,1.3296182E0],"tree_param":{"num_deleted":"0","num_feature":"46","num_nodes":"21","size_leaf_vector":"0"}},{"base_weights":[-4.5354288E-2,-1.3735881E-1,5.075053E-1,-3.7856346E-1,1.2827112E-1,-3.3654654E-1,6.922656E-1,-7.9056196E-2,-6.513218E-1,2.6999357E-1,-7.9915965E-1,4.5245308E-1,-9.189957E-1,8.1549174E-1,-3.476662E-2,2.3055655E-1,-5.630344E-1,7.7837783E-1,-7.1796125E-1,-5.814031E-1,4.5515427E-1,2.7806538E-1,-8.74378E-1,-3.8735425E-1,8.5528564E-1,-1.1710277E0,-1.0780861E-3,4.8982605E-1,1.2247429E0,3.960051E-1,-7.197569E-1],"categories":[],"categories_nodes":[],"categories_segments":[],"categories_sizes":[],"default_left":[1,1,1,1,1,1,1,1,1,1,1,1,1,1,1,0,0,0,0,0,0,0,0,0,0,0,0,0,0,0,0],"id":25,"left_children":[1,3,5,7,9,11,13,15,17,19,21,23,25,27,29,-1,-1,-1,-1,-1,-1,-1,-1,-1,-1,-1,-1,-1,-1,-1,-1],"loss_changes":[1.8129633E1,1.960197E1,8.165897E0,1.3035585E1,1.9403656E1,4.9232197E0,3.796566E0,1.1741842E1,8.533775E0,2.0345623E1,1.831562E0,1.9672011E0,1.3804774E0,4.1989403E0,2.3667521E0,0E0,0E0,0E0,0E0,0E0,0E0,0E0,0E0,0E0,0E0,0E0,0E0,0E0,0E0,0E0,0E0],"parents":[2147483647,0,0,1,1,2,2,3,3,4,4,5,5,6,6,7,7,8,8,9,9,10,10,11,11,12,12,13,13,14,14],"right_children":[2,4,6,8,10,12,14,16,18,20,22,24,26,28,30,-1,-1,-1,-1,-1,-1,-1,-1,-1,-1,-1,-1,-1,-1,-1,-1],"split_conditions":[3.5E0,1.8465E-1,5.5E0,1.065E2,-8.209E-1,9.545E-2,8.5E0,4.65E1,-4.45145E1,4.6306E0,3.85E1,5.3578997E0,2.9425E3,1.183955E1,-2.37E0,3.919536E-2,-9.571767E-2,1.3232675E-1,-1.2205574E-1,-9.88404E-2,7.73777E-2,4.7272015E-2,-1.486471E-1,-6.585148E-2,1.4540133E-1,-1.9907849E-1,-1.8327813E-4,8.327202E-2,2.0821026E-1,6.732215E-2,-1.22361004E-1],"split_indices":[34,44,35,16,5,45,7,20,2,32,16,32,11,4,31,0,0,0,0,0,0,0,0,0,0,0,0,0,0,0,0],"split_type":[0,0,0,0,0,0,0,0,0,0,0,0,0,0,0,0,0,0,0,0,0,0,0,0,0,0,0,0,0,0,0],"sum_hessian":[3.5405188E2,3.0418268E2,4.986923E1,1.5919807E2,1.4498459E2,8.808282E0,4.1060947E1,7.649319E1,8.270489E1,1.2638095E2,1.8603634E1,3.8356316E0,4.97265E0,3.5006035E1,6.054914E0,4.696936E1,2.9523829E1,3.2076077E0,7.9497284E1,2.2193216E1,1.0418774E2,1.0382191E0,1.7565414E1,1.2558712E0,2.5797606E0,3.6850934E0,1.2875569E0,2.0717087E1,1.4288947E1,3.9762444E0,2.0786695E0],"tree_param":{"num_deleted":"0","num_feature":"46","num_nodes":"31","size_leaf_vector":"0"}},{"base_weights":[-1.4213022E-5,1.5816571E-1,-3.3668765E-1,-4.5999297E-1,2.5588593E-1,1.3585997E-1,-5.334645E-1,3.4042373E-1,-6.686252E-1,4.7012463E-1,-9.4876505E-2,6.3303345E-1,-2.7000496E-1,-7.220617E-1,-1.4729887E-1,9.8566234E-1,-6.804077E-1,-7.86752E-1,5.193356E-1,-4.245546E-2,6.2338036E-1,-2.2495277E-1,6.8027735E-1,1.2635446E0,1.508076E-1,-7.869052E-1,1.3846211E-1,-9.4389987E-1,-2.950753E-1,2.4273217E-1,-8.483488E-1],"categories":[],"categories_nodes":[],"categories_segments":[],"categories_sizes":[],"default_left":[1,1,1,1,1,1,1,1,1,1,1,1,1,1,1,0,0,0,0,0,0,0,0,0,0,0,0,0,0,0,0],"id":26,"left_children":[1,3,5,7,9,11,13,15,17,19,21,23,25,27,29,-1,-1,-1,-1,-1,-1,-1,-1,-1,-1,-1,-1,-1,-1,-1,-1],"loss_changes":[1.8528376E1,1.4416323E1,1.0413687E1,5.6830573E0,1.5452529E1,6.9292374E0,5.6267586E0,5.556252E0,4.0924616E0,1.0039089E1,8.076056E0,4.4772162E0,4.150234E0,4.70697E0,7.6122236E0,0E0,0E0,0E0,0E0,0E0,0E0,0E0,0E0,0E0,0E0,0E0,0E0,0E0,0E0,0E0,0E0],"parents":[2147483647,0,0,1,1,2,2,3,3,4,4,5,5,6,6,7,7,8,8,9,9,10,10,11,11,12,12,13,13,14,14],"right_children":[2,4,6,8,10,12,14,16,18,20,22,24,26,28,30,-1,-1,-1,-1,-1,-1,-1,-1,-1,-1,-1,-1,-1,-1,-1,-1],"split_conditions":[3.6665E-1,1.3908E0,4.5E0,2.11955E1,1.43903E1,-4.28975E0,2.095E2,1.95695E0,3.582E3,5.5E0,4.75E1,2.73998E1,2.75E1,9.55E1,-3.0725E0,1.675658E-1,-1.1567151E-1,-1.3375038E-1,8.828874E-2,-7.2175656E-3,1.0597668E-1,-3.8242698E-2,1.1564935E-1,2.1480666E-1,2.5637781E-2,-1.3377644E-1,2.3539007E-2,-1.6046603E-1,-5.0163757E-2,4.1265253E-2,-1.4422204E-1],"split_indices":[8,30,7,29,26,5,15,28,11,35,10,29,10,9,5,0,0,0,0,0,0,0,0,0,0,0,0,0,0,0,0],"split_type":[0,0,0,0,0,0,0,0,0,0,0,0,0,0,0,0,0,0,0,0,0,0,0,0,0,0,0,0,0,0,0],"sum_hessian":[3.4591824E2,2.3570618E2,1.1021206E2,3.1668749E1,2.0403743E2,3.2492607E1,7.771945E1,6.4172597E0,2.5251488E1,1.2645869E2,7.7578735E1,1.4352037E1,1.814057E1,5.1632927E1,2.6086525E1,3.953081E0,2.464179E0,2.3274845E1,1.9766433E0,2.9273458E1,9.718523E1,6.703893E1,1.0539808E1,5.5175705E0,8.834467E0,7.5984826E0,1.05420885E1,3.3182533E1,1.8450392E1,1.7181377E1,8.905148E0],"tree_param":{"num_deleted":"0","num_feature":"46","num_nodes":"31","size_leaf_vector":"0"}},{"base_weights":[-4.5591027E-2,6.4385846E-2,-5.0434947E-1,4.176784E-1,-1.1909266E-1,6.434557E-1,-7.41852E-1,9.191046E-1,2.655207E-1,1.2857774E-1,-5.060687E-1,8.2762015E-1,-5.3176045E-1,-8.768464E-1,4.040904E-2,1.1029679E0,-3.9202478E-2,8.737065E-1,4.3344814E-2,-4.6893856E-1,2.9945108E-1,7.332906E-1,-6.017859E-1,-8.45466E-2,9.839394E-1,-1.023975E0,-3.9031067E-1,5.985915E-1,-2.9058912E-1],"categories":[],"categories_nodes":[],"categories_segments":[],"categories_sizes":[],"default_left":[1,1,1,1,1,1,1,1,1,1,1,1,0,1,1,0,0,0,0,0,0,0,0,0,0,0,0,0,0],"id":27,"left_children":[1,3,5,7,9,11,13,15,17,19,21,23,-1,25,27,-1,-1,-1,-1,-1,-1,-1,-1,-1,-1,-1,-1,-1,-1],"loss_changes":[1.7099485E1,1.7794687E1,1.834019E1,6.9121284E0,1.7408306E1,2.9874158E0,5.817768E0,3.8190994E0,9.875556E0,1.1487282E1,8.842566E0,1.5898204E0,0E0,2.9462738E0,1.8394533E0,0E0,0E0,0E0,0E0,0E0,0E0,0E0,0E0,0E0,0E0,0E0,0E0,0E0,0E0],"parents":[2147483647,0,0,1,1,2,2,3,3,4,4,5,5,6,6,7,7,8,8,9,9,10,10,11,11,13,13,14,14],"right_children":[2,4,6,8,10,12,14,16,18,20,22,24,-1,26,28,-1,-1,-1,-1,-1,-1,-1,-1,-1,-1,-1,-1,-1,-1],"split_conditions":[1.11993E1,-3.149515E1,-4.575535E1,7.3124E0,7.5265E2,1.893835E1,1.35E1,3.94595E1,-3.949205E1,4.70825E0,4.95E1,5.65E1,-9.0401E-2,1.5E0,1.2502501E1,1.875081E-1,-6.664548E-3,1.4853294E-1,7.368759E-3,-7.972107E-2,5.0907653E-2,1.2466177E-1,-1.0230555E-1,-1.4373196E-2,1.6727288E-1,-1.7407906E-1,-6.635408E-2,1.01762496E-1,-4.940109E-2],"split_indices":[3,2,2,3,1,3,35,29,2,32,17,17,0,24,3,0,0,0,0,0,0,0,0,0,0,0,0,0,0],"split_type":[0,0,0,0,0,0,0,0,0,0,0,0,0,0,0,0,0,0,0,0,0,0,0,0,0,0,0,0,0],"sum_hessian":[3.3727664E2,2.7275055E2,6.452607E1,9.279499E1,1.7995557E2,1.0769557E1,5.375651E1,2.0429703E1,7.236529E1,1.1013517E2,6.98204E1,9.566235E0,1.2033226E0,4.5741936E1,8.014576E0,1.7014334E1,3.4153697E0,1.8577799E1,5.378749E1,2.4103785E1,8.603138E1,4.528159E0,6.529224E1,1.4667106E0,8.0995245E0,3.427311E1,1.1468827E1,2.6824884E0,5.3320875E0],"tree_param":{"num_deleted":"0","num_feature":"46","num_nodes":"29","size_leaf_vector":"0"}},{"base_weights":[-4.3526262E-2,1.3548912E-1,-2.7023932E-1,4.2663625E-1,-1.7008431E-1,2.0350541E-1,-4.2674923E-1,-2.2604348E-1,6.10536E-1,-4.6775633E-1,2.6298678E-1,-9.796175E-2,1.3011659E0,1.4665878E-1,-5.117522E-1,-7.041199E-1,4.0598932E-1,3.7550965E-1,1.0206773E0,8.369227E-1,-5.7741976E-1,3.943774E-1,-8.378217E-1,-3.184211E-1,1.1660376E0,1.6738217E0,-5.6381315E-1,-7.752537E-1,5.115384E-1,-3.464697E-1,-7.887081E-1],"categories":[],"categories_nodes":[],"categories_segments":[],"categories_sizes":[],"default_left":[1,1,1,1,1,1,1,1,1,1,1,1,1,1,1,0,0,0,0,0,0,0,0,0,0,0,0,0,0,0,0],"id":28,"left_children":[1,3,5,7,9,11,13,15,17,19,21,23,25,27,29,-1,-1,-1,-1,-1,-1,-1,-1,-1,-1,-1,-1,-1,-1,-1,-1],"loss_changes":[1.3204686E1,1.6261454E1,1.0726029E1,1.1356672E1,1.1660496E1,1.2142669E1,5.3479176E0,6.714656E0,6.6719227E0,8.123556E0,5.6960664E0,8.568403E0,6.4297333E0,5.35616E0,4.0496674E0,0E0,0E0,0E0,0E0,0E0,0E0,0E0,0E0,0E0,0E0,0E0,0E0,0E0,0E0,0E0,0E0],"parents":[2147483647,0,0,1,1,2,2,3,3,4,4,5,5,6,6,7,7,8,8,9,9,10,10,11,11,12,12,13,13,14,14],"right_children":[2,4,6,8,10,12,14,16,18,20,22,24,26,28,30,-1,-1,-1,-1,-1,-1,-1,-1,-1,-1,-1,-1,-1,-1,-1,-1],"split_conditions":[4.5E1,1.125E2,1.35E1,4.64775E0,1.8900001E-1,1.5E0,-7.3688498E0,4.9482E0,8.75E1,-4.4108902E1,-8.8275003E-1,1.3484E2,-2.30743E1,2.2437E0,2.5E0,-1.1970267E-1,6.90195E-2,6.3837856E-2,1.7351845E-1,1.4227957E-1,-9.8163225E-2,6.7045435E-2,-1.424324E-1,-5.4132618E-2,1.9823016E-1,2.845551E-1,-9.585006E-2,-1.3179564E-1,8.6963184E-2,-5.890097E-2,-1.3408293E-1],"split_indices":[20,17,13,32,44,39,5,4,9,2,5,25,2,28,22,0,0,0,0,0,0,0,0,0,0,0,0,0,0,0,0],"split_type":[0,0,0,0,0,0,0,0,0,0,0,0,0,0,0,0,0,0,0,0,0,0,0,0,0,0,0,0,0,0,0],"sum_hessian":[3.234556E2,1.8096545E2,1.4249014E2,9.246736E1,8.84981E1,3.5309734E1,1.0718041E2,2.0276114E1,7.2191246E1,5.240047E1,3.6097626E1,2.8416134E1,6.8935995E0,1.3743694E1,9.3436714E1,1.1479124E1,8.79699E0,4.711065E1,2.5080599E1,3.548755E0,4.885172E1,3.282181E1,3.275817E0,2.4832993E1,3.5831404E0,5.830968E0,1.0626317E0,3.5782156E0,1.0165479E1,5.992531E1,3.3511406E1],"tree_param":{"num_deleted":"0","num_feature":"46","num_nodes":"31","size_leaf_vector":"0"}},{"base_weights":[-3.2281946E-2,1.11324176E-1,-3.4371275E-1,-1.5223354E-1,3.3173257E-1,-5.487987E-1,2.568314E-1,-3.4964225E-1,3.87096E-1,1.1728594E-1,6.475579E-1,-8.7993616E-1,-2.2327416E-1,-3.842627E-1,4.325511E-1,-4.4673955E-1,1.0279868E0,-9.1267884E-1,5.218778E-1,6.923501E-1,-1.9708745E-1,7.845247E-1,-2.9801363E-1,6.56378E-1,-9.46347E-1,-5.805966E-1,2.3430443E-1,3.989553E-1,-1.1636516E0,6.653936E-1,-2.2462761E-1],"categories":[],"categories_nodes":[],"categories_segments":[],"categories_sizes":[],"default_left":[1,1,1,1,1,1,1,1,1,1,1,1,1,1,1,0,0,0,0,0,0,0,0,0,0,0,0,0,0,0,0],"id":29,"left_children":[1,3,5,7,9,11,13,15,17,19,21,23,25,27,29,-1,-1,-1,-1,-1,-1,-1,-1,-1,-1,-1,-1,-1,-1,-1,-1],"loss_changes":[1.4265661E1,1.2742025E1,1.2536191E1,1.0801926E1,8.003533E0,7.924679E0,3.1290882E0,1.0339888E1,5.2622566E0,1.3202038E1,6.453247E0,4.397007E0,6.5669365E0,4.2413692E0,3.3802044E0,0E0,0E0,0E0,0E0,0E0,0E0,0E0,0E0,0E0,0E0,0E0,0E0,0E0,0E0,0E0,0E0],"parents":[2147483647,0,0,1,1,2,2,3,3,4,4,5,5,6,6,7,7,8,8,9,9,10,10,11,11,12,12,13,13,14,14],"right_children":[2,4,6,8,10,12,14,16,18,20,22,24,26,28,30,-1,-1,-1,-1,-1,-1,-1,-1,-1,-1,-1,-1,-1,-1,-1,-1],"split_conditions":[9.69895E0,2.45E1,1.25E1,1.098045E1,6.4158497E0,3.0900002E-1,1.7749E0,1.38515E2,4.4082003E0,7.285E0,1.15E1,4.55E1,5E-1,8.0055E-1,5.8335E-1,-7.594717E-2,1.7476107E-1,-1.5515836E-1,8.872092E-2,1.17701754E-1,-3.3505503E-2,1.3337174E-1,-5.066328E-2,1.1158638E-1,-1.6088206E-1,-9.87033E-2,3.983251E-2,6.7823686E-2,-1.9782454E-1,1.13119066E-1,-3.818742E-2],"split_indices":[3,10,35,4,4,0,30,25,32,3,18,17,23,43,8,0,0,0,0,0,0,0,0,0,0,0,0,0,0,0,0],"split_type":[0,0,0,0,0,0,0,0,0,0,0,0,0,0,0,0,0,0,0,0,0,0,0,0,0,0,0,0,0,0,0],"sum_hessian":[3.1712E2,2.1747914E2,9.9640854E1,9.9185455E1,1.1829368E2,7.433992E1,2.5300928E1,7.286622E1,2.6319235E1,7.127145E1,4.702223E1,3.600795E1,3.833197E1,5.1876307E0,2.0113298E1,6.8699875E1,4.166349E0,1.9305326E0,2.4388702E1,2.4766068E1,4.6505383E1,4.122157E1,5.8006587E0,1.12393E0,3.488402E1,2.1372988E1,1.6958982E1,2.8309202E0,2.3567104E0,1.4842136E1,5.271161E0],"tree_param":{"num_deleted":"0","num_feature":"46","num_nodes":"31","size_leaf_vector":"0"}},{"base_weights":[-2.7950112E-2,1.0229095E-1,-3.2711032E-1,6.119381E-1,-3.1051008E-2,7.7383816E-2,-6.4632756E-1,8.3510834E-1,4.6536725E-2,-2.4262448E-1,2.6361033E-1,3.7867483E-1,-4.4284523E-1,-8.319277E-1,-1.06709525E-1,1.3257788E0,5.5030423E-1,7.77904E-1,-5.062522E-1,-6.1826444E-1,1.9223507E-2,5.3521705E-1,-9.8880075E-2,6.763966E-1,-3.023102E-1,-7.521119E-1,5.0022334E-1,7.704917E-1,-8.9703465E-1,2.867989E-1,-9.1847926E-1],"categories":[],"categories_nodes":[],"categories_segments":[],"categories_sizes":[],"default_left":[1,1,1,1,1,1,1,1,1,1,1,1,1,1,1,0,0,0,0,0,0,0,0,0,0,0,0,0,0,0,0],"id":30,"left_children":[1,3,5,7,9,11,13,15,17,19,21,23,25,27,29,-1,-1,-1,-1,-1,-1,-1,-1,-1,-1,-1,-1,-1,-1,-1,-1],"loss_changes":[1.2285257E1,1.4958378E1,1.2395681E1,5.719675E0,1.0986207E1,6.9179215E0,5.2740784E0,3.8348522E0,6.043632E0,1.0093544E1,7.3090897E0,5.8429728E0,5.11728E0,4.832535E0,5.0073733E0,0E0,0E0,0E0,0E0,0E0,0E0,0E0,0E0,0E0,0E0,0E0,0E0,0E0,0E0,0E0,0E0],"parents":[2147483647,0,0,1,1,2,2,3,3,4,4,5,5,6,6,7,7,8,8,9,9,10,10,11,11,12,12,13,13,14,14],"right_children":[2,4,6,8,10,12,14,16,18,20,22,24,26,28,30,-1,-1,-1,-1,-1,-1,-1,-1,-1,-1,-1,-1,-1,-1,-1,-1],"split_conditions":[-2.5422699E1,7.08485E0,2.2855E3,-2.765615E1,5E-1,-2.0149999E0,2.5E0,7.5715E1,5.3628E0,2.53885E0,3.88164E1,-2.24225E0,1.9235001E0,1.058455E1,3.3474648E1,2.253867E-1,9.35535E-2,1.322462E-1,-8.606452E-2,-1.0510696E-1,3.2680584E-3,9.098863E-2,-1.6809933E-2,1.1498961E-1,-5.139371E-2,-1.2786146E-1,8.5039586E-2,1.3098608E-1,-1.524988E-1,4.875674E-2,-1.5614444E-1],"split_indices":[2,3,11,2,23,31,34,25,3,4,29,5,33,26,29,0,0,0,0,0,0,0,0,0,0,0,0,0,0,0,0],"split_type":[0,0,0,0,0,0,0,0,0,0,0,0,0,0,0,0,0,0,0,0,0,0,0,0,0,0,0,0,0,0,0],"sum_hessian":[3.1344742E2,2.1883463E2,9.461279E1,4.463721E1,1.7419742E2,4.2066307E1,5.2546486E1,3.166261E1,1.2974604E1,1.0149693E2,7.2700485E1,2.6810873E1,1.5255436E1,3.8695553E1,1.3850932E1,1.0286173E1,2.1376436E1,5.4098577E0,7.5647454E0,4.1130737E1,6.036619E1,4.128784E1,3.1412642E1,1.8659716E1,8.151156E0,1.1640555E1,3.6148796E0,1.0878162E0,3.760774E1,9.764334E0,4.0865984E0],"tree_param":{"num_deleted":"0","num_feature":"46","num_nodes":"31","size_leaf_vector":"0"}},{"base_weights":[-1.9580573E-2,5.2925933E-2,-5.061322E-1,5.7660043E-1,-5.1377654E-2,1.1392986E-1,-8.9811414E-1,8.075669E-1,2.028825E-1,2.8414868E-2,-8.9322567E-1,-3.0600306E-1,7.601623E-1,-9.521793E-1,3.011829E-2,9.3114316E-1,1.5098019E-2,-2.9441556E-1,6.307252E-1,-4.839784E-1,1.2944257E-1,-1.0050159E0,5.5577224E-1,6.76109E-1,-6.6783196E-1,8.6785585E-1,1.1507312E-1,-7.861146E-3,-9.944961E-1],"categories":[],"categories_nodes":[],"categories_segments":[],"categories_sizes":[],"default_left":[1,1,1,1,1,1,1,1,1,1,1,1,1,1,0,0,0,0,0,0,0,0,0,0,0,0,0,0,0],"id":31,"left_children":[1,3,5,7,9,11,13,15,17,19,21,23,25,27,-1,-1,-1,-1,-1,-1,-1,-1,-1,-1,-1,-1,-1,-1,-1],"loss_changes":[1.0908818E1,1.4742541E1,9.848892E0,3.7049856E0,1.5175727E1,4.688324E0,1.2673206E0,2.6658897E0,4.1124125E0,1.0777371E1,3.726552E0,4.2414184E0,3.6934853E-1,9.254093E-1,0E0,0E0,0E0,0E0,0E0,0E0,0E0,0E0,0E0,0E0,0E0,0E0,0E0,0E0,0E0],"parents":[2147483647,0,0,1,1,2,2,3,3,4,4,5,5,6,6,7,7,8,8,9,9,10,10,11,11,12,12,13,13],"right_children":[2,4,6,8,10,12,14,16,18,20,22,24,26,28,-1,-1,-1,-1,-1,-1,-1,-1,-1,-1,-1,-1,-1,-1,-1],"split_conditions":[1.2246799E1,-3.61387E1,-4.0550346E1,9.04E2,9.0305E2,2.1329498E0,3.135E2,-1.995E0,2.86185E0,1.37475E0,1.4418E2,3.8E1,2.26E2,4.25E1,5.1202066E-3,1.5829735E-1,2.566712E-3,-5.00516E-2,1.0722533E-1,-8.2277894E-2,2.2005657E-2,-1.7085594E-1,9.448308E-2,1.1494072E-1,-1.1353359E-1,1.475383E-1,1.9562803E-2,-1.3364202E-3,-1.6906756E-1],"split_indices":[3,2,2,1,1,4,14,31,4,30,25,13,20,16,0,0,0,0,0,0,0,0,0,0,0,0,0,0,0],"split_type":[0,0,0,0,0,0,0,0,0,0,0,0,0,0,0,0,0,0,0,0,0,0,0,0,0,0,0,0,0],"sum_hessian":[3.0746368E2,2.6836313E2,3.9100574E1,4.3821495E1,2.2454163E2,1.54190645E1,2.3681509E1,2.636587E1,1.7455624E1,2.0598416E2,1.8557463E1,9.665038E0,5.7540264E0,2.2353712E1,1.3277972E0,2.265768E1,3.7081902E0,8.216791E0,9.238832E0,3.330039E1,1.7268378E2,1.7512758E1,1.044703E0,2.368266E0,7.296772E0,4.6349277E0,1.1190985E0,1.0096083E0,2.1344103E1],"tree_param":{"num_deleted":"0","num_feature":"46","num_nodes":"29","size_leaf_vector":"0"}},{"base_weights":[6.03173E-4,-1.066804E-1,3.607118E-1,-1.3925465E-2,-7.9442245E-1,6.9901356E-3,7.140942E-1,3.077277E-1,-1.763454E-1,-8.9382076E-1,7.8804845E-1,8.826492E-1,-1.5528128E-1,8.421787E-1,-4.465966E-1,5.803002E-1,-2.8965324E-1,6.466562E-1,-2.4625345E-1,-1.0267562E0,2.626387E-1,1.0691005E0,4.8609722E-2,1.331907E-1,-7.7918226E-1,9.765844E-1,-7.960569E-2,1.973329E-1,-7.2771347E-1],"categories":[],"categories_nodes":[],"categories_segments":[],"categories_sizes":[],"default_left":[1,1,1,1,1,1,1,1,1,1,0,1,1,1,1,0,0,0,0,0,0,0,0,0,0,0,0,0,0],"id":32,"left_children":[1,3,5,7,9,11,13,15,17,19,-1,21,23,25,27,-1,-1,-1,-1,-1,-1,-1,-1,-1,-1,-1,-1,-1,-1],"loss_changes":[1.1549955E1,1.4682813E1,8.57268E0,1.0711088E1,5.0073757E0,5.153615E0,5.4779835E0,1.1371952E1,7.994213E0,4.2987423E0,0E0,8.2962656E-1,5.617449E0,3.9498234E0,8.792845E-1,0E0,0E0,0E0,0E0,0E0,0E0,0E0,0E0,0E0,0E0,0E0,0E0,0E0,0E0],"parents":[2147483647,0,0,1,1,2,2,3,3,4,4,5,5,6,6,7,7,8,8,9,9,11,11,12,12,13,13,14,14],"right_children":[2,4,6,8,10,12,14,16,18,20,-1,22,24,26,28,-1,-1,-1,-1,-1,-1,-1,-1,-1,-1,-1,-1,-1,-1],"split_conditions":[7.5E0,-1.855E0,1.8465E-1,4.19515E0,1.03E3,4.745E2,-1.94062E1,3.55E1,-4.398175E1,1.83595E0,1.3397078E-1,7.75E1,-2.56642E1,8.068701E0,4.26E2,9.8652914E-2,-4.924199E-2,1.0993365E-1,-4.186388E-2,-1.7455187E-1,4.4649426E-2,1.8175055E-1,8.263811E-3,2.264285E-2,-1.324635E-1,1.6602251E-1,-1.3533225E-2,3.3547234E-2,-1.2371364E-1],"split_indices":[21,31,44,6,12,12,2,20,2,33,0,20,2,32,12,0,0,0,0,0,0,0,0,0,0,0,0,0,0],"split_type":[0,0,0,0,0,0,0,0,0,0,0,0,0,0,0,0,0,0,0,0,0,0,0,0,0,0,0,0,0],"sum_hessian":[2.969643E2,2.2934236E2,6.7621925E1,2.0298611E2,2.6356243E1,3.4304382E1,3.331754E1,6.780729E1,1.3517883E2,2.5208046E1,1.1481966E0,4.6691403E0,2.9635244E1,3.025343E1,3.0641086E0,4.6581642E1,2.1225645E1,9.937558E0,1.2524127E2,2.2709713E1,2.4983337E0,3.5857124E0,1.0834278E0,2.0803082E1,8.832164E0,2.6351639E1,3.9017909E0,1.0217396E0,2.042369E0],"tree_param":{"num_deleted":"0","num_feature":"46","num_nodes":"29","size_leaf_vector":"0"}},{"base_weights":[-1.4645457E-2,-1.17613696E-1,2.83596E-1,2.1182206E-1,-2.8972647E-1,4.106758E-1,-7.1241575E-1,1.2317679E-2,7.692387E-1,-1.0355022E-1,-5.5070883E-1,-6.8615265E-2,5.804768E-1,1.8466559E-1,-9.1202295E-1,1.6410008E-1,-6.927844E-1,9.449178E-1,-2.803628E-1,2.713311E-1,-2.762001E-1,3.0984508E-3,-6.985997E-1,-8.421953E-1,2.086948E-1,7.7547693E-1,8.218558E-2],"categories":[],"categories_nodes":[],"categories_segments":[],"categories_sizes":[],"default_left":[1,1,1,1,1,1,1,1,1,1,1,1,1,0,0,0,0,0,0,0,0,0,0,0,0,0,0],"id":33,"left_children":[1,3,5,7,9,11,13,15,17,19,21,23,25,-1,-1,-1,-1,-1,-1,-1,-1,-1,-1,-1,-1,-1,-1],"loss_changes":[9.030337E0,1.2449717E1,9.846638E0,8.392766E0,6.9365416E0,5.539444E0,1.7632813E0,6.177228E0,3.9339752E0,5.591824E0,4.8914433E0,4.1598597E0,4.794998E0,0E0,0E0,0E0,0E0,0E0,0E0,0E0,0E0,0E0,0E0,0E0,0E0,0E0,0E0],"parents":[2147483647,0,0,1,1,2,2,3,3,4,4,5,5,6,6,7,7,8,8,9,9,10,10,11,11,12,12],"right_children":[2,4,6,8,10,12,14,16,18,20,22,24,26,-1,-1,-1,-1,-1,-1,-1,-1,-1,-1,-1,-1,-1,-1],"split_conditions":[8.97635E0,5.72E-2,-3.26365E0,3.05E1,2.5E0,6.5E0,2.5E0,-7.184E-1,2.5E0,-3.465635E1,5.85E1,1.4103E0,7.5E0,3.1393748E-2,-1.5504685E-1,2.7897544E-2,-1.177756E-1,1.6063908E-1,-4.7662586E-2,4.6127167E-2,-4.6954907E-2,5.267467E-4,-1.1876421E-1,-1.4317591E-1,3.5478793E-2,1.3183358E-1,1.3971815E-2],"split_indices":[4,45,5,21,22,35,7,5,34,2,17,30,7,0,0,0,0,0,0,0,0,0,0,0,0,0,0],"split_type":[0,0,0,0,0,0,0,0,0,0,0,0,0,0,0,0,0,0,0,0,0,0,0,0,0,0,0],"sum_hessian":[2.9197162E2,2.1748894E2,7.448268E1,7.455493E1,1.42934E2,6.657602E1,7.906664E0,5.565692E1,1.889801E1,8.423809E1,5.869592E1,1.7572023E1,4.9003998E1,1.4527082E0,6.4539557E0,4.642961E1,9.22731E0,1.6273874E1,2.6241343E0,2.6382084E1,5.785601E1,1.2577176E1,4.611874E1,4.0993953E0,1.3472628E1,3.4820965E1,1.4183031E1],"tree_param":{"num_deleted":"0","num_feature":"46","num_nodes":"27","size_leaf_vector":"0"}},{"base_weights":[3.1199283E-3,4.1597806E-2,-8.8983846E-1,-1.0499085E-1,2.987858E-1,2.0756307E-1,-1.0868225E0,-2.829089E-1,2.2594123E-1,5.5218625E-1,3.628894E-2,3.718291E-1,-3.7233284E-1,6.1208967E-2,1.0602366E0,7.1961963E-1,-1.2572154E-1,6.00561E-1,-3.1423306E-1],"categories":[],"categories_nodes":[],"categories_segments":[],"categories_sizes":[],"default_left":[1,1,1,1,1,0,0,1,1,1,1,0,0,0,0,0,0,0,0],"id":34,"left_children":[1,3,5,7,9,-1,-1,11,13,15,17,-1,-1,-1,-1,-1,-1,-1,-1],"loss_changes":[9.828915E0,1.036778E1,2.7801895E0,1.0389711E1,6.618039E0,0E0,0E0,6.842264E0,8.438904E0,5.8459616E0,1.0095662E1,0E0,0E0,0E0,0E0,0E0,0E0,0E0,0E0],"parents":[2147483647,0,0,1,1,2,2,3,3,4,4,7,7,8,8,9,9,10,10],"right_children":[2,4,6,8,10,-1,-1,12,14,16,18,-1,-1,-1,-1,-1,-1,-1,-1],"split_conditions":[1.5452299E1,9.5E0,-4.802135E1,5E-1,8.3245E2,3.5286393E-2,-1.8476334E-1,5.44325E2,1.5E0,3.5368202E1,-3.87886E1,6.321215E-2,-6.3297786E-2,1.0405722E-2,1.8024364E-1,1.2233767E-1,-2.1373069E-2,1.0209732E-1,-5.3420637E-2],"split_indices":[3,35,2,23,1,0,0,1,39,29,2,0,0,0,0,0,0,0,0],"split_type":[0,0,0,0,0,0,0,0,0,0,0,0,0,0,0,0,0,0,0],"sum_hessian":[2.8398672E2,2.731692E2,1.0817536E1,1.743737E2,9.879547E1,1.6380773E0,9.17946E0,1.134988E2,6.087491E1,4.9707207E1,4.9088264E1,1.3259353E1,1.0023945E2,5.1733463E1,9.141446E0,3.9812553E1,9.894654E0,1.8535841E1,3.0552422E1],"tree_param":{"num_deleted":"0","num_feature":"46","num_nodes":"19","size_leaf_vector":"0"}},{"base_weights":[-2.228395E-2,7.092938E-2,-3.554705E-1,1.666573E-1,-3.050579E-1,-7.8450866E-2,-7.500194E-1,6.13892E-1,4.2877194E-2,-7.546399E-1,2.8089976E-1,8.533766E-1,-2.1292683E-1,-8.203311E-1,4.7441974E-1,1.9571197E-1,9.4011813E-1,6.262507E-1,-7.159204E-2,7.539939E-1,-8.5798585E-1,8.099369E-1,-1.6091383E-1,1.171071E0,9.570466E-2,-6.808989E-1,1.1385278E-1,-8.9250743E-1,4.2076948E-1],"categories":[],"categories_nodes":[],"categories_segments":[],"categories_sizes":[],"default_left":[1,1,1,1,1,1,1,1,1,1,1,1,1,1,0,0,0,0,0,0,0,0,0,0,0,0,0,0,0],"id":35,"left_children":[1,3,5,7,9,11,13,15,17,19,21,23,25,27,-1,-1,-1,-1,-1,-1,-1,-1,-1,-1,-1,-1,-1,-1,-1],"loss_changes":[8.754253E0,7.9855065E0,6.6747637E0,9.736872E0,1.2090625E1,4.8571706E0,2.5669947E0,5.021204E0,9.3408375E0,4.667241E0,4.87638E0,1.0686486E0,5.18616E0,2.5512943E0,0E0,0E0,0E0,0E0,0E0,0E0,0E0,0E0,0E0,0E0,0E0,0E0,0E0,0E0,0E0],"parents":[2147483647,0,0,1,1,2,2,3,3,4,4,5,5,6,6,7,7,8,8,9,9,10,10,11,11,12,12,13,13],"right_children":[2,4,6,8,10,12,14,16,18,20,22,24,26,28,-1,-1,-1,-1,-1,-1,-1,-1,-1,-1,-1,-1,-1,-1,-1],"split_conditions":[1.795E2,-2.240975E1,-3.1098549E1,-3.5165E-1,4.8405E-1,7.4830005E2,3.824E3,8.4175E1,5.65E1,-2.105E-1,-1.591235E1,3.15E1,9.5E0,1.4591E2,8.065289E-2,3.3271667E-2,1.5982312E-1,1.0646464E-1,-1.2170878E-2,1.2818141E-1,-1.4586037E-1,1.3769189E-1,-2.735587E-2,1.9908586E-1,1.6270101E-2,-1.15755014E-1,1.935534E-2,-1.5172915E-1,7.1532175E-2],"split_indices":[20,2,2,43,0,1,11,25,17,6,2,13,35,25,0,0,0,0,0,0,0,0,0,0,0,0,0,0,0],"split_type":[0,0,0,0,0,0,0,0,0,0,0,0,0,0,0,0,0,0,0,0,0,0,0,0,0,0,0,0,0],"sum_hessian":[2.8006128E2,2.1945343E2,6.060787E1,1.7536223E2,4.4091198E1,3.6311657E1,2.4296211E1,3.7155327E1,1.382069E2,2.4786007E1,1.9305191E1,3.9052153E0,3.240644E1,2.3288914E1,1.0072982E0,1.6983974E1,2.0171352E1,2.1937117E1,1.1626978E2,1.1854271E0,2.360058E1,8.406207E0,1.0898984E1,2.367075E0,1.5381402E0,1.2879047E1,1.9527393E1,2.2274416E1,1.014497E0],"tree_param":{"num_deleted":"0","num_feature":"46","num_nodes":"29","size_leaf_vector":"0"}},{"base_weights":[-1.9210938E-2,1.00317255E-1,-2.8836462E-1,2.909049E-1,-1.6311036E-1,-3.8815267E-2,-7.273725E-1,2.195494E-1,1.1440614E0,3.522189E-1,-3.3698037E-1,-3.5829568E-1,3.4677055E-1,6.7935726E-3,-8.702716E-1,8.8978726E-1,1.0700148E-1,1.2883662E0,5.695439E-2,9.196475E-1,-1.0539632E-1,-5.7973367E-1,1.3544495E-1,3.1595713E-1,-5.4442316E-1,5.7608217E-1,-2.7583414E-1,-4.58016E-1,1.0051523E0,-9.512556E-1,2.4619514E-1],"categories":[],"categories_nodes":[],"categories_segments":[],"categories_sizes":[],"default_left":[1,1,1,1,1,1,1,1,1,1,1,1,1,1,1,0,0,0,0,0,0,0,0,0,0,0,0,0,0,0,0],"id":36,"left_children":[1,3,5,7,9,11,13,15,17,19,21,23,25,27,29,-1,-1,-1,-1,-1,-1,-1,-1,-1,-1,-1,-1,-1,-1,-1,-1],"loss_changes":[8.944063E0,9.71898E0,9.336069E0,6.575035E0,7.4216776E0,6.9678044E0,3.2500267E0,7.803739E0,1.2470303E0,5.5631676E0,7.1263614E0,4.0465117E0,3.825384E0,3.2587578E0,2.5752373E0,0E0,0E0,0E0,0E0,0E0,0E0,0E0,0E0,0E0,0E0,0E0,0E0,0E0,0E0,0E0,0E0],"parents":[2147483647,0,0,1,1,2,2,3,3,4,4,5,5,6,6,7,7,8,8,9,9,10,10,11,11,12,12,13,13,14,14],"right_children":[2,4,6,8,10,12,14,16,18,20,22,24,26,28,30,-1,-1,-1,-1,-1,-1,-1,-1,-1,-1,-1,-1,-1,-1,-1,-1],"split_conditions":[9.69895E0,-2.583065E1,-3.3527E1,4.65E1,4.755E2,2.92595E0,1.25E1,5.7491503E0,1.81655E0,-1.71236E1,2.5E0,-4.59301E1,1.300725E1,1.75E1,5.15E1,1.5126671E-1,1.8190598E-2,2.1902642E-1,9.682431E-3,1.5634306E-1,-1.7917715E-2,-9.85566E-2,2.302608E-2,5.3713735E-2,-9.25537E-2,9.793583E-2,-4.6892695E-2,-7.78642E-2,1.7087916E-1,-1.6171654E-1,4.1853968E-2],"split_indices":[3,2,2,10,12,4,13,3,33,2,34,2,3,41,10,0,0,0,0,0,0,0,0,0,0,0,0,0,0,0,0],"split_type":[0,0,0,0,0,0,0,0,0,0,0,0,0,0,0,0,0,0,0,0,0,0,0,0,0,0,0,0,0,0,0],"sum_hessian":[2.7611322E2,1.9163675E2,8.447649E1,1.1113048E2,8.050627E1,5.455417E1,2.992232E1,1.03713524E2,7.4169555E0,2.0051207E1,6.0455063E1,2.9873226E1,2.4680943E1,5.030389E0,2.489193E1,1.3918881E1,8.979464E1,6.3843517E0,1.0326041E0,8.500812E0,1.1550395E1,3.9784737E1,2.0670324E1,6.3116264E0,2.35616E1,1.8092144E1,6.5887976E0,3.8016648E0,1.228724E0,2.334645E1,1.5454795E0],"tree_param":{"num_deleted":"0","num_feature":"46","num_nodes":"31","size_leaf_vector":"0"}},{"base_weights":[1.0499159E-2,-3.8603204E-1,8.14563E-2,-5.701075E-1,3.735436E-1,2.7517346E-1,-1.5600522E-1,-7.329548E-1,3.3737984E-1,-1.6751452E-1,9.076379E-1,2.1439394E-1,1.4756131E0,9.2042275E-2,-5.37663E-1,1.8785754E-1,-8.430389E-1,8.095536E-1,-3.2634637E-1,6.806552E-1,-6.078983E-1,1.1286508E0,7.460838E-2,5.1901873E-2,5.765334E-1,7.223743E-2,1.7958766E0,-1.0588092E-1,7.72817E-1,2.2032298E-1,-7.207419E-1],"categories":[],"categories_nodes":[],"categories_segments":[],"categories_sizes":[],"default_left":[1,1,1,1,1,1,1,1,1,1,1,1,1,1,1,0,0,0,0,0,0,0,0,0,0,0,0,0,0,0,0],"id":37,"left_children":[1,3,5,7,9,11,13,15,17,19,21,23,25,27,29,-1,-1,-1,-1,-1,-1,-1,-1,-1,-1,-1,-1,-1,-1,-1,-1],"loss_changes":[7.5783134E0,5.929594E0,1.0546442E1,5.16934E0,2.6313558E0,8.885055E0,9.821555E0,3.052802E0,2.0669022E0,2.3210504E0,7.3939514E-1,7.1023407E0,2.5253897E0,8.626617E0,5.821619E0,0E0,0E0,0E0,0E0,0E0,0E0,0E0,0E0,0E0,0E0,0E0,0E0,0E0,0E0,0E0,0E0],"parents":[2147483647,0,0,1,1,2,2,3,3,4,4,5,5,6,6,7,7,8,8,9,9,10,10,11,11,12,12,13,13,14,14],"right_children":[2,4,6,8,10,12,14,16,18,20,22,24,26,28,30,-1,-1,-1,-1,-1,-1,-1,-1,-1,-1,-1,-1,-1,-1,-1,-1],"split_conditions":[4.6972E0,1.15E1,8.0269E2,2.45E1,1.0265E-1,9.97E2,-3.2322853E1,-2.6149998E0,5.9E1,2.2381501E0,6.5E0,5E-1,7.4576E2,7.81005E0,3.2727E0,3.193639E-2,-1.4331934E-1,1.3762674E-1,-5.547994E-2,1.1571358E-1,-1.0334468E-1,1.9187428E-1,1.2683665E-2,8.823486E-3,9.801254E-2,1.2280597E-2,3.0530483E-1,-1.80001E-2,1.3138139E-1,3.745562E-2,-1.22528456E-1],"split_indices":[32,35,1,21,45,12,2,31,17,6,7,23,1,4,27,0,0,0,0,0,0,0,0,0,0,0,0,0,0,0,0],"split_type":[0,0,0,0,0,0,0,0,0,0,0,0,0,0,0,0,0,0,0,0,0,0,0,0,0,0,0,0,0,0,0],"sum_hessian":[2.672213E2,3.9885883E1,2.2733543E2,3.2306232E1,7.57965E0,1.2511218E2,1.0222325E2,2.755403E1,4.7522054E0,4.106234E0,3.4734156E0,1.2020469E2,4.907492E0,6.2416363E1,3.9806885E1,2.8669107E0,2.4687119E1,2.6484158E0,2.1037893E0,1.2169052E0,2.889329E0,2.464641E0,1.0087745E0,8.376337E1,3.6441326E1,1.1395606E0,3.7679317E0,4.901158E1,1.3404779E1,7.7046328E0,3.2102253E1],"tree_param":{"num_deleted":"0","num_feature":"46","num_nodes":"31","size_leaf_vector":"0"}},{"base_weights":[2.2686964E-2,5.635836E-2,-8.058202E-1,4.255477E-1,-2.9924968E-2,9.591184E-2,-1.0180364E0,5.4542214E-1,-1.4704084E-1,-1.881645E-1,2.5380233E-1,-8.291008E-2,6.4770585E-1,-9.9794304E-1,3.9428875E-1,6.2107757E-2,-4.0778887E-1,-4.763129E-1,4.7547796E-1],"categories":[],"categories_nodes":[],"categories_segments":[],"categories_sizes":[],"default_left":[1,1,1,1,1,0,0,1,1,1,1,0,0,0,0,0,0,0,0],"id":38,"left_children":[1,3,5,7,9,-1,-1,11,13,15,17,-1,-1,-1,-1,-1,-1,-1,-1],"loss_changes":[7.346698E0,8.054062E0,2.0661163E0,3.3670635E0,9.2763E0,0E0,0E0,2.612155E0,4.5747085E0,7.3099585E0,1.220648E1,0E0,0E0,0E0,0E0,0E0,0E0,0E0,0E0],"parents":[2147483647,0,0,1,1,2,2,3,3,4,4,7,7,8,8,9,9,10,10],"right_children":[2,4,6,8,10,-1,-1,12,14,16,18,-1,-1,-1,-1,-1,-1,-1,-1],"split_conditions":[1.5452299E1,-3.646145E1,-4.802135E1,5E-1,5E-1,1.6305324E-2,-1.7306948E-1,9E1,1.28425E0,7.08495E0,3.0625E-1,-1.4094982E-2,1.1011209E-1,-1.6965355E-1,6.703036E-2,1.05585195E-2,-6.9325425E-2,-8.0974735E-2,8.0832794E-2],"split_indices":[3,2,2,37,39,0,0,14,4,3,0,0,0,0,0,0,0,0,0],"split_type":[0,0,0,0,0,0,0,0,0,0,0,0,0,0,0,0,0,0,0],"sum_hessian":[2.607229E2,2.5143625E2,9.286654E0,4.688644E1,2.045498E2,1.8735895E0,7.4130654E0,3.8809013E1,8.077427E0,1.3153006E2,7.301974E1,5.459647E0,3.3349365E1,2.8127046E0,5.2647223E0,6.181088E1,6.9719185E1,1.6739035E1,5.6280704E1],"tree_param":{"num_deleted":"0","num_feature":"46","num_nodes":"19","size_leaf_vector":"0"}},{"base_weights":[-2.2451144E-2,2.3432715E-1,-1.2258537E-1,-1.3190767E-2,6.5269876E-1,-2.7542803E-1,1.16175056E-1,5.629236E-1,-2.7058113E-1,3.2694317E-2,8.633868E-1,-1.2730679E-1,-6.7950046E-1,3.8422406E-1,-2.0320353E-1,8.7908506E-1,-9.783082E-2,-7.653336E-2,-9.764364E-1,-5.9413344E-1,6.169612E-1,1.1196351E-2,1.0908839E0,3.0792715E-2,-6.8070704E-1,-1.7235138E-1,-9.9366456E-1,5.755344E-1,-6.0098034E-1,9.087496E-2,-6.055967E-1],"categories":[],"categories_nodes":[],"categories_segments":[],"categories_sizes":[],"default_left":[1,1,1,1,1,1,1,1,1,1,1,1,1,1,1,0,0,0,0,0,0,0,0,0,0,0,0,0,0,0,0],"id":39,"left_children":[1,3,5,7,9,11,13,15,17,19,21,23,25,27,29,-1,-1,-1,-1,-1,-1,-1,-1,-1,-1,-1,-1,-1,-1,-1,-1],"loss_changes":[6.6590247E0,7.5359025E0,6.8260655E0,7.0698843E0,3.5038261E0,6.7250996E0,6.359019E0,3.1632571E0,4.434265E0,3.2588139E0,3.892703E0,7.4149814E0,4.6559763E0,7.929411E0,4.0941076E0,0E0,0E0,0E0,0E0,0E0,0E0,0E0,0E0,0E0,0E0,0E0,0E0,0E0,0E0,0E0,0E0],"parents":[2147483647,0,0,1,1,2,2,3,3,4,4,5,5,6,6,7,7,8,8,9,9,10,10,11,11,12,12,13,13,14,14],"right_children":[2,4,6,8,10,12,14,16,18,20,22,24,26,28,30,-1,-1,-1,-1,-1,-1,-1,-1,-1,-1,-1,-1,-1,-1,-1,-1],"split_conditions":[2.5E0,5E-1,5E-1,-3.2107147E1,4.5E0,1.469985E1,3.7117752E1,1.345E2,7.474E2,8.1E1,2.53625E0,3.5E0,-3.5305603E1,-2.28274E1,-3.263745E1,1.494473E-1,-1.6631555E-2,-1.3010919E-2,-1.6599734E-1,-1.0100461E-1,1.048854E-1,1.9034159E-3,1.8545379E-1,5.2348613E-3,-1.15722395E-1,-2.9300291E-2,-1.689262E-1,9.784271E-2,-1.02168605E-1,1.5449038E-2,-1.02953404E-1],"split_indices":[7,39,23,2,35,26,29,16,1,9,4,22,2,2,2,0,0,0,0,0,0,0,0,0,0,0,0,0,0,0,0],"split_type":[0,0,0,0,0,0,0,0,0,0,0,0,0,0,0,0,0,0,0,0,0,0,0,0,0,0,0,0,0,0,0],"sum_hessian":[2.5686493E2,7.168921E1,1.851757E2,4.565008E1,2.603913E1,1.1280801E2,7.23677E1,1.3730405E1,3.1919678E1,6.8972754E0,1.9141853E1,8.351053E1,2.9297478E1,3.9235214E1,3.313248E1,9.063314E0,4.667091E0,2.5906193E1,6.013485E0,3.319297E0,3.5779781E0,4.254388E0,1.48874655E1,6.568851E1,1.7822025E1,1.1799069E1,1.749841E1,3.3203472E1,6.0317426E0,1.958989E1,1.3542592E1],"tree_param":{"num_deleted":"0","num_feature":"46","num_nodes":"31","size_leaf_vector":"0"}},{"base_weights":[3.2402432E-4,-3.649692E-2,7.424922E-1,-2.1050678E-1,1.4009644E-1,9.919203E-1,-1.5382168E-1,-2.1488934E-3,-4.5373705E-1,6.1796284E-1,7.7029914E-3,1.1102878E0,4.4366118E-1,4.2239693E-1,-5.685279E-1,5.915466E-1,-2.0017228E-1,9.2943907E-1,-5.306765E-1,-2.5176334E-1,9.081229E-1,-2.1652284E-1,2.9373127E-1,6.0878384E-1,3.2956168E-2],"categories":[],"categories_nodes":[],"categories_segments":[],"categories_sizes":[],"default_left":[1,1,1,1,1,1,1,1,1,1,1,0,1,0,0,0,0,0,0,0,0,0,0,0,0],"id":40,"left_children":[1,3,5,7,9,11,13,15,17,19,21,-1,23,-1,-1,-1,-1,-1,-1,-1,-1,-1,-1,-1,-1],"loss_changes":[6.912055E0,7.434818E0,2.825451E0,6.1707892E0,7.600282E0,1.2308693E-1,1.0689793E0,7.948005E0,6.472373E0,6.8065767E0,6.1654572E0,0E0,2.071287E-1,0E0,0E0,0E0,0E0,0E0,0E0,0E0,0E0,0E0,0E0,0E0,0E0],"parents":[2147483647,0,0,1,1,2,2,3,3,4,4,5,5,6,6,7,7,8,8,9,9,10,10,12,12],"right_children":[2,4,6,8,10,12,14,16,18,20,22,-1,24,-1,-1,-1,-1,-1,-1,-1,-1,-1,-1,-1,-1],"split_conditions":[1.546085E1,1.8465E-1,8.5E0,1.275E2,2.6792E0,3.6E1,-2.8052399E1,-3.40421E1,4.575E2,5.506239E2,9.15E1,1.8875252E-1,-2.73836E1,7.1808845E-2,-9.665158E-2,1.0056484E-1,-3.4029935E-2,1.5800765E-1,-9.021672E-2,-4.2800583E-2,1.5438382E-1,-3.6809582E-2,4.9935266E-2,1.03495225E-1,5.602655E-3],"split_indices":[4,44,7,17,6,13,2,2,12,42,9,0,2,0,0,0,0,0,0,0,0,0,0,0,0],"split_type":[0,0,0,0,0,0,0,0,0,0,0,0,0,0,0,0,0,0,0,0,0,0,0,0,0],"sum_hessian":[2.5094394E2,2.3998831E2,1.0955636E1,1.2078163E2,1.1920667E2,8.487148E0,2.4684875E0,6.5597664E1,5.5183968E1,2.5065739E1,9.414094E1,6.1370606E0,2.3500874E0,1.0253111E0,1.4431763E0,1.5910128E1,4.968754E1,2.3240097E0,5.2859955E1,6.3036113E0,1.8762127E1,5.2907906E1,4.1233032E1,1.3321936E0,1.0178939E0],"tree_param":{"num_deleted":"0","num_feature":"46","num_nodes":"25","size_leaf_vector":"0"}},{"base_weights":[-1.0513812E-2,7.017974E-2,-3.915652E-1,-2.960513E-1,1.9012696E-1,-5.4265213E-1,2.0779969E-1,3.469553E-1,-4.578275E-1,-4.709991E-2,3.6525795E-1,-7.398413E-1,-4.7407474E-2,4.3402505E-1,-3.2155633E-1,-1.1366008E-1,1.1417917E0,-5.208455E-1,9.664008E-1,-4.0221745E-1,1.4577936E-1,5.135609E-1,-9.533238E-2,-8.479616E-1,-1.6460127E-1,5.5765325E-1,-4.0937656E-1,-2.3649873E-1,7.543184E-1,2.3740841E-1,-6.493572E-1],"categories":[],"categories_nodes":[],"categories_segments":[],"categories_sizes":[],"default_left":[1,1,1,1,1,1,1,1,1,1,1,1,1,1,1,0,0,0,0,0,0,0,0,0,0,0,0,0,0,0,0],"id":41,"left_children":[1,3,5,7,9,11,13,15,17,19,21,23,25,27,29,-1,-1,-1,-1,-1,-1,-1,-1,-1,-1,-1,-1,-1,-1,-1,-1],"loss_changes":[7.7519383E0,9.200478E0,4.1021056E0,5.5417824E0,6.557082E0,3.4279795E0,1.2882843E0,4.1464415E0,4.252859E0,4.6985025E0,6.2425785E0,1.4336109E0,2.674025E0,1.7130854E0,7.8564966E-1,0E0,0E0,0E0,0E0,0E0,0E0,0E0,0E0,0E0,0E0,0E0,0E0,0E0,0E0,0E0,0E0],"parents":[2147483647,0,0,1,1,2,2,3,3,4,4,5,5,6,6,7,7,8,8,9,9,10,10,11,11,12,12,13,13,14,14],"right_children":[2,4,6,8,10,12,14,16,18,20,22,24,26,28,30,-1,-1,-1,-1,-1,-1,-1,-1,-1,-1,-1,-1,-1,-1,-1,-1],"split_conditions":[9.0085E2,5.5E0,1.35E1,5.1655E2,4.50325E0,2.505E2,5.8335E-1,3.47745E0,4.1075E3,-3.96375E0,3.5E0,3.325E2,-5.47085E0,3.7795E3,-4.50795E0,-1.9322582E-2,1.9410828E-1,-8.854541E-2,1.6429126E-1,-6.837827E-2,2.4782963E-2,8.730701E-2,-1.6206812E-2,-1.4415622E-1,-2.7982747E-2,9.480286E-2,-6.959534E-2,-4.020555E-2,1.2823658E-1,4.0360197E-2,-1.10392824E-1],"split_indices":[1,35,35,1,4,15,8,3,11,5,22,9,5,11,5,0,0,0,0,0,0,0,0,0,0,0,0,0,0,0,0],"split_type":[0,0,0,0,0,0,0,0,0,0,0,0,0,0,0,0,0,0,0,0,0,0,0,0,0,0,0,0,0,0,0],"sum_hessian":[2.5021507E2,2.0716129E2,4.305379E1,5.074747E1,1.5641382E2,3.4461433E1,8.592359E0,9.971082E0,4.077639E1,6.6740425E1,8.967339E1,2.429437E1,1.0167063E1,6.145927E0,2.4464319E0,6.855345E0,3.1157367E0,3.965602E1,1.1203673E0,2.3108723E1,4.3631706E1,6.7745415E1,2.1927977E1,2.005146E1,4.24291E0,3.603279E0,6.563783E0,2.0713148E0,4.074612E0,1.0062805E0,1.4401515E0],"tree_param":{"num_deleted":"0","num_feature":"46","num_nodes":"31","size_leaf_vector":"0"}},{"base_weights":[-1.1477665E-2,7.212729E-2,-3.073299E-1,1.5774551E-1,-3.333625E-1,3.9453658E-1,-4.6298504E-1,-1.0513133E0,1.9096686E-1,6.2299117E-2,-7.396484E-1,7.9998547E-1,-1.5249498E-1,-6.881528E-1,-8.585282E-3,5.953523E-1,9.50212E-2,-9.81787E-2,1.0178651E0,-8.4612286E-1,4.3214768E-1,4.0075272E-1,-7.7612543E-1,-7.995845E-1,4.0554202E-1,2.2060022E-1,-6.6071326E-1],"categories":[],"categories_nodes":[],"categories_segments":[],"categories_sizes":[],"default_left":[1,1,1,1,1,1,1,0,1,1,1,0,1,1,1,0,0,0,0,0,0,0,0,0,0,0,0],"id":42,"left_children":[1,3,5,7,9,11,13,-1,15,17,19,-1,21,23,25,-1,-1,-1,-1,-1,-1,-1,-1,-1,-1,-1,-1],"loss_changes":[6.095873E0,6.7273893E0,6.1140666E0,6.604202E0,5.4858327E0,2.4275212E0,4.5878305E0,0E0,5.996272E0,2.8703334E0,2.4583893E0,0E0,2.1274998E0,3.9814749E0,2.5204902E0,0E0,0E0,0E0,0E0,0E0,0E0,0E0,0E0,0E0,0E0,0E0,0E0],"parents":[2147483647,0,0,1,1,2,2,3,3,4,4,5,5,6,6,8,8,9,9,10,10,12,12,13,13,14,14],"right_children":[2,4,6,8,10,12,14,-1,16,18,20,-1,22,24,26,-1,-1,-1,-1,-1,-1,-1,-1,-1,-1,-1,-1],"split_conditions":[1.05063E1,-2.0592701E1,-4.4108902E1,3.63005E0,5.85735E2,1.965E2,1.15E1,-1.7872666E-1,5.7590504E0,1.37495E2,2.61695E0,1.3600011E-1,1.96E2,3.5E0,-3.27361E1,1.01211816E-1,1.6153911E-2,-1.6690696E-2,1.7304036E-1,-1.4384362E-1,7.34665E-2,6.812926E-2,-1.3194384E-1,-1.3593195E-1,6.8943456E-2,3.750275E-2,-1.1232339E-1],"split_indices":[3,2,2,32,1,20,35,0,3,25,33,0,14,34,2,0,0,0,0,0,0,0,0,0,0,0,0],"split_type":[0,0,0,0,0,0,0,0,0,0,0,0,0,0,0,0,0,0,0,0,0,0,0,0,0,0,0],"sum_hessian":[2.4455394E2,1.912615E2,5.3292435E1,1.5842204E2,3.283947E1,9.394935E0,4.38975E1,3.4170253E0,1.5500502E2,1.7066204E1,1.5773264E1,5.1301546E0,4.26478E0,2.900854E1,1.4888961E1,2.8726282E1,1.2627873E2,1.5380465E1,1.6857404E0,1.4714195E1,1.0590688E0,2.4492972E0,1.8154829E0,2.657032E1,2.4382188E0,1.1506729E1,3.3822315E0],"tree_param":{"num_deleted":"0","num_feature":"46","num_nodes":"27","size_leaf_vector":"0"}},{"base_weights":[-2.0734517E-2,7.373928E-2,-2.4322419E-1,1.284189E-2,6.2185514E-1,1.0713927E-1,-4.694186E-1,-2.1499433E-1,1.7159231E-1,7.835447E-1,-1.7307447E-1,-1.4770453E-1,7.361888E-1,-6.2500685E-1,2.9031914E-2,-7.828456E-2,-7.086793E-1,2.5320625E-2,6.10883E-1,-2.8604078E-1,8.8646454E-1,5.254872E-1,-6.2965083E-1,2.552143E-1,-7.490051E-1,1.2998823E0,-3.753772E-2,4.0050754E-1,-7.078872E-1,-3.1125882E-1,8.745182E-1],"categories":[],"categories_nodes":[],"categories_segments":[],"categories_sizes":[],"default_left":[1,1,1,1,1,1,1,1,1,1,1,1,1,1,1,0,0,0,0,0,0,0,0,0,0,0,0,0,0,0,0],"id":43,"left_children":[1,3,5,7,9,11,13,15,17,19,21,23,25,27,29,-1,-1,-1,-1,-1,-1,-1,-1,-1,-1,-1,-1,-1,-1,-1,-1],"loss_changes":[5.0730243E0,5.652438E0,5.7495418E0,5.594104E0,2.3124194E0,4.762136E0,3.4217138E0,4.2327843E0,5.8387203E0,1.8227034E0,1.5051146E0,5.3979616E0,3.771871E0,3.1300964E0,3.5509043E0,0E0,0E0,0E0,0E0,0E0,0E0,0E0,0E0,0E0,0E0,0E0,0E0,0E0,0E0,0E0,0E0],"parents":[2147483647,0,0,1,1,2,2,3,3,4,4,5,5,6,6,7,7,8,8,9,9,10,10,11,11,12,12,13,13,14,14],"right_children":[2,4,6,8,10,12,14,16,18,20,22,24,26,28,30,-1,-1,-1,-1,-1,-1,-1,-1,-1,-1,-1,-1,-1,-1,-1,-1],"split_conditions":[7.6960003E-1,2.885E2,1.5E0,1.5585E-1,-2.6550002E0,9.905E2,1.5E0,3.548E3,1.55E1,5E-1,8.921E1,1.19E2,9.7155005E2,-4.5897453E1,5E-1,-1.3308628E-2,-1.2047777E-1,4.3045883E-3,1.03852086E-1,-4.8627857E-2,1.5070184E-1,8.9334525E-2,-1.0704268E-1,4.3387257E-2,-1.2733328E-1,2.2098419E-1,-6.381534E-3,6.808758E-2,-1.2034311E-1,-5.2915007E-2,1.4867093E-1],"split_indices":[43,15,22,44,31,12,24,11,41,34,25,20,1,2,23,0,0,0,0,0,0,0,0,0,0,0,0,0,0,0,0],"split_type":[0,0,0,0,0,0,0,0,0,0,0,0,0,0,0,0,0,0,0,0,0,0,0,0,0,0,0,0,0,0,0],"sum_hessian":[2.3949585E2,1.6858127E2,7.091458E1,1.5264532E2,1.5935945E1,2.8027609E1,4.2886974E1,6.253777E1,9.010755E1,1.3254322E1,2.681622E0,2.0491274E1,7.5363355E0,3.249116E1,1.0395815E1,4.988291E1,1.2654855E1,6.83924E1,2.1715147E1,1.0072547E0,1.2247067E1,1.000274E0,1.6813481E0,1.2614276E1,7.8769975E0,3.966523E0,3.5698125E0,2.142965E0,3.0348196E1,7.8629847E0,2.5328305E0],"tree_param":{"num_deleted":"0","num_feature":"46","num_nodes":"31","size_leaf_vector":"0"}},{"base_weights":[-7.9491903E-4,-3.842387E-1,5.8054525E-2,-1.5296826E-1,-8.824201E-1,1.7981122E-1,-2.2830485E-1,2.2605416E-1,-5.9231794E-1,-9.751553E-1,-1.0718238E-1,1.06118426E-1,1.2082157E0,-6.114832E-2,-1.0182984E0,9.339676E-1,-4.1741922E-1,-8.200639E-1,4.6363613E-1,3.3999836E-1,-1.250243E-1,4.917975E-1,2.3994339E0,7.027339E-1,-1.8282358E-1],"categories":[],"categories_nodes":[],"categories_segments":[],"categories_sizes":[],"default_left":[1,1,1,1,1,1,1,1,1,0,0,1,1,1,0,0,0,0,0,0,0,0,0,0,0],"id":44,"left_children":[1,3,5,7,9,11,13,15,17,-1,-1,19,21,23,-1,-1,-1,-1,-1,-1,-1,-1,-1,-1,-1],"loss_changes":[5.390692E0,3.5271702E0,7.2624407E0,3.9502287E0,6.048951E-1,1.0927879E1,8.155582E0,6.324109E0,2.999228E0,0E0,0E0,7.4609623E0,7.0626297E0,5.001372E0,0E0,0E0,0E0,0E0,0E0,0E0,0E0,0E0,0E0,0E0,0E0],"parents":[2147483647,0,0,1,1,2,2,3,3,4,4,5,5,6,6,7,7,8,8,11,11,12,12,13,13],"right_children":[2,4,6,8,10,12,14,16,18,-1,-1,20,22,24,-1,-1,-1,-1,-1,-1,-1,-1,-1,-1,-1],"split_conditions":[4.6054E0,4.1665E-1,8.4865E2,-1.835E0,4.35E1,9.975E2,-2.91299E1,5.909E1,1.68E2,-1.6577956E-1,-1.8221352E-2,3.5E0,1.43E2,-1.5395E-1,-1.7311402E-1,1.587775E-1,-7.0962615E-2,-1.3941352E-1,7.881964E-2,5.7800822E-2,-2.1254536E-2,8.360717E-2,4.079115E-1,1.19467035E-1,-3.10806E-2],"split_indices":[32,8,1,31,10,12,2,25,15,0,0,18,20,43,0,0,0,0,0,0,0,0,0,0,0],"split_type":[0,0,0,0,0,0,0,0,0,0,0,0,0,0,0,0,0,0,0,0,0,0,0,0,0],"sum_hessian":[2.3690283E2,3.0785484E1,2.0611736E2,2.1917698E1,8.867786E0,1.448857E2,6.1231647E1,1.20273285E1,9.89037E0,7.690015E0,1.177771E0,1.362272E2,8.658501E0,5.142741E1,9.804238E0,5.511946E0,6.515382E0,8.319442E0,1.5709286E0,6.7478584E1,6.874862E1,6.289028E0,2.3694723E0,6.409957E0,4.5017452E1],"tree_param":{"num_deleted":"0","num_feature":"46","num_nodes":"25","size_leaf_vector":"0"}},{"base_weights":[-9.410355E-3,6.325167E-2,-3.8773707E-1,1.5912655E-1,-3.3759803E-1,3.5912454E-1,-5.572918E-1,-9.772402E-2,2.925784E-1,4.5159715E-1,-5.610677E-1,7.719459E-1,-2.449605E-1,-7.345882E-1,-1.2595668E-2,4.0195987E-1,-3.7130147E-1,4.2938265E-1,-4.213846E-2,1.1885444E0,-2.4236812E-1,-2.7293932E-1,-9.561523E-1,4.4383082E-1,-6.6131526E-1,-8.4366786E-1,-8.98478E-2,-5.428193E-1,2.904932E-1],"categories":[],"categories_nodes":[],"categories_segments":[],"categories_sizes":[],"default_left":[1,1,1,1,1,1,1,1,1,1,1,0,1,1,1,0,0,0,0,0,0,0,0,0,0,0,0,0,0],"id":45,"left_children":[1,3,5,7,9,11,13,15,17,19,21,-1,23,25,27,-1,-1,-1,-1,-1,-1,-1,-1,-1,-1,-1,-1,-1,-1],"loss_changes":[6.4022474E0,7.5663695E0,4.951403E0,5.459154E0,6.964121E0,2.071907E0,2.981574E0,7.656955E0,4.80371E0,4.865737E0,3.1654825E0,0E0,1.3901912E0,1.5661612E0,1.5433687E0,0E0,0E0,0E0,0E0,0E0,0E0,0E0,0E0,0E0,0E0,0E0,0E0,0E0,0E0],"parents":[2147483647,0,0,1,1,2,2,3,3,4,4,5,5,6,6,7,7,8,8,9,9,10,10,12,12,13,13,14,14],"right_children":[2,4,6,8,10,12,14,16,18,20,22,-1,24,26,28,-1,-1,-1,-1,-1,-1,-1,-1,-1,-1,-1,-1,-1,-1],"split_conditions":[9.0315E2,-2.1817749E1,-4.5560898E1,5E-1,2.7403998E0,2.015E2,2.665E2,5.72E-2,1.545E2,-2.585E0,2.2355E3,1.312333E-1,4.7665E3,1.35E1,2.987E-1,6.8334475E-2,-6.312245E-2,7.299644E-2,-7.1636746E-3,2.020564E-1,-4.1203365E-2,-4.640057E-2,-1.6254899E-1,7.545268E-2,-1.1242574E-1,-1.4342627E-1,-1.5274418E-2,-9.228104E-2,4.9384784E-2],"split_indices":[1,2,2,24,27,20,15,45,20,31,11,0,11,35,0,0,0,0,0,0,0,0,0,0,0,0,0,0,0],"split_type":[0,0,0,0,0,0,0,0,0,0,0,0,0,0,0,0,0,0,0,0,0,0,0,0,0,0,0,0,0],"sum_hessian":[2.3100166E2,1.9448196E2,3.65197E1,1.5743082E2,3.705114E1,6.5499907E0,2.996971E1,5.3920143E1,1.0351068E2,7.9509797E0,2.9100159E1,3.725899E0,2.824092E0,2.2347176E1,7.6225343E0,1.8910751E1,3.500939E1,7.3277954E1,3.0232723E1,3.5104344E0,4.440545E0,1.7805647E1,1.1294512E1,1.0390916E0,1.7850002E0,1.8849588E1,3.497586E0,2.4847517E0,5.1377826E0],"tree_param":{"num_deleted":"0","num_feature":"46","num_nodes":"29","size_leaf_vector":"0"}},{"base_weights":[-1.4664885E-2,-4.755148E-2,7.027416E-1,8.55437E-3,-5.0208765E-1,1.0478421E0,1.3812102E-1,4.521323E-1,-7.18951E-2,-1.886035E-1,-9.17006E-1,4.5978564E-1,-5.705044E-1,6.7331606E-1,-3.9214587E-1,-1.2857017E-2,-7.019123E-1,2.0219156E-1,-5.8951735E-1,7.674467E-1,-7.941751E-2],"categories":[],"categories_nodes":[],"categories_segments":[],"categories_sizes":[],"default_left":[1,1,1,1,1,0,1,1,1,1,0,1,0,0,0,0,0,0,0,0,0],"id":46,"left_children":[1,3,5,7,9,-1,11,13,15,17,-1,19,-1,-1,-1,-1,-1,-1,-1,-1,-1],"loss_changes":[5.4426174E0,5.618799E0,1.8257394E0,7.0608563E0,2.9755616E0,0E0,1.399286E0,5.936014E0,6.2240543E0,2.4767601E0,0E0,7.219409E-1,0E0,0E0,0E0,0E0,0E0,0E0,0E0,0E0,0E0],"parents":[2147483647,0,0,1,1,2,2,3,3,4,4,6,6,7,7,8,8,9,9,11,11],"right_children":[2,4,6,8,10,-1,12,14,16,18,-1,20,-1,-1,-1,-1,-1,-1,-1,-1,-1],"split_conditions":[1.3844E2,-1.954315E1,2.95E1,5.78515E0,5.85735E2,1.7813656E-1,1.5425E2,3.5E0,2.165E2,-1.463975E1,-1.55894E-1,8.2892E0,-9.69876E-2,1.1446591E-1,-6.666607E-2,-2.1857345E-3,-1.1932736E-1,3.437322E-2,-1.0021986E-1,1.3046843E-1,-1.3501234E-2],"split_indices":[25,2,13,3,1,0,25,22,17,2,0,6,0,0,0,0,0,0,0,0,0],"split_type":[0,0,0,0,0,0,0,0,0,0,0,0,0,0,0,0,0,0,0,0,0],"sum_hessian":[2.2827089E2,2.1915819E2,9.112701E0,1.9595197E2,2.3206228E1,5.1246443E0,3.988057E0,2.9373556E1,1.665784E2,1.404747E1,9.158757E0,2.9844785E0,1.0035784E0,2.3436234E1,5.937322E0,1.5323898E2,1.33394165E1,7.364509E0,6.682961E0,1.6307179E0,1.3537605E0],